%YAML:1.0
---
opencv_ml_knn:
   format: 3
   is_classifier: 1
   default_k: 10
   samples: !!opencv-matrix
      rows: 49
      cols: 304
      dt: f
      data: [ 74., 105., 133., 106., 96., 85., 77., 67., 61., 73., 56.,
          46., 42., 47., 36., 35., 31., 24., 139., 62., 111., 151., 181.,
          117., 115., 102., 99., 91., 82., 73., 63., 57., 57., 49., 43.,
          35., 23., 132., 56., 92., 114., 164., 198., 162., 116., 134.,
          123., 113., 90., 79., 79., 69., 65., 55., 35., 23., 123., 55.,
          78., 98., 131., 179., 217., 184., 198., 182., 175., 176., 211.,
          234., 218., 226., 207., 198., 124., 123., 46., 72., 90., 122.,
          169., 220., 226., 222., 240., 244., 210., 205., 215., 118.,
          145., 188., 174., 145., 115., 52., 69., 89., 124., 176., 210.,
          247., 252., 247., 237., 229., 210., 162., 120., 91., 204.,
          168., 132., 113., 45., 65., 82., 128., 167., 208., 254., 251.,
          232., 229., 228., 209., 159., 94., 125., 188., 173., 120.,
          104., 45., 60., 78., 112., 154., 252., 252., 248., 228., 236.,
          220., 199., 232., 49., 44., 55., 173., 111., 96., 63., 54.,
          65., 96., 217., 248., 248., 250., 235., 225., 202., 189., 171.,
          237., 51., 18., 187., 105., 96., 38., 69., 55., 98., 242.,
          223., 225., 230., 221., 202., 194., 196., 196., 241., 27., 64.,
          57., 111., 88., 33., 44., 53., 165., 238., 205., 207., 210.,
          203., 195., 189., 222., 136., 165., 72., 96., 68., 120., 88.,
          30., 40., 56., 245., 228., 212., 190., 196., 183., 168., 180.,
          240., 73., 118., 70., 14., 19., 144., 85., 28., 35., 65., 240.,
          220., 220., 187., 173., 157., 156., 176., 230., 37., 4., 93.,
          13., 11., 143., 85., 26., 35., 48., 232., 161., 156., 188.,
          180., 173., 193., 220., 188., 42., 167., 169., 107., 8., 156.,
          85., 19., 31., 49., 231., 152., 56., 173., 179., 129., 148.,
          93., 52., 40., 151., 145., 25., 7., 127., 85., 18., 22., 35.,
          231., 196., 41., 64., 64., 56., 19., 16., 7., 4., 12., 20.,
          14., 17., 18., 85., 74., 105., 133., 106., 96., 85., 77., 67.,
          61., 73., 56., 46., 42., 47., 36., 35., 31., 24., 139., 62.,
          111., 151., 181., 117., 115., 102., 99., 91., 82., 73., 63.,
          57., 57., 49., 43., 35., 23., 132., 56., 92., 114., 164., 198.,
          162., 116., 134., 123., 113., 90., 79., 79., 69., 65., 55.,
          35., 23., 123., 55., 78., 98., 131., 179., 217., 184., 198.,
          182., 175., 176., 211., 234., 218., 226., 207., 198., 124.,
          123., 46., 72., 90., 122., 169., 220., 226., 222., 240., 244.,
          210., 205., 215., 118., 145., 188., 174., 145., 115., 52., 69.,
          89., 124., 176., 210., 247., 252., 247., 237., 229., 210.,
          162., 120., 91., 204., 168., 132., 113., 45., 65., 82., 128.,
          167., 208., 254., 251., 232., 229., 228., 209., 159., 94.,
          125., 188., 173., 120., 104., 45., 60., 78., 112., 154., 252.,
          252., 248., 228., 236., 220., 199., 232., 49., 44., 55., 173.,
          111., 96., 63., 54., 65., 96., 217., 248., 248., 250., 235.,
          225., 202., 189., 171., 237., 51., 18., 187., 105., 96., 38.,
          69., 55., 98., 242., 223., 225., 230., 221., 202., 194., 196.,
          196., 241., 27., 64., 57., 111., 88., 33., 44., 53., 165.,
          238., 205., 207., 210., 203., 195., 189., 222., 136., 165.,
          72., 96., 68., 120., 88., 30., 40., 56., 245., 228., 212.,
          190., 196., 183., 168., 180., 240., 73., 118., 70., 14., 19.,
          144., 85., 28., 35., 65., 240., 220., 220., 187., 173., 157.,
          156., 176., 230., 37., 4., 93., 13., 11., 143., 85., 26., 35.,
          48., 232., 161., 156., 188., 180., 173., 193., 220., 188., 42.,
          167., 169., 107., 8., 156., 85., 19., 31., 49., 231., 152.,
          56., 173., 179., 129., 148., 93., 52., 40., 151., 145., 25.,
          7., 127., 85., 18., 22., 35., 231., 196., 41., 64., 64., 56.,
          19., 16., 7., 4., 12., 20., 14., 17., 18., 85., 74., 105.,
          133., 106., 96., 85., 77., 67., 61., 73., 56., 46., 42., 47.,
          36., 35., 31., 24., 139., 62., 111., 151., 181., 117., 115.,
          102., 99., 91., 82., 73., 63., 57., 57., 49., 43., 35., 23.,
          132., 56., 92., 114., 164., 198., 162., 116., 134., 123., 113.,
          90., 79., 79., 69., 65., 55., 35., 23., 123., 55., 78., 98.,
          131., 179., 217., 184., 198., 182., 175., 176., 211., 234.,
          218., 226., 207., 198., 124., 123., 46., 72., 90., 122., 169.,
          220., 226., 222., 240., 244., 210., 205., 215., 118., 145.,
          188., 174., 145., 115., 52., 69., 89., 124., 176., 210., 247.,
          252., 247., 237., 229., 210., 162., 120., 91., 204., 168.,
          132., 113., 45., 65., 82., 128., 167., 208., 254., 251., 232.,
          229., 228., 209., 159., 94., 125., 188., 173., 120., 104., 45.,
          60., 78., 112., 154., 252., 252., 248., 228., 236., 220., 199.,
          232., 49., 44., 55., 173., 111., 96., 63., 54., 65., 96., 217.,
          248., 248., 250., 235., 225., 202., 189., 171., 237., 51., 18.,
          187., 105., 96., 38., 69., 55., 98., 242., 223., 225., 230.,
          221., 202., 194., 196., 196., 241., 27., 64., 57., 111., 88.,
          33., 44., 53., 165., 238., 205., 207., 210., 203., 195., 189.,
          222., 136., 165., 72., 96., 68., 120., 88., 30., 40., 56.,
          245., 228., 212., 190., 196., 183., 168., 180., 240., 73.,
          118., 70., 14., 19., 144., 85., 28., 35., 65., 240., 220.,
          220., 187., 173., 157., 156., 176., 230., 37., 4., 93., 13.,
          11., 143., 85., 26., 35., 48., 232., 161., 156., 188., 180.,
          173., 193., 220., 188., 42., 167., 169., 107., 8., 156., 85.,
          19., 31., 49., 231., 152., 56., 173., 179., 129., 148., 93.,
          52., 40., 151., 145., 25., 7., 127., 85., 18., 22., 35., 231.,
          196., 41., 64., 64., 56., 19., 16., 7., 4., 12., 20., 14., 17.,
          18., 85., 53., 55., 56., 56., 56., 57., 58., 61., 68., 71.,
          70., 52., 32., 30., 21., 6., 5., 2., 3., 53., 55., 55., 56.,
          56., 57., 58., 60., 68., 71., 81., 52., 32., 26., 28., 11., 5.,
          7., 2., 54., 54., 55., 56., 56., 65., 57., 68., 69., 71., 105.,
          51., 34., 27., 26., 17., 8., 5., 4., 53., 53., 53., 54., 55.,
          60., 63., 59., 66., 57., 116., 51., 30., 35., 23., 99., 9., 6.,
          5., 51., 52., 54., 55., 59., 62., 64., 62., 63., 54., 122.,
          45., 30., 60., 40., 55., 10., 7., 6., 50., 50., 51., 54., 65.,
          54., 56., 58., 181., 216., 210., 254., 62., 44., 71., 21., 12.,
          8., 5., 49., 49., 53., 60., 60., 57., 56., 53., 65., 21., 81.,
          181., 0., 63., 24., 74., 19., 8., 6., 49., 49., 52., 62., 58.,
          59., 53., 51., 51., 52., 189., 98., 28., 84., 24., 88., 13.,
          7., 8., 47., 48., 52., 57., 62., 57., 49., 57., 52., 71., 233.,
          11., 40., 63., 79., 79., 19., 39., 5., 47., 48., 49., 51., 59.,
          62., 51., 64., 52., 143., 173., 2., 8., 26., 29., 111., 18.,
          30., 7., 46., 47., 48., 50., 53., 55., 54., 58., 54., 212.,
          135., 6., 14., 11., 73., 113., 11., 19., 10., 44., 45., 47.,
          50., 58., 52., 46., 55., 51., 42., 9., 30., 16., 14., 93., 70.,
          17., 19., 11., 41., 41., 47., 47., 52., 54., 52., 43., 17.,
          53., 44., 66., 69., 46., 26., 27., 20., 12., 8., 41., 41., 43.,
          54., 44., 53., 58., 52., 14., 71., 20., 68., 81., 49., 31.,
          26., 18., 7., 7., 41., 41., 43., 54., 44., 46., 52., 49., 22.,
          12., 16., 61., 47., 38., 33., 40., 18., 10., 7., 41., 41., 43.,
          51., 43., 46., 42., 34., 28., 66., 37., 63., 63., 43., 28.,
          26., 19., 13., 13., 55., 55., 57., 62., 58., 67., 66., 68.,
          67., 68., 96., 89., 78., 65., 16., 15., 94., 96., 69., 55.,
          55., 57., 58., 57., 67., 65., 68., 68., 68., 106., 105., 74.,
          17., 15., 12., 59., 65., 68., 54., 56., 58., 57., 66., 67.,
          67., 65., 62., 61., 18., 20., 34., 27., 18., 17., 55., 54.,
          38., 55., 55., 57., 63., 65., 67., 64., 55., 54., 54., 35.,
          31., 13., 16., 17., 17., 25., 45., 73., 55., 55., 61., 58.,
          66., 67., 58., 60., 65., 58., 43., 17., 23., 11., 15., 22.,
          28., 101., 66., 55., 55., 59., 60., 65., 64., 61., 67., 185.,
          218., 224., 254., 63., 15., 13., 17., 90., 95., 68., 56., 55.,
          61., 65., 66., 65., 66., 64., 75., 24., 94., 184., 0., 17.,
          16., 83., 113., 94., 73., 58., 61., 64., 65., 66., 64., 66.,
          65., 65., 62., 212., 94., 5., 21., 87., 114., 108., 105., 75.,
          63., 63., 64., 64., 64., 64., 63., 62., 65., 83., 235., 10.,
          10., 11., 12., 19., 50., 101., 69., 63., 61., 63., 63., 58.,
          62., 63., 64., 60., 145., 175., 2., 28., 72., 29., 19., 19.,
          81., 70., 60., 60., 58., 56., 54., 54., 62., 62., 52., 212.,
          137., 9., 107., 116., 116., 23., 22., 22., 70., 55., 59., 57.,
          53., 53., 60., 60., 59., 47., 24., 8., 54., 109., 118., 76.,
          40., 36., 64., 68., 56., 58., 56., 50., 56., 57., 57., 48.,
          23., 50., 103., 108., 114., 117., 56., 104., 99., 100., 70.,
          57., 56., 50., 50., 48., 50., 55., 46., 30., 72., 102., 120.,
          120., 114., 107., 104., 98., 91., 65., 57., 52., 57., 57., 52.,
          53., 52., 42., 55., 74., 92., 107., 105., 106., 104., 96., 73.,
          47., 51., 55., 53., 57., 57., 56., 57., 46., 48., 55., 71.,
          86., 98., 102., 101., 98., 94., 77., 66., 33., 53., 55., 56.,
          56., 56., 57., 58., 61., 68., 71., 70., 52., 32., 30., 21., 6.,
          5., 2., 3., 53., 55., 55., 56., 56., 57., 58., 60., 68., 71.,
          81., 52., 32., 26., 28., 11., 5., 7., 2., 54., 54., 55., 56.,
          56., 65., 57., 68., 69., 71., 105., 51., 34., 27., 26., 17.,
          8., 5., 4., 53., 53., 53., 54., 55., 60., 63., 59., 66., 57.,
          116., 51., 30., 35., 23., 99., 9., 6., 5., 51., 52., 54., 55.,
          59., 62., 64., 62., 63., 54., 122., 45., 30., 60., 40., 55.,
          10., 7., 6., 50., 50., 51., 54., 65., 54., 56., 58., 55., 78.,
          252., 162., 31., 44., 71., 21., 12., 8., 5., 49., 49., 53.,
          60., 60., 57., 56., 53., 53., 169., 217., 111., 40., 74., 24.,
          74., 19., 8., 6., 49., 49., 52., 62., 58., 59., 53., 51., 64.,
          213., 150., 115., 54., 84., 24., 88., 13., 7., 8., 47., 48.,
          52., 57., 62., 57., 49., 57., 147., 131., 144., 116., 32., 63.,
          79., 79., 19., 39., 5., 47., 48., 49., 51., 59., 62., 51., 64.,
          187., 205., 231., 225., 32., 26., 29., 111., 18., 30., 7., 32.,
          31., 31., 29., 34., 32., 33., 55., 54., 12., 167., 133., 2.,
          9., 73., 113., 11., 19., 10., 11., 12., 15., 23., 53., 36.,
          13., 77., 67., 67., 49., 21., 8., 14., 93., 70., 17., 19., 11.,
          6., 6., 26., 27., 54., 76., 71., 21., 15., 85., 47., 66., 69.,
          46., 26., 27., 20., 12., 8., 4., 5., 21., 72., 30., 82., 121.,
          98., 26., 112., 24., 68., 81., 49., 31., 26., 18., 7., 7., 5.,
          8., 14., 80., 28., 45., 82., 109., 44., 19., 19., 61., 47.,
          38., 33., 40., 18., 10., 7., 5., 9., 20., 69., 25., 46., 32.,
          73., 55., 104., 46., 67., 63., 43., 28., 26., 19., 13., 13.,
          55., 55., 57., 62., 58., 67., 66., 68., 67., 68., 96., 89.,
          78., 65., 16., 15., 94., 96., 69., 55., 55., 57., 58., 57.,
          67., 65., 68., 68., 68., 106., 105., 74., 17., 15., 12., 59.,
          65., 68., 54., 56., 58., 57., 66., 67., 67., 65., 62., 61.,
          18., 20., 34., 27., 18., 17., 55., 54., 38., 55., 55., 57.,
          63., 65., 67., 64., 55., 54., 54., 35., 31., 13., 16., 17.,
          17., 25., 45., 73., 55., 55., 61., 58., 66., 67., 58., 60.,
          65., 58., 43., 17., 23., 11., 15., 22., 28., 101., 66., 55.,
          55., 59., 60., 65., 64., 61., 67., 65., 89., 253., 148., 33.,
          15., 13., 17., 90., 95., 68., 56., 55., 61., 65., 66., 65.,
          66., 64., 64., 173., 231., 112., 20., 19., 16., 83., 113., 94.,
          73., 58., 61., 64., 65., 66., 64., 66., 65., 77., 215., 165.,
          114., 9., 21., 87., 114., 108., 105., 75., 63., 63., 64., 64.,
          64., 64., 63., 62., 153., 138., 146., 115., 8., 11., 12., 19.,
          50., 101., 69., 63., 61., 63., 63., 58., 62., 63., 64., 189.,
          205., 232., 225., 42., 72., 29., 19., 19., 81., 70., 53., 53.,
          48., 40., 35., 30., 58., 70., 41., 11., 168., 134., 13., 103.,
          116., 23., 22., 22., 70., 37., 47., 44., 35., 36., 69., 87.,
          98., 40., 37., 41., 38., 53., 118., 76., 40., 36., 64., 68.,
          52., 60., 60., 41., 73., 89., 101., 51., 37., 79., 108., 108.,
          114., 117., 56., 104., 99., 100., 70., 62., 68., 50., 53., 51.,
          66., 102., 59., 67., 114., 117., 120., 120., 114., 107., 104.,
          98., 91., 65., 74., 59., 82., 97., 74., 90., 80., 78., 121.,
          117., 112., 107., 105., 106., 104., 96., 73., 47., 51., 77.,
          76., 98., 109., 116., 121., 59., 120., 112., 112., 108., 103.,
          102., 101., 98., 94., 77., 66., 33., 53., 55., 56., 56., 56.,
          57., 58., 61., 68., 71., 70., 52., 32., 30., 21., 6., 5., 2.,
          3., 53., 55., 55., 56., 56., 57., 58., 60., 68., 71., 81., 52.,
          32., 26., 28., 11., 5., 7., 2., 54., 54., 55., 56., 56., 65.,
          57., 68., 69., 71., 105., 51., 34., 27., 26., 17., 8., 5., 4.,
          53., 53., 53., 54., 55., 60., 63., 59., 66., 57., 116., 51.,
          30., 35., 23., 99., 9., 6., 5., 51., 52., 54., 55., 59., 62.,
          64., 62., 63., 54., 122., 45., 30., 60., 40., 55., 10., 7., 6.,
          46., 50., 51., 54., 65., 54., 56., 58., 147., 224., 233., 215.,
          33., 44., 71., 21., 12., 8., 5., 28., 35., 46., 60., 60., 57.,
          56., 53., 61., 34., 195., 34., 17., 73., 24., 74., 19., 8., 6.,
          11., 15., 25., 51., 51., 59., 53., 51., 51., 149., 195., 27.,
          83., 84., 24., 88., 13., 7., 8., 6., 8., 19., 35., 46., 35.,
          30., 57., 52., 87., 163., 198., 53., 63., 79., 79., 19., 39.,
          5., 8., 11., 15., 22., 52., 65., 24., 70., 102., 84., 52.,
          241., 2., 26., 29., 111., 18., 30., 7., 10., 15., 20., 28.,
          49., 59., 62., 93., 132., 217., 194., 104., 0., 11., 73., 113.,
          11., 19., 10., 6., 14., 24., 41., 99., 62., 19., 84., 67., 42.,
          8., 16., 11., 14., 93., 70., 17., 19., 11., 7., 10., 48., 46.,
          81., 100., 78., 21., 15., 85., 47., 66., 69., 46., 26., 27.,
          20., 12., 8., 8., 9., 31., 102., 37., 89., 121., 98., 26.,
          112., 24., 68., 81., 49., 31., 26., 18., 7., 7., 8., 12., 19.,
          98., 30., 45., 82., 109., 44., 19., 19., 61., 47., 38., 33.,
          40., 18., 10., 7., 7., 12., 23., 75., 25., 46., 32., 73., 55.,
          104., 46., 67., 63., 43., 28., 26., 19., 13., 13., 55., 55.,
          57., 62., 58., 67., 66., 68., 67., 68., 96., 89., 78., 65.,
          16., 15., 94., 96., 69., 55., 55., 57., 58., 57., 67., 65.,
          68., 68., 68., 106., 105., 74., 17., 15., 12., 59., 65., 68.,
          54., 56., 58., 57., 66., 67., 67., 65., 62., 61., 18., 20.,
          34., 27., 18., 17., 55., 54., 38., 55., 55., 57., 63., 65.,
          67., 64., 55., 54., 54., 35., 31., 13., 16., 17., 17., 25.,
          45., 73., 55., 55., 61., 58., 66., 67., 58., 60., 65., 58.,
          43., 17., 23., 11., 15., 22., 28., 101., 66., 51., 55., 59.,
          60., 65., 64., 61., 67., 153., 226., 240., 209., 35., 15., 13.,
          17., 90., 95., 68., 40., 44., 57., 65., 66., 65., 66., 64.,
          71., 39., 199., 36., 9., 19., 16., 83., 113., 94., 73., 32.,
          42., 52., 56., 63., 64., 66., 65., 65., 154., 215., 25., 14.,
          21., 87., 114., 108., 105., 75., 56., 53., 55., 54., 52., 51.,
          56., 62., 65., 99., 166., 198., 14., 11., 12., 19., 50., 101.,
          69., 71., 61., 69., 67., 52., 69., 71., 73., 125., 87., 58.,
          241., 7., 72., 29., 19., 19., 81., 70., 73., 77., 68., 56.,
          52., 54., 112., 118., 123., 217., 196., 109., 6., 116., 116.,
          23., 22., 22., 70., 68., 94., 85., 65., 67., 118., 121., 107.,
          40., 23., 7., 28., 68., 118., 76., 40., 36., 64., 68., 102.,
          116., 113., 71., 110., 117., 110., 51., 37., 79., 108., 108.,
          114., 117., 56., 104., 99., 100., 70., 114., 117., 77., 74.,
          63., 73., 102., 59., 67., 114., 117., 120., 120., 114., 107.,
          104., 98., 91., 65., 115., 86., 111., 118., 81., 90., 80., 78.,
          121., 117., 112., 107., 105., 106., 104., 96., 73., 47., 51.,
          108., 99., 117., 120., 116., 121., 59., 120., 112., 112., 108.,
          103., 102., 101., 98., 94., 77., 66., 33., 24., 35., 49., 56.,
          56., 57., 58., 61., 68., 71., 70., 52., 32., 30., 21., 6., 5.,
          2., 3., 13., 25., 37., 52., 56., 57., 58., 60., 68., 71., 81.,
          52., 32., 26., 28., 11., 5., 7., 2., 7., 14., 26., 41., 55.,
          65., 57., 68., 69., 71., 105., 51., 34., 27., 26., 17., 8., 5.,
          4., 6., 7., 11., 27., 42., 60., 63., 59., 66., 57., 116., 51.,
          30., 35., 23., 99., 9., 6., 5., 3., 5., 12., 17., 38., 56.,
          64., 62., 63., 54., 122., 45., 30., 60., 40., 55., 10., 7., 6.,
          4., 4., 9., 16., 50., 30., 52., 58., 91., 209., 216., 163.,
          31., 44., 71., 21., 12., 8., 5., 4., 10., 20., 50., 42., 30.,
          33., 53., 178., 133., 67., 235., 39., 74., 24., 74., 19., 8.,
          6., 6., 8., 18., 73., 49., 45., 19., 23., 132., 103., 98.,
          190., 7., 84., 24., 88., 13., 7., 8., 9., 10., 35., 68., 95.,
          62., 16., 48., 29., 36., 209., 68., 16., 63., 79., 79., 19.,
          39., 5., 13., 17., 24., 37., 89., 111., 41., 118., 39., 154.,
          134., 5., 14., 26., 29., 111., 18., 30., 7., 14., 21., 26.,
          37., 62., 70., 67., 93., 140., 255., 211., 224., 42., 11., 73.,
          113., 11., 19., 10., 7., 17., 27., 45., 102., 62., 19., 84.,
          67., 40., 0., 11., 2., 13., 93., 70., 17., 19., 11., 7., 10.,
          48., 46., 81., 100., 78., 21., 15., 85., 47., 66., 69., 46.,
          26., 27., 20., 12., 8., 8., 9., 31., 102., 37., 89., 121., 98.,
          26., 112., 24., 68., 81., 49., 31., 26., 18., 7., 7., 8., 12.,
          19., 98., 30., 45., 82., 109., 44., 19., 19., 61., 47., 38.,
          33., 40., 18., 10., 7., 7., 12., 23., 75., 25., 46., 32., 73.,
          55., 104., 46., 67., 63., 43., 28., 26., 19., 13., 13., 26.,
          37., 50., 62., 58., 67., 66., 68., 67., 68., 96., 89., 78.,
          65., 16., 15., 94., 96., 69., 17., 27., 41., 54., 57., 67.,
          65., 68., 68., 68., 106., 105., 74., 17., 15., 12., 59., 65.,
          68., 11., 18., 31., 43., 66., 67., 67., 65., 62., 61., 18.,
          20., 34., 27., 18., 17., 55., 54., 38., 12., 12., 20., 47.,
          58., 67., 64., 55., 54., 54., 35., 31., 13., 16., 17., 17.,
          25., 45., 73., 15., 16., 37., 25., 52., 63., 58., 60., 65.,
          58., 43., 17., 23., 11., 15., 22., 28., 101., 66., 24., 24.,
          41., 39., 51., 50., 58., 67., 99., 212., 228., 150., 33., 15.,
          13., 17., 90., 95., 68., 39., 38., 59., 69., 64., 56., 56.,
          64., 182., 138., 83., 236., 20., 19., 16., 83., 113., 94., 73.,
          58., 72., 88., 87., 87., 68., 64., 53., 140., 106., 128., 187.,
          1., 21., 87., 114., 108., 105., 75., 108., 106., 111., 110.,
          108., 101., 92., 70., 55., 44., 211., 66., 5., 11., 12., 19.,
          50., 101., 69., 119., 101., 114., 112., 88., 117., 119., 122.,
          98., 157., 138., 4., 29., 72., 29., 19., 19., 81., 70., 104.,
          107., 93., 73., 65., 64., 121., 118., 132., 255., 212., 225.,
          125., 112., 116., 23., 22., 22., 70., 84., 112., 97., 71., 69.,
          118., 121., 107., 40., 22., 0., 19., 14., 105., 76., 40., 36.,
          64., 68., 111., 122., 113., 71., 110., 117., 110., 51., 37.,
          79., 108., 108., 114., 117., 56., 104., 99., 100., 70., 114.,
          117., 77., 74., 63., 73., 102., 59., 67., 114., 117., 120.,
          120., 114., 107., 104., 98., 91., 65., 115., 86., 111., 118.,
          81., 90., 80., 78., 121., 117., 112., 107., 105., 106., 104.,
          96., 73., 47., 51., 108., 99., 117., 120., 116., 121., 59.,
          120., 112., 112., 108., 103., 102., 101., 98., 94., 77., 66.,
          33., 3., 5., 14., 10., 12., 16., 32., 51., 68., 71., 70., 52.,
          32., 30., 21., 6., 5., 2., 3., 2., 7., 9., 14., 12., 16., 27.,
          47., 68., 71., 81., 52., 32., 26., 28., 11., 5., 7., 2., 8.,
          7., 8., 15., 14., 46., 19., 57., 69., 71., 105., 51., 34., 27.,
          26., 17., 8., 5., 4., 7., 6., 10., 15., 17., 37., 42., 35.,
          63., 57., 116., 51., 30., 35., 23., 99., 9., 6., 5., 5., 8.,
          18., 26., 44., 53., 49., 36., 58., 54., 122., 45., 30., 60.,
          49., 55., 10., 7., 6., 6., 7., 15., 29., 96., 41., 195., 221.,
          109., 52., 14., 123., 241., 219., 185., 19., 12., 8., 5., 5.,
          13., 28., 79., 72., 147., 145., 62., 229., 38., 27., 93., 170.,
          5., 4., 28., 19., 8., 6., 7., 10., 22., 93., 67., 194., 100.,
          10., 254., 25., 33., 124., 234., 179., 66., 88., 13., 7., 8.,
          9., 10., 36., 72., 104., 200., 99., 49., 249., 15., 15., 20.,
          43., 131., 223., 64., 19., 39., 5., 13., 17., 24., 37., 89.,
          188., 152., 93., 226., 29., 42., 108., 56., 66., 237., 15.,
          18., 30., 7., 14., 21., 26., 37., 62., 88., 207., 216., 112.,
          139., 149., 108., 209., 193., 129., 8., 11., 19., 10., 7., 17.,
          27., 45., 102., 62., 17., 18., 12., 48., 23., 28., 10., 3.,
          24., 46., 17., 19., 11., 7., 10., 48., 46., 81., 100., 78.,
          21., 15., 85., 47., 66., 69., 46., 26., 27., 20., 12., 8., 8.,
          9., 31., 102., 37., 89., 121., 98., 26., 112., 24., 68., 81.,
          49., 31., 26., 18., 7., 7., 8., 12., 19., 98., 30., 45., 82.,
          109., 44., 19., 19., 61., 47., 38., 33., 40., 18., 10., 7., 7.,
          12., 23., 75., 25., 46., 32., 73., 55., 104., 46., 67., 63.,
          43., 28., 26., 19., 13., 13., 10., 12., 18., 32., 16., 44.,
          49., 62., 67., 68., 96., 89., 78., 65., 16., 15., 94., 96.,
          69., 11., 13., 18., 23., 16., 48., 44., 59., 68., 68., 106.,
          105., 74., 17., 15., 12., 59., 65., 68., 14., 16., 22., 20.,
          59., 51., 46., 53., 62., 61., 18., 20., 34., 27., 18., 17.,
          55., 54., 38., 19., 16., 31., 64., 66., 62., 45., 27., 50.,
          54., 35., 31., 13., 16., 17., 17., 25., 45., 73., 25., 28.,
          67., 42., 79., 75., 28., 33., 60., 58., 43., 17., 23., 11.,
          25., 22., 28., 101., 66., 35., 37., 70., 70., 98., 88., 201.,
          225., 122., 64., 90., 104., 241., 214., 163., 16., 90., 95.,
          68., 50., 49., 85., 107., 112., 176., 171., 71., 230., 44.,
          123., 121., 159., 1., 3., 32., 113., 94., 73., 65., 83., 107.,
          110., 119., 206., 129., 48., 254., 26., 111., 119., 228., 170.,
          118., 114., 108., 105., 75., 108., 108., 114., 116., 119.,
          214., 119., 70., 251., 15., 28., 15., 18., 128., 220., 15.,
          50., 101., 69., 119., 101., 114., 112., 88., 191., 163., 96.,
          234., 30., 50., 104., 72., 102., 237., 3., 19., 81., 70., 104.,
          107., 93., 73., 65., 83., 213., 218., 104., 139., 153., 113.,
          220., 214., 152., 2., 22., 22., 70., 84., 112., 97., 71., 69.,
          118., 110., 24., 7., 27., 19., 49., 67., 23., 19., 26., 36.,
          64., 68., 111., 122., 113., 71., 110., 117., 110., 51., 37.,
          79., 108., 108., 114., 117., 56., 104., 99., 100., 70., 114.,
          117., 77., 74., 63., 73., 102., 59., 67., 114., 117., 120.,
          120., 114., 107., 104., 98., 91., 65., 115., 86., 111., 118.,
          81., 90., 80., 78., 121., 117., 112., 107., 105., 106., 104.,
          96., 73., 47., 51., 108., 99., 117., 120., 116., 121., 59.,
          120., 112., 112., 108., 103., 102., 101., 98., 94., 77., 66.,
          33., 57., 55., 53., 53., 54., 64., 55., 56., 56., 56., 60.,
          56., 65., 65., 54., 53., 54., 53., 54., 63., 63., 64., 64.,
          55., 55., 60., 58., 58., 58., 58., 59., 56., 57., 59., 55.,
          54., 53., 53., 61., 62., 64., 64., 58., 57., 64., 59., 59.,
          64., 60., 65., 58., 60., 56., 55., 59., 53., 53., 52., 53.,
          52., 63., 65., 58., 60., 65., 64., 62., 63., 64., 61., 58.,
          61., 55., 56., 53., 52., 52., 54., 56., 60., 64., 64., 65.,
          65., 51., 51., 51., 51., 65., 60., 63., 57., 54., 56., 55.,
          52., 53., 54., 62., 97., 212., 225., 141., 51., 129., 229.,
          50., 63., 203., 226., 125., 53., 61., 52., 55., 53., 57., 57.,
          181., 133., 71., 236., 52., 220., 227., 6., 145., 156., 70.,
          230., 37., 61., 51., 59., 61., 61., 60., 138., 102., 105.,
          191., 4., 85., 224., 6., 190., 110., 34., 254., 25., 57., 51.,
          57., 56., 54., 50., 48., 36., 213., 84., 17., 84., 228., 7.,
          195., 108., 39., 250., 15., 49., 51., 51., 48., 47., 50., 48.,
          167., 151., 9., 47., 88., 230., 7., 165., 155., 61., 229., 2.,
          49., 51., 46., 51., 51., 54., 134., 255., 214., 226., 80.,
          116., 252., 24., 82., 207., 213., 112., 7., 53., 50., 49., 52.,
          54., 57., 59., 30., 0., 8., 6., 39., 29., 1., 41., 42., 13.,
          11., 41., 54., 51., 51., 52., 53., 54., 53., 42., 43., 42.,
          42., 42., 42., 42., 42., 43., 41., 57., 54., 52., 47., 52.,
          52., 54., 55., 41., 42., 41., 42., 42., 43., 42., 43., 42.,
          40., 42., 48., 54., 50., 46., 48., 53., 54., 54., 42., 42.,
          43., 47., 49., 48., 48., 47., 47., 41., 43., 41., 55., 48.,
          49., 45., 51., 53., 40., 42., 48., 51., 45., 45., 45., 45.,
          45., 46., 52., 44., 42., 41., 51., 46., 57., 55., 53., 53.,
          54., 64., 55., 56., 56., 56., 60., 56., 65., 65., 54., 53.,
          54., 53., 54., 63., 63., 64., 64., 55., 55., 60., 58., 58.,
          58., 58., 59., 56., 57., 59., 55., 54., 53., 53., 61., 62.,
          64., 64., 58., 57., 64., 59., 59., 64., 60., 65., 58., 60.,
          56., 55., 59., 53., 53., 52., 53., 52., 63., 65., 58., 60.,
          65., 64., 62., 63., 64., 61., 58., 61., 55., 56., 53., 52.,
          52., 54., 56., 60., 64., 64., 65., 65., 51., 51., 51., 51.,
          65., 60., 63., 57., 54., 56., 55., 52., 53., 54., 62., 97.,
          212., 225., 141., 62., 200., 224., 117., 83., 197., 212., 156.,
          53., 61., 52., 55., 53., 57., 57., 181., 133., 71., 236., 133.,
          151., 68., 230., 138., 163., 50., 217., 28., 61., 51., 59.,
          61., 61., 60., 138., 102., 105., 191., 173., 106., 28., 254.,
          44., 229., 239., 125., 9., 57., 51., 57., 56., 54., 50., 48.,
          36., 213., 84., 183., 106., 32., 250., 129., 159., 68., 244.,
          44., 53., 51., 51., 48., 47., 50., 48., 167., 151., 9., 158.,
          154., 56., 228., 178., 129., 34., 249., 22., 51., 51., 46.,
          51., 51., 54., 134., 255., 214., 226., 97., 205., 212., 114.,
          76., 211., 202., 151., 2., 49., 50., 49., 52., 54., 57., 59.,
          30., 0., 8., 6., 35., 10., 8., 32., 33., 11., 14., 30., 54.,
          51., 51., 52., 53., 54., 53., 42., 43., 42., 42., 42., 42.,
          42., 42., 43., 41., 57., 54., 52., 47., 52., 52., 54., 55.,
          41., 42., 41., 42., 42., 43., 42., 43., 42., 40., 42., 48.,
          54., 50., 46., 48., 53., 54., 54., 42., 42., 43., 47., 49.,
          48., 48., 47., 47., 41., 43., 41., 55., 48., 49., 45., 51.,
          53., 40., 42., 48., 51., 45., 45., 45., 45., 45., 46., 52.,
          44., 42., 41., 51., 46., 57., 55., 53., 53., 54., 64., 55.,
          56., 56., 56., 29., 10., 40., 49., 45., 53., 54., 53., 54.,
          63., 63., 64., 64., 55., 55., 60., 58., 58., 58., 21., 23.,
          23., 41., 58., 55., 54., 53., 53., 61., 62., 64., 64., 58.,
          57., 64., 59., 59., 64., 28., 42., 35., 53., 56., 55., 59.,
          53., 53., 52., 53., 52., 63., 65., 58., 60., 65., 64., 62.,
          44., 41., 50., 58., 61., 55., 56., 53., 52., 52., 54., 56.,
          60., 64., 64., 65., 65., 51., 51., 4., 19., 63., 60., 63., 57.,
          54., 56., 55., 52., 53., 54., 62., 63., 138., 231., 50., 79.,
          210., 225., 124., 146., 225., 238., 207., 54., 61., 52., 55.,
          53., 57., 57., 79., 221., 227., 6., 160., 118., 41., 226., 38.,
          36., 196., 36., 14., 60., 51., 59., 61., 61., 60., 61., 88.,
          224., 7., 177., 120., 39., 254., 22., 152., 202., 31., 50.,
          57., 51., 57., 56., 54., 50., 48., 83., 228., 6., 101., 231.,
          201., 236., 0., 95., 172., 201., 55., 53., 51., 51., 48., 47.,
          50., 48., 85., 230., 6., 53., 40., 178., 129., 90., 97., 84.,
          242., 13., 52., 51., 46., 51., 51., 54., 50., 122., 252., 23.,
          72., 191., 184., 23., 115., 220., 203., 126., 3., 53., 50.,
          49., 52., 54., 57., 59., 51., 30., 1., 41., 40., 14., 15., 44.,
          29., 9., 15., 36., 54., 51., 51., 52., 53., 54., 53., 42., 43.,
          42., 42., 42., 42., 42., 42., 43., 41., 57., 54., 52., 47.,
          52., 52., 54., 55., 41., 42., 41., 42., 42., 43., 42., 43.,
          42., 40., 42., 48., 54., 50., 46., 48., 53., 54., 54., 42.,
          42., 43., 47., 49., 48., 48., 47., 47., 41., 43., 41., 55.,
          48., 49., 45., 51., 53., 40., 42., 48., 51., 45., 45., 45.,
          45., 45., 46., 52., 44., 42., 41., 51., 46., 54., 56., 58.,
          61., 64., 61., 61., 63., 69., 69., 68., 67., 65., 68., 68.,
          67., 65., 68., 49., 55., 57., 61., 63., 65., 65., 60., 60.,
          61., 60., 63., 66., 68., 62., 66., 65., 67., 69., 49., 55.,
          59., 58., 64., 62., 61., 64., 61., 58., 62., 68., 68., 69.,
          64., 59., 67., 67., 69., 49., 56., 56., 55., 62., 61., 68.,
          66., 64., 59., 62., 65., 70., 69., 62., 58., 59., 65., 66.,
          45., 54., 54., 60., 55., 64., 68., 69., 66., 59., 64., 62.,
          65., 64., 59., 56., 56., 65., 63., 44., 52., 54., 60., 53.,
          97., 212., 225., 147., 64., 203., 225., 116., 83., 211., 230.,
          136., 61., 60., 41., 50., 55., 58., 59., 177., 133., 72., 236.,
          134., 152., 69., 230., 153., 118., 49., 226., 35., 56., 43.,
          50., 59., 58., 60., 133., 103., 106., 191., 173., 107., 29.,
          254., 168., 121., 50., 254., 22., 56., 43., 53., 57., 53., 55.,
          49., 42., 214., 85., 182., 106., 34., 250., 69., 231., 201.,
          235., 0., 53., 41., 53., 53., 51., 50., 49., 170., 156., 10.,
          157., 155., 62., 229., 2., 35., 178., 129., 5., 55., 42., 52.,
          52., 50., 48., 133., 255., 214., 226., 89., 205., 213., 112.,
          28., 192., 186., 20., 27., 56., 39., 47., 56., 48., 51., 49.,
          28., 0., 9., 6., 35., 10., 10., 36., 44., 16., 18., 50., 53.,
          35., 45., 51., 44., 46., 50., 45., 49., 48., 44., 41., 41.,
          41., 44., 44., 54., 46., 47., 46., 32., 44., 47., 45., 44.,
          50., 46., 54., 45., 45., 40., 40., 40., 41., 43., 51., 45.,
          47., 43., 32., 45., 46., 48., 43., 45., 54., 50., 49., 50.,
          46., 41., 41., 42., 45., 50., 47., 45., 43., 32., 44., 45.,
          47., 48., 41., 44., 48., 43., 43., 51., 52., 41., 41., 40.,
          45., 48., 44., 42., 32., 57., 55., 53., 53., 54., 64., 55.,
          56., 56., 56., 30., 10., 38., 47., 41., 53., 54., 53., 54.,
          63., 63., 64., 64., 55., 55., 60., 58., 58., 58., 22., 24.,
          19., 37., 55., 55., 54., 53., 53., 61., 62., 64., 64., 58.,
          57., 64., 59., 59., 64., 28., 43., 32., 50., 56., 55., 59.,
          53., 53., 52., 53., 52., 63., 65., 58., 60., 65., 64., 62.,
          45., 41., 48., 58., 61., 55., 56., 53., 52., 52., 54., 56.,
          60., 64., 64., 65., 65., 51., 51., 3., 14., 61., 60., 63., 57.,
          54., 56., 55., 52., 53., 54., 62., 63., 138., 231., 50., 79.,
          210., 225., 122., 146., 225., 238., 207., 54., 61., 52., 55.,
          53., 57., 57., 79., 221., 227., 6., 160., 118., 41., 226., 38.,
          36., 196., 36., 14., 60., 51., 59., 61., 61., 60., 61., 88.,
          224., 7., 177., 120., 36., 254., 22., 152., 202., 31., 50.,
          57., 51., 57., 56., 54., 50., 48., 83., 228., 6., 101., 231.,
          201., 236., 0., 95., 172., 201., 55., 53., 51., 51., 48., 47.,
          50., 48., 85., 230., 6., 53., 40., 178., 129., 90., 97., 84.,
          242., 13., 52., 51., 46., 51., 51., 54., 50., 122., 252., 23.,
          72., 191., 184., 23., 115., 220., 203., 126., 3., 53., 50.,
          49., 52., 54., 57., 59., 51., 30., 1., 41., 40., 14., 15., 44.,
          29., 9., 15., 36., 54., 51., 51., 52., 53., 54., 53., 42., 43.,
          42., 42., 42., 42., 42., 42., 43., 41., 57., 54., 52., 47.,
          52., 52., 54., 55., 41., 42., 41., 42., 42., 43., 42., 43.,
          42., 40., 42., 48., 54., 50., 46., 48., 53., 54., 54., 42.,
          42., 43., 47., 49., 48., 48., 47., 47., 41., 43., 41., 55.,
          48., 49., 45., 51., 53., 40., 42., 48., 51., 45., 45., 45.,
          45., 45., 46., 52., 44., 42., 41., 51., 46., 55., 55., 56.,
          56., 56., 57., 56., 57., 57., 58., 45., 38., 28., 30., 26.,
          21., 15., 9., 6., 55., 57., 58., 58., 61., 60., 61., 64., 65.,
          67., 106., 121., 99., 26., 22., 14., 8., 4., 5., 58., 57., 57.,
          57., 60., 61., 61., 64., 64., 67., 83., 108., 125., 67., 25.,
          17., 12., 8., 5., 55., 57., 56., 58., 59., 61., 66., 68., 66.,
          67., 84., 95., 92., 92., 40., 21., 15., 11., 10., 59., 59.,
          61., 61., 63., 63., 64., 68., 66., 64., 86., 96., 101., 71.,
          38., 30., 22., 17., 13., 60., 59., 56., 64., 61., 62., 60.,
          136., 231., 63., 59., 197., 231., 106., 25., 14., 9., 7., 6.,
          51., 51., 54., 59., 58., 59., 85., 222., 228., 6., 135., 142.,
          64., 229., 14., 15., 11., 10., 9., 50., 52., 60., 56., 57.,
          58., 59., 90., 225., 7., 185., 100., 19., 254., 23., 26., 23.,
          22., 15., 51., 51., 54., 59., 62., 58., 56., 85., 228., 6.,
          186., 101., 15., 249., 15., 16., 14., 11., 9., 49., 56., 53.,
          54., 55., 54., 56., 93., 231., 8., 154., 151., 39., 224., 0.,
          13., 12., 9., 6., 51., 58., 52., 52., 53., 53., 53., 122.,
          252., 23., 77., 205., 211., 87., 2., 13., 10., 7., 6., 49.,
          50., 55., 55., 52., 51., 52., 52., 35., 1., 51., 49., 4., 3.,
          9., 10., 8., 7., 6., 46., 49., 45., 43., 44., 44., 44., 44.,
          46., 49., 53., 52., 52., 18., 14., 12., 10., 10., 11., 43.,
          43., 43., 43., 44., 45., 45., 45., 46., 48., 53., 52., 52.,
          41., 24., 15., 13., 12., 12., 43., 44., 44., 44., 43., 42.,
          44., 44., 44., 44., 45., 46., 51., 53., 41., 25., 16., 36.,
          12., 42., 43., 43., 43., 43., 43., 43., 43., 43., 43., 44.,
          44., 45., 51., 46., 40., 40., 37., 15., 59., 59., 56., 59.,
          59., 60., 60., 60., 61., 63., 82., 104., 108., 112., 121.,
          119., 117., 116., 83., 62., 58., 60., 62., 63., 63., 60., 60.,
          61., 63., 91., 106., 105., 111., 123., 119., 119., 117., 82.,
          58., 59., 63., 63., 60., 57., 61., 61., 62., 64., 97., 104.,
          105., 115., 119., 117., 116., 120., 80., 59., 65., 70., 66.,
          65., 61., 58., 64., 61., 62., 89., 94., 100., 115., 114., 110.,
          115., 116., 75., 60., 63., 66., 68., 65., 64., 58., 65., 61.,
          63., 83., 88., 102., 110., 103., 108., 115., 110., 73., 53.,
          50., 51., 63., 63., 62., 59., 132., 230., 59., 83., 210., 232.,
          156., 99., 107., 111., 107., 59., 51., 50., 53., 53., 64., 61.,
          80., 221., 228., 7., 156., 167., 79., 231., 64., 107., 108.,
          97., 51., 51., 50., 58., 53., 64., 62., 60., 91., 225., 8.,
          201., 118., 50., 254., 29., 108., 102., 81., 39., 51., 58.,
          60., 59., 62., 60., 57., 89., 229., 7., 207., 114., 62., 251.,
          15., 101., 97., 71., 35., 51., 58., 56., 51., 61., 56., 54.,
          87., 230., 6., 162., 159., 80., 234., 3., 105., 100., 84., 47.,
          47., 56., 53., 50., 50., 55., 46., 117., 252., 22., 76., 205.,
          215., 132., 12., 66., 47., 52., 41., 48., 54., 48., 50., 49.,
          47., 44., 46., 29., 1., 55., 52., 7., 6., 39., 59., 42., 71.,
          31., 44., 44., 53., 51., 43., 41., 42., 43., 44., 42., 42.,
          50., 51., 36., 38., 48., 36., 48., 45., 41., 46., 48., 42.,
          40., 42., 42., 45., 44., 43., 50., 52., 52., 42., 32., 49.,
          40., 46., 28., 41., 42., 43., 42., 43., 44., 43., 46., 46.,
          46., 54., 57., 50., 47., 44., 45., 38., 31., 39., 45., 42.,
          45., 47., 50., 45., 45., 46., 45., 51., 51., 55., 49., 52.,
          51., 48., 40., 45., 27., 55., 55., 56., 56., 56., 57., 56.,
          57., 57., 58., 45., 38., 28., 30., 26., 21., 15., 9., 6., 55.,
          57., 58., 58., 61., 60., 61., 64., 65., 67., 106., 121., 99.,
          26., 22., 14., 8., 4., 5., 58., 57., 57., 57., 60., 61., 61.,
          64., 64., 67., 83., 108., 125., 67., 25., 17., 12., 8., 5.,
          55., 57., 56., 58., 59., 61., 66., 68., 66., 67., 84., 95.,
          92., 92., 40., 21., 15., 11., 10., 59., 59., 61., 61., 63.,
          63., 64., 68., 66., 64., 86., 96., 101., 71., 38., 30., 22.,
          17., 13., 60., 59., 56., 64., 61., 62., 60., 61., 184., 218.,
          216., 254., 122., 35., 25., 14., 9., 7., 6., 51., 51., 54.,
          59., 58., 59., 66., 64., 73., 20., 82., 182., 0., 23., 20.,
          15., 11., 10., 9., 50., 52., 60., 56., 57., 58., 59., 57., 56.,
          52., 192., 93., 9., 28., 29., 26., 23., 22., 15., 51., 51.,
          54., 59., 62., 58., 56., 51., 50., 71., 235., 12., 17., 25.,
          23., 17., 14., 11., 9., 49., 56., 53., 54., 55., 54., 56., 59.,
          62., 149., 182., 3., 22., 19., 17., 15., 12., 9., 6., 51., 58.,
          52., 52., 53., 53., 53., 53., 55., 218., 157., 31., 33., 26.,
          20., 16., 12., 9., 7., 49., 50., 55., 55., 52., 51., 52., 52.,
          41., 60., 13., 46., 35., 31., 21., 16., 12., 10., 9., 46., 49.,
          45., 43., 44., 44., 44., 44., 19., 42., 83., 77., 101., 31.,
          26., 21., 17., 16., 16., 43., 43., 43., 43., 44., 45., 45.,
          31., 25., 42., 87., 86., 89., 45., 36., 26., 24., 21., 21.,
          43., 44., 44., 44., 43., 42., 39., 15., 14., 23., 31., 43.,
          76., 91., 37., 30., 30., 76., 21., 42., 43., 43., 43., 43.,
          43., 27., 15., 17., 22., 29., 32., 38., 83., 47., 40., 80.,
          94., 28., 59., 59., 56., 59., 59., 60., 60., 60., 61., 63.,
          82., 104., 108., 112., 121., 119., 117., 116., 83., 62., 58.,
          60., 62., 63., 63., 60., 60., 61., 63., 91., 106., 105., 111.,
          123., 119., 119., 117., 82., 58., 59., 63., 63., 60., 57., 61.,
          61., 62., 64., 97., 104., 105., 115., 119., 117., 116., 120.,
          80., 59., 65., 70., 66., 65., 61., 58., 64., 61., 62., 89.,
          94., 100., 115., 114., 110., 115., 116., 75., 60., 63., 66.,
          68., 65., 64., 58., 65., 61., 63., 83., 88., 102., 110., 103.,
          108., 115., 110., 73., 53., 50., 51., 63., 63., 62., 59., 56.,
          183., 217., 221., 254., 124., 108., 99., 107., 111., 107., 59.,
          51., 50., 53., 53., 64., 61., 60., 57., 69., 22., 86., 185.,
          0., 89., 96., 107., 108., 97., 51., 51., 50., 58., 53., 64.,
          62., 60., 58., 55., 59., 207., 118., 28., 96., 98., 108., 102.,
          81., 39., 51., 58., 60., 59., 62., 60., 57., 56., 54., 72.,
          241., 32., 66., 95., 103., 110., 97., 71., 35., 51., 58., 56.,
          51., 61., 56., 54., 51., 46., 143., 186., 8., 95., 99., 109.,
          115., 104., 87., 49., 47., 56., 53., 50., 50., 55., 46., 45.,
          46., 209., 156., 32., 108., 124., 120., 82., 56., 62., 47.,
          48., 54., 48., 50., 49., 47., 44., 46., 28., 32., 20., 54.,
          71., 67., 94., 90., 61., 98., 42., 44., 44., 53., 51., 43.,
          41., 42., 43., 15., 12., 18., 66., 96., 85., 82., 93., 63.,
          78., 70., 41., 46., 48., 42., 40., 42., 42., 32., 19., 14.,
          74., 82., 88., 52., 63., 116., 85., 90., 51., 41., 42., 43.,
          42., 43., 44., 39., 22., 21., 32., 85., 109., 68., 55., 59.,
          100., 91., 66., 80., 45., 42., 45., 47., 50., 45., 30., 22.,
          23., 55., 71., 112., 68., 90., 83., 84., 82., 118., 65., 55.,
          55., 56., 56., 56., 57., 56., 57., 57., 58., 45., 38., 28.,
          30., 26., 21., 15., 9., 6., 55., 57., 58., 58., 61., 60., 61.,
          64., 65., 67., 106., 121., 99., 26., 22., 14., 8., 4., 5., 58.,
          57., 57., 57., 60., 61., 61., 64., 64., 67., 83., 108., 125.,
          67., 25., 17., 12., 8., 5., 55., 57., 56., 58., 59., 61., 66.,
          68., 66., 67., 84., 95., 92., 92., 40., 21., 15., 11., 10.,
          59., 59., 61., 61., 63., 63., 64., 68., 66., 64., 86., 96.,
          101., 71., 38., 30., 22., 17., 13., 60., 59., 56., 64., 61.,
          62., 60., 61., 64., 88., 253., 131., 101., 35., 25., 14., 9.,
          7., 6., 51., 51., 54., 59., 58., 59., 66., 64., 62., 168.,
          218., 111., 15., 27., 20., 15., 11., 10., 9., 50., 52., 60.,
          56., 57., 58., 59., 57., 68., 212., 152., 114., 17., 28., 29.,
          26., 23., 22., 15., 47., 50., 54., 59., 62., 58., 56., 51.,
          146., 131., 146., 117., 14., 25., 23., 17., 14., 11., 9., 29.,
          43., 36., 39., 40., 39., 43., 46., 187., 206., 233., 226., 39.,
          19., 17., 15., 12., 9., 6., 22., 43., 27., 28., 30., 31., 34.,
          44., 69., 24., 174., 137., 4., 23., 20., 16., 12., 9., 7., 22.,
          27., 44., 50., 41., 44., 52., 60., 66., 83., 74., 32., 17.,
          31., 21., 16., 12., 10., 9., 27., 40., 25., 15., 24., 26., 29.,
          29., 37., 59., 83., 77., 101., 31., 26., 21., 17., 16., 16.,
          19., 20., 21., 21., 33., 39., 39., 44., 50., 59., 91., 86.,
          89., 45., 36., 26., 24., 21., 21., 19., 22., 24., 24., 21.,
          21., 26., 26., 27., 32., 33., 43., 76., 91., 37., 30., 30.,
          76., 21., 19., 22., 23., 25., 25., 26., 27., 29., 30., 30.,
          32., 32., 38., 83., 47., 40., 80., 94., 28., 59., 59., 56.,
          59., 59., 60., 60., 60., 61., 63., 82., 104., 108., 112., 121.,
          119., 117., 116., 83., 62., 58., 60., 62., 63., 63., 60., 60.,
          61., 63., 91., 106., 105., 111., 123., 119., 119., 117., 82.,
          58., 59., 63., 63., 60., 57., 61., 61., 62., 64., 97., 104.,
          105., 115., 119., 117., 116., 120., 80., 59., 65., 70., 66.,
          65., 61., 58., 64., 61., 62., 89., 94., 100., 115., 114., 110.,
          115., 116., 75., 60., 63., 66., 68., 65., 64., 58., 65., 61.,
          63., 83., 88., 102., 110., 103., 108., 115., 110., 73., 53.,
          50., 51., 63., 63., 62., 59., 56., 59., 84., 253., 159., 103.,
          108., 99., 107., 111., 107., 59., 51., 50., 53., 53., 64., 61.,
          60., 57., 57., 170., 223., 112., 57., 104., 96., 107., 108.,
          97., 51., 51., 50., 58., 53., 64., 62., 60., 58., 68., 214.,
          161., 119., 53., 96., 98., 108., 102., 81., 39., 48., 56., 60.,
          59., 62., 60., 57., 56., 148., 132., 152., 134., 53., 95.,
          103., 110., 97., 71., 35., 32., 45., 42., 32., 52., 43., 39.,
          32., 177., 204., 234., 229., 77., 99., 109., 115., 104., 87.,
          49., 14., 36., 30., 20., 21., 41., 6., 7., 11., 1., 173., 137.,
          13., 111., 120., 82., 56., 62., 47., 19., 40., 22., 32., 27.,
          23., 6., 23., 17., 45., 106., 38., 34., 67., 94., 90., 61.,
          98., 42., 18., 17., 60., 58., 20., 7., 12., 22., 27., 18., 18.,
          66., 96., 85., 82., 93., 63., 78., 70., 8., 30., 47., 13., 8.,
          16., 17., 45., 37., 19., 77., 82., 88., 52., 63., 116., 85.,
          90., 51., 9., 12., 15., 13., 23., 27., 24., 45., 39., 45., 93.,
          109., 68., 55., 59., 100., 91., 66., 80., 34., 14., 37., 53.,
          71., 38., 39., 46., 42., 75., 81., 112., 68., 90., 83., 84.,
          82., 118., 65., 59., 59., 56., 59., 59., 60., 60., 60., 61.,
          63., 66., 68., 69., 70., 71., 72., 71., 70., 50., 62., 58.,
          60., 62., 63., 63., 60., 60., 61., 63., 67., 69., 69., 69.,
          72., 71., 72., 71., 49., 58., 59., 63., 63., 60., 57., 61.,
          61., 62., 64., 67., 68., 69., 70., 70., 70., 69., 70., 50.,
          59., 65., 70., 66., 65., 61., 58., 64., 61., 62., 65., 66.,
          66., 67., 69., 68., 69., 69., 48., 60., 63., 66., 68., 65.,
          64., 58., 65., 61., 63., 64., 64., 66., 67., 66., 68., 68.,
          68., 47., 53., 50., 51., 63., 98., 211., 224., 144., 59., 84.,
          253., 146., 75., 205., 226., 127., 65., 65., 44., 51., 50.,
          53., 53., 182., 136., 73., 236., 32., 170., 221., 112., 137.,
          157., 71., 230., 44., 63., 42., 51., 50., 58., 53., 140., 105.,
          109., 192., 20., 214., 156., 117., 182., 110., 35., 254., 26.,
          59., 40., 51., 58., 60., 59., 62., 42., 214., 87., 128., 132.,
          149., 126., 189., 107., 41., 250., 15., 52., 38., 51., 58.,
          56., 51., 61., 171., 154., 10., 184., 204., 234., 227., 163.,
          155., 61., 229., 2., 54., 40., 47., 56., 53., 50., 135., 255.,
          213., 226., 71., 14., 171., 135., 32., 206., 214., 110., 7.,
          54., 39., 48., 54., 48., 50., 49., 28., 0., 8., 6., 44., 59.,
          20., 26., 48., 12., 10., 37., 58., 37., 44., 44., 53., 51.,
          43., 41., 42., 43., 44., 42., 42., 50., 54., 52., 52., 54.,
          49., 51., 39., 41., 46., 48., 42., 40., 42., 42., 45., 44.,
          43., 50., 52., 52., 47., 49., 57., 52., 52., 36., 41., 42.,
          43., 42., 43., 44., 43., 46., 46., 46., 54., 57., 50., 47.,
          48., 56., 54., 50., 41., 45., 42., 45., 47., 50., 45., 45.,
          46., 45., 51., 51., 55., 49., 52., 51., 52., 51., 56., 38.,
          55., 55., 56., 56., 56., 57., 56., 57., 57., 58., 60., 59.,
          57., 58., 57., 56., 55., 54., 55., 55., 57., 58., 58., 61.,
          60., 61., 64., 65., 67., 69., 71., 69., 57., 57., 55., 54.,
          54., 54., 58., 57., 57., 57., 60., 61., 61., 64., 64., 67.,
          65., 68., 71., 63., 56., 55., 54., 54., 53., 55., 57., 56.,
          58., 59., 61., 66., 68., 66., 67., 64., 65., 65., 64., 57.,
          54., 53., 53., 53., 59., 59., 61., 61., 63., 63., 64., 68.,
          66., 64., 64., 65., 66., 61., 56., 55., 54., 54., 53., 60.,
          59., 56., 64., 61., 136., 231., 61., 93., 198., 211., 152.,
          75., 201., 224., 118., 50., 51., 49., 51., 51., 54., 59., 78.,
          221., 228., 8., 153., 160., 49., 217., 133., 152., 69., 230.,
          34., 50., 50., 50., 52., 60., 56., 57., 92., 225., 7., 72.,
          228., 239., 121., 173., 106., 29., 254., 25., 51., 50., 51.,
          51., 54., 59., 62., 91., 229., 7., 148., 155., 67., 244., 190.,
          106., 32., 250., 15., 44., 48., 49., 56., 53., 54., 55., 90.,
          231., 7., 196., 129., 30., 249., 147., 153., 54., 227., 2.,
          44., 46., 51., 58., 52., 52., 53., 122., 252., 23., 110., 211.,
          202., 151., 27., 204., 213., 105., 6., 46., 45., 49., 50., 55.,
          55., 52., 51., 34., 1., 49., 40., 10., 13., 25., 42., 10., 8.,
          32., 44., 44., 46., 49., 45., 43., 44., 44., 44., 44., 46.,
          49., 53., 52., 54., 45., 44., 43., 42., 42., 43., 43., 43.,
          43., 43., 44., 45., 45., 45., 46., 48., 53., 52., 52., 45.,
          45., 43., 43., 42., 42., 43., 44., 44., 44., 43., 42., 44.,
          44., 44., 44., 45., 46., 51., 53., 46., 44., 44., 51., 43.,
          42., 43., 43., 43., 43., 43., 43., 43., 43., 43., 44., 44.,
          45., 51., 46., 46., 51., 53., 43., 59., 59., 56., 59., 59.,
          60., 60., 60., 61., 63., 66., 68., 69., 70., 71., 72., 71.,
          70., 50., 62., 58., 60., 62., 63., 63., 60., 60., 61., 63.,
          67., 69., 69., 69., 72., 71., 72., 71., 49., 58., 59., 63.,
          63., 60., 57., 61., 61., 62., 64., 67., 68., 69., 70., 70.,
          70., 69., 70., 50., 59., 65., 70., 66., 65., 61., 58., 64.,
          61., 62., 65., 66., 66., 67., 69., 68., 69., 69., 48., 60.,
          63., 66., 68., 65., 64., 58., 65., 61., 63., 64., 64., 66.,
          67., 66., 68., 68., 68., 47., 53., 50., 51., 63., 98., 211.,
          224., 144., 150., 225., 238., 207., 95., 198., 212., 158., 65.,
          65., 44., 51., 50., 53., 53., 182., 136., 73., 236., 40., 35.,
          196., 36., 128., 163., 51., 217., 33., 63., 42., 51., 50., 58.,
          53., 140., 105., 109., 192., 4., 152., 203., 31., 71., 229.,
          239., 126., 10., 59., 40., 51., 58., 60., 59., 62., 42., 214.,
          87., 16., 89., 172., 201., 150., 160., 68., 244., 45., 57.,
          38., 51., 58., 56., 51., 61., 171., 154., 10., 114., 84., 80.,
          242., 181., 129., 35., 250., 23., 56., 40., 47., 56., 53., 50.,
          135., 255., 213., 226., 139., 218., 202., 127., 73., 211.,
          202., 150., 2., 50., 39., 48., 54., 48., 50., 49., 28., 0., 8.,
          6., 27., 10., 15., 33., 38., 10., 13., 28., 58., 37., 44., 44.,
          53., 51., 43., 41., 42., 43., 44., 42., 42., 50., 54., 52.,
          52., 54., 49., 51., 39., 41., 46., 48., 42., 40., 42., 42.,
          45., 44., 43., 50., 52., 52., 47., 49., 57., 52., 52., 36.,
          41., 42., 43., 42., 43., 44., 43., 46., 46., 46., 54., 57.,
          50., 47., 48., 56., 54., 50., 41., 45., 42., 45., 47., 50.,
          45., 45., 46., 45., 51., 51., 55., 49., 52., 51., 52., 51.,
          56., 38., 16., 34., 60., 90., 119., 81., 87., 110., 176., 173.,
          165., 163., 132., 158., 166., 148., 131., 128., 139., 17., 51.,
          102., 130., 150., 157., 94., 91., 106., 90., 134., 175., 190.,
          124., 168., 163., 182., 157., 132., 29., 80., 73., 160., 121.,
          104., 162., 110., 71., 136., 200., 213., 216., 163., 80., 183.,
          194., 159., 123., 46., 55., 53., 141., 127., 216., 189., 163.,
          97., 154., 184., 243., 237., 152., 84., 92., 195., 152., 123.,
          33., 46., 118., 46., 170., 226., 233., 191., 101., 165., 149.,
          191., 170., 102., 70., 66., 181., 120., 115., 21., 62., 154.,
          46., 182., 212., 207., 176., 56., 143., 116., 18., 76., 54.,
          54., 58., 160., 104., 113., 19., 88., 128., 137., 40., 90.,
          117., 37., 67., 64., 52., 89., 72., 32., 55., 142., 145., 83.,
          104., 17., 145., 133., 162., 61., 121., 97., 70., 56., 88.,
          53., 34., 16., 24., 40., 179., 99., 90., 96., 73., 134., 89.,
          117., 36., 173., 113., 93., 17., 53., 62., 93., 149., 41., 39.,
          138., 93., 105., 96., 80., 110., 79., 69., 55., 146., 151.,
          113., 48., 212., 219., 205., 187., 39., 37., 159., 100., 98.,
          88., 81., 106., 86., 56., 47., 94., 152., 101., 25., 58., 199.,
          195., 148., 38., 82., 121., 102., 114., 88., 40., 180., 68.,
          105., 71., 59., 177., 92., 29., 18., 22., 152., 102., 70.,
          128., 126., 103., 110., 85., 53., 154., 58., 78., 128., 70.,
          127., 104., 56., 14., 18., 16., 64., 56., 178., 82., 110., 72.,
          85., 54., 103., 85., 64., 151., 88., 200., 79., 80., 15., 15.,
          15., 28., 55., 161., 84., 103., 43., 85., 55., 82., 114., 43.,
          62., 194., 131., 121., 135., 85., 14., 15., 20., 68., 137.,
          94., 68., 36., 85., 49., 72., 110., 113., 31., 63., 119., 54.,
          50., 152., 175., 19., 19., 18., 79., 125., 53., 30., 85., 16.,
          34., 60., 90., 119., 81., 87., 110., 176., 173., 165., 163.,
          132., 158., 166., 148., 131., 128., 139., 17., 51., 102., 130.,
          150., 157., 94., 91., 106., 90., 134., 175., 190., 124., 168.,
          163., 182., 157., 132., 29., 80., 73., 160., 121., 104., 162.,
          110., 71., 136., 200., 213., 216., 163., 80., 183., 194., 159.,
          123., 46., 55., 53., 141., 127., 216., 189., 163., 97., 154.,
          184., 243., 237., 152., 84., 92., 195., 152., 123., 33., 46.,
          118., 46., 170., 226., 233., 191., 101., 165., 149., 191.,
          170., 102., 70., 66., 181., 120., 115., 21., 62., 154., 46.,
          182., 212., 207., 176., 56., 143., 116., 18., 76., 54., 54.,
          58., 160., 104., 113., 19., 88., 128., 137., 40., 90., 117.,
          37., 67., 64., 52., 89., 72., 32., 55., 142., 145., 83., 104.,
          17., 145., 133., 162., 61., 121., 97., 70., 56., 88., 53., 34.,
          16., 24., 40., 179., 99., 90., 96., 73., 134., 89., 117., 36.,
          173., 113., 93., 17., 53., 62., 93., 149., 41., 39., 138., 93.,
          105., 96., 80., 110., 79., 69., 55., 146., 151., 113., 48.,
          212., 219., 205., 187., 39., 37., 159., 100., 98., 88., 81.,
          106., 86., 56., 47., 94., 152., 101., 25., 58., 199., 195.,
          148., 38., 82., 121., 102., 114., 88., 40., 180., 68., 105.,
          71., 59., 177., 92., 29., 18., 22., 152., 102., 70., 128.,
          126., 103., 110., 85., 53., 154., 58., 78., 128., 70., 127.,
          104., 56., 14., 18., 16., 64., 56., 178., 82., 110., 72., 85.,
          54., 103., 85., 64., 151., 88., 200., 79., 80., 15., 15., 15.,
          28., 55., 161., 84., 103., 43., 85., 55., 82., 114., 43., 62.,
          194., 131., 121., 135., 85., 14., 15., 20., 68., 137., 94.,
          68., 36., 85., 49., 72., 110., 113., 31., 63., 119., 54., 50.,
          152., 175., 19., 19., 18., 79., 125., 53., 30., 85., 15., 34.,
          60., 90., 119., 80., 88., 110., 175., 173., 165., 163., 132.,
          159., 166., 147., 132., 152., 130., 16., 51., 102., 130., 150.,
          157., 94., 91., 106., 90., 134., 175., 190., 124., 168., 163.,
          182., 202., 150., 28., 80., 73., 160., 121., 104., 162., 110.,
          71., 136., 200., 213., 216., 163., 80., 183., 194., 205., 151.,
          44., 55., 53., 141., 127., 216., 189., 163., 97., 154., 184.,
          243., 237., 152., 84., 92., 195., 196., 113., 31., 46., 118.,
          46., 170., 226., 233., 191., 101., 165., 149., 191., 170.,
          102., 70., 66., 181., 154., 101., 20., 62., 154., 46., 182.,
          212., 207., 176., 56., 143., 116., 18., 76., 54., 54., 58.,
          160., 134., 85., 18., 88., 128., 137., 40., 90., 117., 37.,
          67., 64., 52., 89., 72., 32., 55., 142., 145., 106., 109., 17.,
          145., 133., 162., 61., 121., 97., 70., 56., 88., 53., 34., 16.,
          24., 40., 179., 99., 116., 112., 69., 134., 89., 117., 36.,
          173., 113., 93., 17., 53., 62., 93., 149., 41., 39., 138., 93.,
          136., 113., 76., 110., 79., 69., 55., 146., 151., 113., 48.,
          212., 219., 205., 187., 39., 37., 159., 100., 126., 132., 77.,
          106., 86., 56., 47., 94., 152., 101., 25., 58., 199., 195.,
          148., 38., 82., 121., 102., 147., 98., 38., 180., 68., 105.,
          71., 59., 177., 92., 29., 18., 22., 152., 102., 70., 128.,
          126., 103., 141., 56., 50., 154., 58., 78., 128., 70., 127.,
          104., 56., 14., 18., 16., 64., 56., 178., 82., 110., 93., 43.,
          51., 103., 85., 64., 151., 88., 200., 79., 80., 15., 15., 15.,
          28., 55., 161., 84., 103., 55., 43., 52., 82., 114., 43., 62.,
          194., 131., 121., 135., 85., 14., 15., 20., 68., 137., 94.,
          68., 46., 47., 47., 72., 110., 113., 31., 63., 119., 54., 50.,
          152., 175., 19., 19., 18., 79., 125., 53., 40., 51., 15., 34.,
          60., 90., 119., 80., 88., 110., 175., 173., 165., 163., 132.,
          159., 166., 147., 132., 152., 130., 16., 51., 102., 130., 150.,
          157., 94., 91., 106., 90., 134., 175., 190., 124., 168., 163.,
          182., 202., 150., 28., 80., 73., 160., 121., 104., 162., 110.,
          71., 136., 200., 213., 216., 163., 80., 183., 194., 205., 151.,
          44., 55., 53., 141., 127., 216., 189., 163., 97., 154., 184.,
          243., 237., 152., 84., 92., 195., 196., 113., 31., 46., 118.,
          46., 170., 226., 233., 191., 101., 165., 149., 191., 170.,
          102., 70., 66., 181., 154., 101., 20., 62., 154., 46., 182.,
          212., 207., 176., 56., 143., 116., 18., 76., 54., 54., 58.,
          160., 134., 85., 18., 88., 128., 137., 40., 90., 117., 37.,
          67., 64., 52., 89., 72., 32., 55., 142., 145., 106., 109., 17.,
          145., 133., 162., 61., 121., 97., 70., 56., 88., 53., 34., 16.,
          24., 40., 179., 99., 116., 112., 69., 134., 89., 117., 36.,
          173., 113., 93., 17., 53., 62., 93., 149., 41., 39., 138., 93.,
          136., 113., 76., 110., 79., 69., 55., 146., 151., 113., 48.,
          212., 219., 205., 187., 39., 37., 159., 100., 126., 132., 77.,
          106., 86., 56., 47., 94., 152., 101., 25., 58., 199., 195.,
          148., 38., 82., 121., 102., 147., 98., 38., 180., 68., 105.,
          71., 59., 177., 92., 29., 18., 22., 152., 102., 70., 128.,
          126., 103., 141., 56., 50., 154., 58., 78., 128., 70., 127.,
          104., 56., 14., 18., 16., 64., 56., 178., 82., 110., 93., 43.,
          51., 103., 85., 64., 151., 88., 200., 79., 80., 15., 15., 15.,
          28., 55., 161., 84., 103., 55., 43., 52., 82., 114., 43., 62.,
          194., 131., 121., 135., 85., 14., 15., 20., 68., 137., 94.,
          68., 46., 47., 47., 72., 110., 113., 31., 63., 119., 54., 50.,
          152., 175., 19., 19., 18., 79., 125., 53., 40., 51., 15., 34.,
          60., 90., 119., 80., 88., 110., 175., 173., 165., 163., 132.,
          159., 166., 147., 132., 152., 130., 16., 51., 102., 130., 150.,
          157., 94., 91., 106., 90., 134., 175., 190., 124., 168., 163.,
          182., 202., 150., 28., 80., 73., 160., 121., 104., 162., 110.,
          71., 136., 200., 213., 216., 163., 80., 183., 194., 205., 151.,
          44., 55., 53., 141., 127., 216., 189., 163., 97., 154., 184.,
          243., 237., 152., 84., 92., 195., 196., 113., 31., 46., 118.,
          46., 170., 226., 233., 191., 101., 165., 149., 191., 170.,
          102., 70., 66., 181., 154., 101., 20., 62., 154., 46., 182.,
          212., 207., 176., 56., 143., 116., 18., 76., 54., 54., 58.,
          160., 134., 85., 18., 88., 128., 137., 40., 90., 117., 37.,
          67., 64., 52., 89., 72., 32., 55., 142., 145., 106., 109., 17.,
          145., 133., 162., 61., 121., 97., 70., 56., 88., 53., 34., 16.,
          24., 40., 179., 99., 116., 112., 69., 134., 89., 117., 36.,
          173., 113., 93., 17., 53., 62., 93., 149., 41., 39., 138., 93.,
          136., 113., 76., 110., 79., 69., 55., 146., 151., 113., 48.,
          212., 219., 205., 187., 39., 37., 159., 100., 126., 132., 77.,
          106., 86., 56., 47., 94., 152., 101., 25., 58., 199., 195.,
          148., 38., 82., 121., 102., 147., 98., 38., 180., 68., 105.,
          71., 59., 177., 92., 29., 18., 22., 152., 102., 70., 128.,
          126., 103., 141., 56., 50., 154., 58., 78., 128., 70., 127.,
          104., 56., 14., 18., 16., 64., 56., 178., 82., 110., 93., 43.,
          51., 103., 85., 64., 151., 88., 200., 79., 80., 15., 15., 15.,
          28., 55., 161., 84., 103., 55., 43., 52., 82., 114., 43., 62.,
          194., 131., 121., 135., 85., 14., 15., 20., 68., 137., 94.,
          68., 46., 47., 47., 72., 110., 113., 31., 63., 119., 54., 50.,
          152., 175., 19., 19., 18., 79., 125., 53., 40., 51., 20., 28.,
          45., 90., 46., 154., 133., 156., 157., 158., 158., 148., 128.,
          106., 27., 26., 149., 130., 139., 21., 33., 51., 70., 56.,
          188., 164., 194., 204., 203., 210., 211., 148., 35., 30., 23.,
          118., 101., 132., 24., 38., 57., 57., 190., 186., 203., 169.,
          132., 123., 36., 41., 68., 55., 36., 33., 111., 82., 123., 30.,
          35., 72., 158., 189., 210., 176., 47., 35., 34., 72., 61., 27.,
          32., 33., 36., 50., 71., 123., 38., 55., 140., 94., 200., 221.,
          96., 123., 182., 91., 87., 34., 45., 21., 30., 44., 56., 155.,
          115., 54., 76., 140., 142., 219., 196., 157., 241., 218., 192.,
          180., 132., 65., 30., 26., 35., 183., 144., 113., 77., 97.,
          170., 210., 222., 230., 235., 214., 214., 232., 245., 132.,
          72., 38., 33., 169., 228., 145., 104., 100., 166., 210., 220.,
          240., 216., 235., 228., 223., 245., 220., 73., 32., 41., 171.,
          228., 216., 164., 96., 168., 215., 228., 226., 234., 236.,
          230., 213., 240., 229., 59., 28., 29., 21., 23., 37., 101.,
          158., 96., 180., 202., 225., 226., 176., 236., 239., 244.,
          198., 62., 45., 39., 56., 144., 58., 37., 38., 123., 88., 161.,
          210., 185., 147., 130., 129., 243., 237., 88., 66., 60., 56.,
          215., 231., 231., 46., 44., 33., 88., 133., 223., 196., 142.,
          136., 236., 242., 212., 80., 75., 82., 221., 218., 234., 152.,
          80., 72., 101., 85., 172., 243., 226., 142., 220., 236., 224.,
          103., 73., 158., 216., 215., 229., 235., 111., 207., 201.,
          152., 85., 176., 234., 153., 149., 126., 146., 205., 120.,
          133., 228., 235., 240., 238., 229., 217., 208., 196., 141.,
          85., 178., 171., 221., 237., 164., 181., 159., 158., 239.,
          234., 222., 214., 210., 209., 207., 192., 146., 74., 85., 173.,
          194., 236., 234., 235., 242., 118., 239., 228., 220., 216.,
          211., 206., 203., 193., 185., 154., 104., 85., 20., 28., 45.,
          90., 46., 154., 133., 156., 157., 158., 158., 148., 128., 106.,
          27., 26., 149., 130., 139., 21., 33., 51., 70., 56., 188.,
          164., 194., 204., 203., 210., 211., 148., 35., 30., 23., 118.,
          101., 132., 24., 38., 57., 57., 190., 186., 203., 169., 132.,
          123., 36., 41., 68., 55., 36., 33., 111., 82., 123., 30., 35.,
          72., 158., 189., 210., 176., 47., 35., 34., 72., 61., 27., 32.,
          33., 36., 50., 71., 123., 38., 55., 140., 94., 200., 221., 96.,
          123., 182., 91., 87., 34., 45., 21., 30., 44., 56., 155., 115.,
          54., 76., 140., 142., 219., 196., 157., 241., 218., 192., 180.,
          132., 65., 30., 26., 35., 183., 144., 113., 77., 97., 170.,
          210., 222., 230., 235., 214., 214., 232., 245., 132., 72., 38.,
          33., 169., 228., 145., 104., 100., 166., 210., 220., 240.,
          216., 235., 228., 223., 245., 220., 73., 32., 41., 171., 228.,
          216., 164., 96., 168., 215., 228., 226., 234., 236., 230.,
          213., 240., 229., 59., 28., 29., 21., 23., 37., 101., 158.,
          96., 180., 202., 225., 226., 176., 236., 239., 244., 198., 62.,
          45., 39., 56., 144., 58., 37., 38., 123., 88., 161., 210.,
          185., 147., 130., 129., 243., 237., 88., 66., 60., 56., 215.,
          231., 231., 46., 44., 33., 88., 133., 223., 196., 142., 136.,
          236., 242., 212., 80., 75., 82., 221., 218., 234., 152., 80.,
          72., 101., 85., 172., 243., 226., 142., 220., 236., 224., 103.,
          73., 158., 216., 215., 229., 235., 111., 207., 201., 152., 85.,
          176., 234., 153., 149., 126., 146., 205., 120., 133., 228.,
          235., 240., 238., 229., 217., 208., 196., 141., 85., 178.,
          171., 221., 237., 164., 181., 159., 158., 239., 234., 222.,
          214., 210., 209., 207., 192., 146., 74., 85., 173., 194., 236.,
          234., 235., 242., 118., 239., 228., 220., 216., 211., 206.,
          203., 193., 185., 154., 104., 85., 20., 28., 45., 90., 46.,
          154., 133., 156., 157., 158., 158., 148., 128., 106., 27., 26.,
          149., 130., 139., 21., 33., 51., 70., 56., 188., 164., 194.,
          204., 203., 210., 211., 148., 35., 30., 23., 118., 101., 132.,
          24., 38., 57., 57., 190., 186., 203., 169., 132., 123., 36.,
          41., 68., 55., 36., 33., 111., 82., 123., 30., 35., 72., 158.,
          189., 210., 176., 47., 35., 34., 72., 61., 27., 32., 33., 36.,
          50., 71., 123., 38., 55., 140., 94., 200., 221., 96., 123.,
          182., 91., 87., 34., 45., 21., 30., 44., 56., 155., 115., 54.,
          76., 140., 142., 219., 196., 157., 241., 218., 192., 180.,
          132., 65., 30., 26., 35., 183., 144., 113., 77., 97., 170.,
          210., 222., 230., 235., 214., 214., 232., 245., 132., 72., 38.,
          33., 169., 228., 145., 104., 100., 166., 210., 220., 240.,
          216., 235., 228., 223., 245., 220., 73., 32., 41., 171., 228.,
          216., 164., 96., 168., 215., 228., 226., 234., 236., 230.,
          213., 240., 229., 59., 28., 29., 21., 23., 37., 101., 158.,
          96., 180., 202., 225., 226., 176., 236., 239., 244., 198., 62.,
          45., 39., 56., 144., 58., 37., 38., 123., 88., 161., 210.,
          185., 147., 130., 129., 243., 237., 88., 66., 60., 56., 215.,
          231., 231., 46., 44., 33., 88., 133., 223., 196., 142., 136.,
          236., 242., 212., 80., 75., 82., 221., 218., 234., 152., 80.,
          72., 101., 85., 172., 243., 226., 142., 220., 236., 224., 103.,
          73., 158., 216., 215., 229., 235., 111., 207., 201., 152., 85.,
          176., 234., 153., 149., 126., 146., 205., 120., 133., 228.,
          235., 240., 238., 229., 217., 208., 196., 141., 85., 178.,
          171., 221., 237., 164., 181., 159., 158., 239., 234., 222.,
          214., 210., 209., 207., 192., 146., 74., 85., 173., 194., 236.,
          234., 235., 242., 118., 239., 228., 220., 216., 211., 206.,
          203., 193., 185., 154., 104., 85., 23., 26., 29., 31., 34.,
          36., 40., 39., 41., 57., 75., 64., 48., 50., 43., 36., 26.,
          17., 12., 23., 54., 67., 56., 95., 97., 111., 151., 160., 189.,
          211., 241., 201., 54., 43., 28., 17., 9., 7., 52., 62., 52.,
          57., 96., 109., 122., 158., 155., 201., 164., 216., 250., 136.,
          48., 34., 23., 16., 8., 36., 71., 69., 101., 104., 139., 194.,
          222., 187., 225., 171., 190., 187., 186., 81., 43., 31., 22.,
          16., 84., 113., 132., 131., 166., 165., 177., 226., 197., 171.,
          171., 190., 201., 143., 78., 61., 44., 35., 19., 105., 129.,
          85., 197., 169., 173., 152., 168., 200., 184., 96., 71., 199.,
          69., 49., 27., 19., 14., 10., 36., 49., 69., 147., 121., 148.,
          223., 216., 183., 67., 64., 60., 56., 53., 41., 31., 23., 21.,
          13., 28., 57., 153., 111., 128., 146., 149., 115., 97., 94.,
          85., 68., 63., 57., 57., 53., 47., 44., 21., 46., 67., 101.,
          168., 200., 149., 137., 74., 54., 54., 55., 52., 48., 48., 45.,
          35., 28., 22., 13., 39., 149., 104., 119., 128., 127., 151.,
          173., 219., 167., 84., 61., 44., 37., 36., 31., 23., 18., 10.,
          66., 186., 106., 108., 115., 118., 113., 120., 137., 143.,
          207., 182., 66., 51., 39., 32., 23., 17., 11., 65., 101., 159.,
          166., 120., 120., 119., 118., 132., 166., 149., 184., 71., 61.,
          42., 31., 25., 20., 13., 66., 126., 73., 39., 57., 55., 58.,
          58., 74., 116., 168., 154., 204., 63., 51., 42., 35., 32., 24.,
          40., 55., 52., 48., 70., 79., 79., 89., 99., 118., 182., 171.,
          176., 90., 74., 52., 48., 42., 30., 35., 51., 53., 50., 42.,
          43., 52., 53., 53., 65., 67., 85., 151., 179., 74., 61., 60.,
          155., 32., 34., 46., 46., 48., 50., 51., 55., 57., 62., 60.,
          64., 66., 77., 168., 93., 80., 158., 192., 41., 23., 26., 29.,
          31., 34., 36., 40., 39., 41., 57., 75., 64., 48., 50., 43.,
          36., 26., 17., 12., 23., 54., 67., 56., 95., 97., 111., 151.,
          160., 189., 211., 241., 201., 54., 43., 28., 17., 9., 7., 52.,
          62., 52., 57., 96., 109., 122., 158., 155., 201., 164., 216.,
          250., 136., 48., 34., 23., 16., 8., 36., 71., 69., 101., 104.,
          139., 194., 222., 187., 225., 171., 190., 187., 186., 81., 43.,
          31., 22., 16., 84., 113., 132., 131., 166., 165., 177., 226.,
          197., 171., 171., 190., 201., 143., 78., 61., 44., 35., 19.,
          105., 129., 85., 197., 169., 173., 152., 168., 200., 184., 96.,
          71., 199., 69., 49., 27., 19., 14., 10., 36., 49., 69., 147.,
          121., 148., 223., 216., 183., 67., 64., 60., 56., 53., 41.,
          31., 23., 21., 13., 28., 57., 153., 111., 128., 146., 149.,
          115., 97., 94., 85., 68., 63., 57., 57., 53., 47., 44., 21.,
          46., 67., 101., 168., 200., 149., 137., 74., 54., 54., 55.,
          52., 48., 48., 45., 35., 28., 22., 13., 39., 149., 104., 119.,
          128., 127., 151., 173., 219., 167., 84., 61., 44., 37., 36.,
          31., 23., 18., 10., 66., 186., 106., 108., 115., 118., 113.,
          120., 137., 143., 207., 182., 66., 51., 39., 32., 23., 17.,
          11., 65., 101., 159., 166., 120., 120., 119., 118., 132., 166.,
          149., 184., 71., 61., 42., 31., 25., 20., 13., 66., 126., 73.,
          39., 57., 55., 58., 58., 74., 116., 168., 154., 204., 63., 51.,
          42., 35., 32., 24., 40., 55., 52., 48., 70., 79., 79., 89.,
          99., 118., 182., 171., 176., 90., 74., 52., 48., 42., 30., 35.,
          51., 53., 50., 42., 43., 52., 53., 53., 65., 67., 85., 151.,
          179., 74., 61., 60., 155., 32., 34., 46., 46., 48., 50., 51.,
          55., 57., 62., 60., 64., 66., 77., 168., 93., 80., 158., 192.,
          41., 23., 26., 29., 31., 34., 36., 40., 39., 41., 57., 75.,
          64., 48., 50., 43., 36., 26., 17., 12., 23., 54., 67., 56.,
          95., 97., 111., 151., 160., 189., 211., 241., 201., 54., 43.,
          28., 17., 9., 7., 52., 62., 52., 57., 96., 109., 122., 158.,
          155., 201., 164., 216., 250., 136., 48., 34., 23., 16., 8.,
          36., 71., 69., 101., 104., 139., 194., 222., 187., 225., 171.,
          190., 187., 186., 81., 43., 31., 22., 16., 84., 113., 132.,
          131., 166., 165., 177., 226., 197., 171., 171., 190., 201.,
          143., 78., 61., 44., 35., 19., 105., 129., 85., 197., 169.,
          173., 152., 168., 200., 184., 96., 71., 199., 69., 49., 27.,
          19., 14., 10., 36., 49., 69., 147., 121., 148., 223., 216.,
          183., 67., 64., 60., 56., 53., 41., 31., 23., 21., 13., 28.,
          57., 153., 111., 128., 146., 149., 115., 97., 94., 85., 68.,
          63., 57., 57., 53., 47., 44., 21., 46., 67., 101., 168., 200.,
          149., 137., 74., 54., 54., 55., 52., 48., 48., 45., 35., 28.,
          22., 13., 39., 149., 104., 119., 128., 127., 151., 173., 219.,
          167., 84., 61., 44., 37., 36., 31., 23., 18., 10., 66., 186.,
          106., 108., 115., 118., 113., 120., 137., 143., 207., 182.,
          66., 51., 39., 32., 23., 17., 11., 65., 101., 159., 166., 120.,
          120., 119., 118., 132., 166., 149., 184., 71., 61., 42., 31.,
          25., 20., 13., 66., 126., 73., 39., 57., 55., 58., 58., 74.,
          116., 168., 154., 204., 63., 51., 42., 35., 32., 24., 40., 55.,
          52., 48., 70., 79., 79., 89., 99., 118., 182., 171., 176., 90.,
          74., 52., 48., 42., 30., 35., 51., 53., 50., 42., 43., 52.,
          53., 53., 65., 67., 85., 151., 179., 74., 61., 60., 155., 32.,
          34., 46., 46., 48., 50., 51., 55., 57., 62., 60., 64., 66.,
          77., 168., 93., 80., 158., 192., 41., 23., 26., 29., 31., 34.,
          36., 40., 39., 41., 57., 75., 64., 48., 50., 43., 36., 26.,
          17., 12., 23., 54., 67., 56., 95., 97., 111., 151., 160., 189.,
          211., 241., 201., 54., 43., 28., 17., 9., 7., 52., 62., 52.,
          57., 96., 109., 122., 158., 155., 201., 164., 216., 250., 136.,
          48., 34., 23., 16., 8., 36., 71., 69., 101., 104., 139., 194.,
          222., 187., 225., 171., 190., 187., 186., 81., 43., 31., 22.,
          16., 84., 113., 132., 131., 166., 165., 177., 226., 197., 171.,
          171., 190., 201., 143., 78., 61., 44., 35., 19., 105., 129.,
          85., 197., 169., 173., 152., 168., 200., 184., 96., 71., 199.,
          69., 49., 27., 19., 14., 10., 36., 49., 69., 147., 121., 148.,
          223., 216., 183., 67., 64., 60., 56., 53., 41., 31., 23., 21.,
          13., 28., 57., 153., 111., 128., 146., 149., 115., 97., 94.,
          85., 68., 63., 57., 57., 53., 47., 44., 21., 46., 67., 101.,
          168., 200., 149., 137., 74., 54., 54., 55., 52., 48., 48., 45.,
          35., 28., 22., 13., 39., 149., 104., 119., 128., 127., 151.,
          173., 219., 167., 84., 61., 44., 37., 36., 31., 23., 18., 10.,
          66., 186., 106., 108., 115., 118., 113., 120., 137., 143.,
          207., 182., 66., 51., 39., 32., 23., 17., 11., 65., 101., 159.,
          166., 120., 120., 119., 118., 132., 166., 149., 184., 71., 61.,
          42., 31., 25., 20., 13., 66., 126., 73., 39., 57., 55., 58.,
          58., 74., 116., 168., 154., 204., 63., 51., 42., 35., 32., 24.,
          40., 55., 52., 48., 70., 79., 79., 89., 99., 118., 182., 171.,
          176., 90., 74., 52., 48., 42., 30., 35., 51., 53., 50., 42.,
          43., 52., 53., 53., 65., 67., 85., 151., 179., 74., 61., 60.,
          155., 32., 34., 46., 46., 48., 50., 51., 55., 57., 62., 60.,
          64., 66., 77., 168., 93., 80., 158., 192., 41., 48., 60., 33.,
          59., 60., 78., 77., 72., 89., 110., 135., 171., 176., 180.,
          195., 193., 187., 157., 139., 85., 67., 92., 115., 134., 129.,
          95., 87., 113., 141., 181., 213., 212., 224., 242., 237., 237.,
          183., 132., 57., 92., 144., 142., 105., 65., 123., 105., 119.,
          149., 192., 209., 210., 233., 234., 231., 231., 183., 123.,
          77., 184., 242., 199., 176., 134., 84., 166., 128., 154., 180.,
          188., 203., 231., 228., 220., 233., 180., 123., 90., 166.,
          194., 221., 183., 170., 97., 179., 132., 153., 165., 174.,
          203., 224., 207., 215., 229., 169., 115., 38., 22., 30., 188.,
          195., 169., 134., 86., 138., 130., 144., 171., 204., 215.,
          196., 214., 225., 164., 113., 21., 32., 56., 55., 195., 172.,
          148., 109., 128., 128., 141., 167., 203., 205., 191., 218.,
          218., 150., 104., 25., 28., 130., 65., 209., 194., 160., 138.,
          91., 193., 182., 169., 192., 189., 193., 217., 204., 127., 96.,
          53., 150., 182., 160., 197., 175., 151., 135., 103., 63., 192.,
          184., 187., 188., 203., 219., 196., 110., 96., 57., 170., 144.,
          74., 213., 155., 123., 72., 16., 10., 115., 184., 192., 197.,
          218., 230., 208., 131., 88., 36., 151., 122., 78., 78., 152.,
          21., 20., 21., 8., 196., 191., 216., 248., 239., 169., 113.,
          97., 88., 56., 148., 78., 103., 78., 62., 15., 45., 34., 89.,
          211., 220., 140., 132., 191., 179., 123., 155., 85., 45., 53.,
          176., 154., 48., 16., 25., 45., 55., 36., 36., 133., 193.,
          171., 164., 186., 127., 119., 85., 19., 82., 115., 32., 16.,
          33., 34., 90., 74., 39., 153., 163., 174., 106., 129., 232.,
          169., 140., 85., 18., 30., 33., 25., 46., 53., 49., 91., 79.,
          90., 185., 218., 135., 107., 118., 200., 182., 103., 85., 62.,
          28., 73., 104., 143., 75., 77., 92., 85., 149., 163., 229.,
          135., 182., 164., 166., 163., 187., 85., 48., 60., 33., 59.,
          60., 78., 77., 72., 89., 110., 135., 171., 176., 180., 195.,
          193., 187., 157., 139., 85., 67., 92., 115., 134., 129., 95.,
          87., 113., 141., 181., 213., 212., 224., 242., 237., 237.,
          183., 132., 57., 92., 144., 142., 105., 65., 123., 105., 119.,
          149., 192., 209., 210., 233., 234., 231., 231., 183., 123.,
          77., 184., 242., 199., 176., 134., 84., 166., 128., 154., 180.,
          188., 203., 231., 228., 220., 233., 180., 123., 90., 166.,
          194., 221., 183., 170., 97., 179., 132., 153., 165., 174.,
          203., 224., 207., 215., 229., 169., 115., 38., 22., 30., 188.,
          195., 169., 134., 86., 138., 130., 144., 171., 204., 215.,
          196., 214., 225., 164., 113., 21., 32., 56., 55., 195., 172.,
          148., 109., 128., 128., 141., 167., 203., 205., 191., 218.,
          218., 150., 104., 25., 28., 130., 65., 209., 194., 160., 138.,
          91., 193., 182., 169., 192., 189., 193., 217., 204., 127., 96.,
          53., 150., 182., 160., 197., 175., 151., 135., 103., 63., 192.,
          184., 187., 188., 203., 219., 196., 110., 96., 57., 170., 144.,
          74., 213., 155., 123., 72., 16., 10., 115., 184., 192., 197.,
          218., 230., 208., 131., 88., 36., 151., 122., 78., 78., 152.,
          21., 20., 21., 8., 196., 191., 216., 248., 239., 169., 113.,
          97., 88., 56., 148., 78., 103., 78., 62., 15., 45., 34., 89.,
          211., 220., 140., 132., 191., 179., 123., 155., 85., 45., 53.,
          176., 154., 48., 16., 25., 45., 55., 36., 36., 133., 193.,
          171., 164., 186., 127., 119., 85., 19., 82., 115., 32., 16.,
          33., 34., 90., 74., 39., 153., 163., 174., 106., 129., 232.,
          169., 140., 85., 18., 30., 33., 25., 46., 53., 49., 91., 79.,
          90., 185., 218., 135., 107., 118., 200., 182., 103., 85., 62.,
          28., 73., 104., 143., 75., 77., 92., 85., 149., 163., 229.,
          135., 182., 164., 166., 163., 187., 85., 48., 60., 33., 59.,
          60., 78., 77., 72., 89., 110., 135., 171., 176., 180., 195.,
          193., 187., 157., 139., 85., 67., 92., 115., 134., 129., 95.,
          87., 113., 141., 181., 213., 212., 224., 242., 237., 237.,
          183., 132., 57., 92., 144., 142., 105., 65., 123., 105., 119.,
          149., 192., 209., 210., 233., 234., 231., 231., 183., 123.,
          77., 184., 242., 199., 176., 134., 84., 166., 128., 154., 180.,
          188., 203., 231., 228., 220., 233., 180., 123., 90., 166.,
          194., 221., 183., 170., 97., 179., 132., 153., 165., 174.,
          203., 224., 207., 215., 229., 169., 115., 38., 22., 30., 188.,
          195., 169., 134., 86., 138., 130., 144., 171., 204., 215.,
          196., 214., 225., 164., 113., 21., 32., 56., 55., 195., 172.,
          148., 109., 128., 128., 141., 167., 203., 205., 191., 218.,
          218., 150., 104., 25., 28., 130., 65., 209., 194., 160., 138.,
          91., 193., 182., 169., 192., 189., 193., 217., 204., 127., 96.,
          53., 150., 182., 160., 197., 175., 151., 135., 103., 63., 192.,
          184., 187., 188., 203., 219., 196., 110., 96., 57., 170., 144.,
          74., 213., 155., 123., 72., 16., 10., 115., 184., 192., 197.,
          218., 230., 208., 131., 88., 36., 151., 122., 78., 78., 152.,
          21., 20., 21., 8., 196., 191., 216., 248., 239., 169., 113.,
          97., 88., 56., 148., 78., 103., 78., 62., 15., 45., 34., 89.,
          211., 220., 140., 132., 191., 179., 123., 155., 85., 45., 53.,
          176., 154., 48., 16., 25., 45., 55., 36., 36., 133., 193.,
          171., 164., 186., 127., 119., 85., 19., 82., 115., 32., 16.,
          33., 34., 90., 74., 39., 153., 163., 174., 106., 129., 232.,
          169., 140., 85., 18., 30., 33., 25., 46., 53., 49., 91., 79.,
          90., 185., 218., 135., 107., 118., 200., 182., 103., 85., 62.,
          28., 73., 104., 143., 75., 77., 92., 85., 149., 163., 229.,
          135., 182., 164., 166., 163., 187., 85., 8., 18., 14., 13., 9.,
          15., 19., 29., 38., 73., 145., 88., 39., 33., 34., 21., 11.,
          11., 139., 5., 21., 16., 17., 13., 20., 31., 45., 45., 151.,
          173., 57., 45., 56., 47., 33., 11., 8., 132., 7., 23., 18.,
          17., 16., 23., 48., 76., 45., 89., 203., 60., 52., 78., 52.,
          30., 12., 16., 123., 17., 23., 22., 21., 20., 28., 59., 79.,
          164., 88., 184., 171., 85., 89., 57., 34., 12., 9., 123., 19.,
          16., 25., 25., 25., 39., 64., 100., 219., 104., 176., 222.,
          213., 71., 57., 36., 12., 9., 115., 12., 20., 28., 26., 34.,
          45., 80., 194., 186., 170., 188., 241., 238., 80., 69., 50.,
          21., 10., 113., 17., 21., 30., 24., 79., 51., 127., 238., 201.,
          207., 236., 238., 237., 91., 76., 54., 33., 13., 104., 17.,
          22., 30., 29., 132., 54., 226., 221., 224., 241., 249., 237.,
          233., 129., 82., 56., 41., 19., 96., 17., 34., 74., 28., 107.,
          67., 96., 198., 221., 249., 249., 249., 163., 114., 137., 53.,
          44., 25., 96., 16., 53., 78., 26., 55., 57., 175., 223., 250.,
          243., 169., 249., 134., 153., 221., 54., 37., 25., 88., 15.,
          50., 25., 62., 77., 82., 93., 151., 54., 32., 193., 249., 102.,
          83., 205., 124., 28., 23., 88., 12., 60., 114., 60., 159.,
          113., 75., 51., 33., 150., 237., 124., 89., 66., 195., 191.,
          23., 19., 85., 12., 53., 52., 62., 86., 123., 54., 44., 104.,
          94., 84., 77., 88., 156., 197., 195., 99., 13., 85., 11., 15.,
          42., 48., 151., 62., 50., 144., 230., 214., 156., 182., 221.,
          215., 184., 185., 145., 6., 85., 10., 16., 47., 54., 59., 57.,
          68., 178., 179., 185., 173., 171., 202., 193., 175., 146.,
          135., 9., 85., 9., 14., 18., 23., 53., 42., 70., 80., 230.,
          199., 221., 230., 229., 210., 157., 115., 99., 10., 85., 8.,
          18., 14., 13., 9., 15., 19., 29., 38., 73., 145., 88., 39.,
          33., 34., 21., 11., 11., 139., 5., 21., 16., 17., 13., 20.,
          31., 45., 45., 151., 173., 57., 45., 56., 47., 33., 11., 8.,
          132., 7., 23., 18., 17., 16., 23., 48., 76., 45., 89., 203.,
          60., 52., 78., 52., 30., 12., 16., 123., 17., 23., 22., 21.,
          20., 28., 59., 79., 164., 88., 184., 171., 85., 89., 57., 34.,
          12., 9., 123., 19., 16., 25., 25., 25., 39., 64., 100., 219.,
          104., 176., 222., 213., 71., 57., 36., 12., 9., 115., 12., 20.,
          28., 26., 34., 45., 80., 194., 186., 170., 188., 241., 238.,
          80., 69., 50., 21., 10., 113., 17., 21., 30., 24., 79., 51.,
          127., 238., 201., 207., 236., 238., 237., 91., 76., 54., 33.,
          13., 104., 17., 22., 30., 29., 132., 54., 226., 221., 224.,
          241., 249., 237., 233., 129., 82., 56., 41., 19., 96., 17.,
          34., 74., 28., 107., 67., 96., 198., 221., 249., 249., 249.,
          163., 114., 137., 53., 44., 25., 96., 16., 53., 78., 26., 55.,
          57., 175., 223., 250., 243., 169., 249., 134., 153., 221., 54.,
          37., 25., 88., 15., 50., 25., 62., 77., 82., 93., 151., 54.,
          32., 193., 249., 102., 83., 205., 124., 28., 23., 88., 12.,
          60., 114., 60., 159., 113., 75., 51., 33., 150., 237., 124.,
          89., 66., 195., 191., 23., 19., 85., 12., 53., 52., 62., 86.,
          123., 54., 44., 104., 94., 84., 77., 88., 156., 197., 195.,
          99., 13., 85., 11., 15., 42., 48., 151., 62., 50., 144., 230.,
          214., 156., 182., 221., 215., 184., 185., 145., 6., 85., 10.,
          16., 47., 54., 59., 57., 68., 178., 179., 185., 173., 171.,
          202., 193., 175., 146., 135., 9., 85., 9., 14., 18., 23., 53.,
          42., 70., 80., 230., 199., 221., 230., 229., 210., 157., 115.,
          99., 10., 85., 10., 12., 18., 24., 41., 51., 87., 72., 96.,
          94., 99., 90., 24., 134., 148., 156., 162., 157., 121., 9.,
          15., 25., 35., 135., 199., 83., 108., 118., 128., 34., 78.,
          99., 32., 216., 232., 225., 211., 141., 13., 24., 36., 197.,
          208., 92., 88., 110., 53., 76., 83., 39., 177., 171., 27., 27.,
          35., 121., 120., 15., 28., 67., 191., 170., 93., 100., 136.,
          47., 179., 148., 50., 85., 224., 203., 136., 120., 10., 116.,
          18., 41., 129., 185., 116., 98., 103., 34., 69., 74., 67.,
          157., 79., 225., 225., 240., 124., 24., 114., 37., 44., 52.,
          98., 172., 102., 147., 80., 107., 135., 61., 230., 216., 183.,
          250., 200., 97., 25., 115., 67., 42., 52., 71., 130., 128.,
          69., 135., 45., 216., 87., 124., 250., 241., 171., 199., 243.,
          45., 130., 98., 28., 51., 63., 88., 125., 57., 104., 179.,
          139., 239., 145., 244., 241., 224., 203., 210., 185., 170.,
          137., 36., 49., 110., 85., 125., 169., 119., 236., 238., 246.,
          240., 203., 111., 161., 123., 90., 212., 144., 67., 30., 50.,
          149., 92., 135., 99., 230., 237., 236., 234., 162., 141., 123.,
          135., 86., 176., 19., 105., 17., 116., 51., 94., 90., 137.,
          232., 234., 231., 225., 124., 118., 102., 133., 106., 72., 37.,
          11., 100., 12., 106., 57., 96., 139., 206., 229., 228., 216.,
          179., 167., 63., 94., 97., 70., 37., 22., 204., 74., 20., 24.,
          49., 66., 208., 225., 226., 222., 202., 103., 93., 36., 36.,
          38., 42., 63., 28., 19., 115., 18., 20., 93., 163., 218., 222.,
          224., 199., 93., 106., 119., 179., 44., 95., 164., 52., 55.,
          33., 12., 16., 19., 180., 214., 221., 220., 200., 189., 110.,
          74., 97., 120., 115., 91., 61., 47., 52., 50., 14., 22., 59.,
          202., 217., 215., 211., 106., 58., 58., 56., 64., 76., 179.,
          17., 176., 170., 97., 166., 135., 10., 12., 18., 24., 41., 51.,
          87., 72., 96., 94., 99., 90., 24., 134., 148., 156., 162.,
          157., 121., 9., 15., 25., 35., 135., 199., 83., 108., 118.,
          128., 34., 78., 99., 32., 216., 232., 225., 211., 141., 13.,
          24., 36., 197., 208., 92., 88., 110., 53., 76., 83., 39., 177.,
          171., 27., 27., 35., 121., 120., 15., 28., 67., 191., 170.,
          93., 100., 136., 47., 179., 148., 50., 85., 224., 203., 136.,
          120., 10., 116., 18., 41., 129., 185., 116., 98., 103., 34.,
          69., 74., 67., 157., 79., 225., 225., 240., 124., 24., 114.,
          37., 44., 52., 98., 172., 102., 147., 80., 107., 135., 61.,
          230., 216., 183., 250., 200., 97., 25., 115., 67., 42., 52.,
          71., 130., 128., 69., 135., 45., 216., 87., 124., 250., 241.,
          171., 199., 243., 45., 130., 98., 28., 51., 63., 88., 125.,
          57., 104., 179., 139., 239., 145., 244., 241., 224., 203.,
          210., 185., 170., 137., 36., 49., 110., 85., 125., 169., 119.,
          236., 238., 246., 240., 203., 111., 161., 123., 90., 212.,
          144., 67., 30., 50., 149., 92., 135., 99., 230., 237., 236.,
          234., 162., 141., 123., 135., 86., 176., 19., 105., 17., 116.,
          51., 94., 90., 137., 232., 234., 231., 225., 124., 118., 102.,
          133., 106., 72., 37., 11., 100., 12., 106., 57., 96., 139.,
          206., 229., 228., 216., 179., 167., 63., 94., 97., 70., 37.,
          22., 204., 74., 20., 24., 49., 66., 208., 225., 226., 222.,
          202., 103., 93., 36., 36., 38., 42., 63., 28., 19., 115., 18.,
          20., 93., 163., 218., 222., 224., 199., 93., 106., 119., 179.,
          44., 95., 164., 52., 55., 33., 12., 16., 19., 180., 214., 221.,
          220., 200., 189., 110., 74., 97., 120., 115., 91., 61., 47.,
          52., 50., 14., 22., 59., 202., 217., 215., 211., 106., 58.,
          58., 56., 64., 76., 179., 17., 176., 170., 97., 166., 135., 9.,
          14., 37., 29., 33., 46., 56., 78., 160., 198., 116., 86., 54.,
          50., 35., 12., 9., 5., 8., 3., 19., 25., 43., 40., 54., 66.,
          94., 200., 244., 163., 104., 65., 54., 55., 23., 11., 14., 2.,
          12., 16., 22., 43., 44., 170., 65., 199., 218., 246., 208.,
          102., 70., 55., 51., 35., 16., 11., 6., 11., 14., 22., 38.,
          51., 124., 162., 98., 189., 70., 235., 101., 61., 72., 46.,
          198., 18., 13., 8., 8., 15., 39., 57., 112., 157., 172., 142.,
          162., 41., 243., 90., 61., 122., 81., 109., 22., 14., 8., 9.,
          14., 30., 58., 216., 73., 93., 124., 68., 34., 29., 180., 62.,
          88., 141., 41., 25., 16., 8., 8., 25., 56., 154., 144., 117.,
          92., 63., 68., 116., 55., 56., 140., 146., 47., 152., 40., 16.,
          9., 9., 20., 43., 186., 137., 142., 65., 35., 39., 108., 66.,
          91., 193., 165., 47., 177., 27., 16., 11., 14., 20., 72., 142.,
          206., 144., 41., 149., 83., 37., 32., 40., 112., 126., 156.,
          158., 40., 79., 8., 20., 36., 47., 75., 178., 225., 83., 236.,
          79., 16., 29., 52., 16., 51., 58., 223., 37., 59., 11., 21.,
          41., 52., 76., 126., 141., 136., 185., 118., 70., 39., 38.,
          27., 21., 146., 231., 22., 37., 14., 12., 34., 55., 91., 202.,
          124., 37., 166., 133., 135., 98., 124., 31., 28., 190., 140.,
          34., 39., 17., 11., 22., 98., 93., 162., 201., 159., 42., 31.,
          170., 95., 133., 138., 91., 52., 55., 41., 23., 11., 11., 18.,
          62., 204., 75., 179., 243., 199., 52., 224., 48., 136., 161.,
          100., 63., 54., 37., 15., 10., 11., 23., 37., 197., 62., 90.,
          165., 220., 89., 38., 37., 122., 93., 75., 66., 82., 36., 20.,
          10., 11., 24., 47., 149., 50., 93., 64., 146., 113., 207., 93.,
          137., 127., 87., 55., 52., 38., 27., 19., 9., 14., 37., 29.,
          33., 46., 56., 78., 160., 198., 116., 86., 54., 50., 35., 12.,
          9., 5., 8., 3., 19., 25., 43., 40., 54., 66., 94., 200., 244.,
          163., 104., 65., 54., 55., 23., 11., 14., 2., 12., 16., 22.,
          43., 44., 170., 65., 199., 218., 246., 208., 102., 70., 55.,
          51., 35., 16., 11., 6., 11., 14., 22., 38., 51., 124., 162.,
          98., 189., 70., 235., 101., 61., 72., 46., 198., 18., 13., 8.,
          8., 15., 39., 57., 112., 157., 172., 142., 162., 41., 243.,
          90., 61., 122., 81., 109., 22., 14., 8., 9., 14., 30., 58.,
          216., 73., 93., 124., 68., 34., 29., 180., 62., 88., 141., 41.,
          25., 16., 8., 8., 25., 56., 154., 144., 117., 92., 63., 68.,
          116., 55., 56., 140., 146., 47., 152., 40., 16., 9., 9., 20.,
          43., 186., 137., 142., 65., 35., 39., 108., 66., 91., 193.,
          165., 47., 177., 27., 16., 11., 14., 20., 72., 142., 206.,
          144., 41., 149., 83., 37., 32., 40., 112., 126., 156., 158.,
          40., 79., 8., 20., 36., 47., 75., 178., 225., 83., 236., 79.,
          16., 29., 52., 16., 51., 58., 223., 37., 59., 11., 21., 41.,
          52., 76., 126., 141., 136., 185., 118., 70., 39., 38., 27.,
          21., 146., 231., 22., 37., 14., 12., 34., 55., 91., 202., 124.,
          37., 166., 133., 135., 98., 124., 31., 28., 190., 140., 34.,
          39., 17., 11., 22., 98., 93., 162., 201., 159., 42., 31., 170.,
          95., 133., 138., 91., 52., 55., 41., 23., 11., 11., 18., 62.,
          204., 75., 179., 243., 199., 52., 224., 48., 136., 161., 100.,
          63., 54., 37., 15., 10., 11., 23., 37., 197., 62., 90., 165.,
          220., 89., 38., 37., 122., 93., 75., 66., 82., 36., 20., 10.,
          11., 24., 47., 149., 50., 93., 64., 146., 113., 207., 93.,
          137., 127., 87., 55., 52., 38., 27., 19., 9., 14., 37., 29.,
          33., 46., 56., 78., 160., 198., 116., 86., 54., 50., 35., 12.,
          9., 5., 8., 3., 19., 25., 43., 40., 54., 66., 94., 200., 244.,
          163., 104., 65., 54., 55., 23., 11., 14., 2., 12., 16., 22.,
          43., 44., 170., 65., 199., 218., 246., 208., 102., 70., 55.,
          51., 35., 16., 11., 6., 11., 14., 22., 38., 51., 124., 162.,
          98., 189., 70., 235., 101., 61., 72., 46., 198., 18., 13., 8.,
          8., 15., 39., 57., 112., 157., 172., 142., 162., 41., 243.,
          90., 61., 122., 81., 109., 22., 14., 8., 9., 14., 30., 58.,
          216., 73., 93., 124., 68., 34., 29., 180., 62., 88., 141., 41.,
          25., 16., 8., 8., 25., 56., 154., 144., 117., 92., 63., 68.,
          116., 55., 56., 140., 146., 47., 152., 40., 16., 9., 9., 20.,
          43., 186., 137., 142., 65., 35., 39., 108., 66., 91., 193.,
          165., 47., 177., 27., 16., 11., 14., 20., 72., 142., 206.,
          144., 41., 149., 83., 37., 32., 40., 112., 126., 156., 158.,
          40., 79., 8., 20., 36., 47., 75., 178., 225., 83., 236., 79.,
          16., 29., 52., 16., 51., 58., 223., 37., 59., 11., 21., 41.,
          52., 76., 126., 141., 136., 185., 118., 70., 39., 38., 27.,
          21., 146., 231., 22., 37., 14., 12., 34., 55., 91., 202., 124.,
          37., 166., 133., 135., 98., 124., 31., 28., 190., 140., 34.,
          39., 17., 11., 22., 98., 93., 162., 201., 159., 42., 31., 170.,
          95., 133., 138., 91., 52., 55., 41., 23., 11., 11., 18., 62.,
          204., 75., 179., 243., 199., 52., 224., 48., 136., 161., 100.,
          63., 54., 37., 15., 10., 11., 23., 37., 197., 62., 90., 165.,
          220., 89., 38., 37., 122., 93., 75., 66., 82., 36., 20., 10.,
          11., 24., 47., 149., 50., 93., 64., 146., 113., 207., 93.,
          137., 127., 87., 55., 52., 38., 27., 19. ]
   responses: !!opencv-matrix
      rows: 49
      cols: 1
      dt: f
      data: [ 0., 0., 0., 1., 1., 1., 1., 1., 1., 1., 1., 1., 1., 1., 1.,
          1., 1., 1., 1., 1., 1., 1., 1., 1., 1., 1., 1., 2., 2., 2., 2.,
          2., 3., 3., 3., 4., 4., 4., 4., 5., 5., 5., 6., 6., 7., 7., 8.,
          8., 8. ]
