%YAML:1.0
---
opencv_ml_knn:
   format: 3
   is_classifier: 1
   default_k: 10
   samples: !!opencv-matrix
      rows: 26
      cols: 400
      dt: f
      data: [ 49., 67., 107., 128., 186., 222., 210., 234., 249., 250.,
          255., 249., 225., 151., 81., 50., 55., 47., 39., 72., 86.,
          198., 112., 134., 182., 214., 168., 180., 249., 248., 249.,
          248., 246., 100., 65., 70., 40., 33., 58., 128., 248., 250.,
          224., 197., 191., 146., 131., 115., 211., 245., 245., 242.,
          240., 112., 81., 27., 37., 77., 158., 147., 248., 245., 246.,
          246., 208., 160., 123., 112., 94., 143., 218., 242., 135., 30.,
          30., 60., 97., 148., 172., 210., 249., 248., 252., 255., 251.,
          187., 135., 111., 94., 97., 42., 38., 38., 33., 58., 88., 126.,
          196., 210., 246., 247., 247., 247., 252., 251., 229., 159.,
          113., 144., 118., 74., 44., 46., 127., 181., 172., 161., 181.,
          235., 194., 218., 247., 247., 247., 237., 231., 161., 110.,
          123., 71., 46., 83., 133., 237., 242., 240., 227., 196., 198.,
          134., 167., 217., 244., 244., 242., 213., 117., 74., 58., 52.,
          84., 126., 208., 247., 248., 248., 248., 231., 129., 86., 224.,
          98., 126., 179., 195., 83., 49., 48., 46., 70., 107., 138.,
          208., 247., 248., 249., 245., 244., 143., 69., 239., 137., 82.,
          57., 36., 42., 43., 33., 63., 106., 158., 169., 171., 241.,
          247., 247., 247., 247., 154., 95., 239., 192., 149., 93., 72.,
          70., 74., 113., 149., 151., 134., 118., 121., 132., 220., 239.,
          237., 232., 167., 167., 211., 179., 211., 221., 93., 110.,
          186., 241., 245., 237., 192., 116., 88., 69., 64., 78., 122.,
          122., 86., 60., 155., 148., 204., 216., 136., 125., 244., 249.,
          250., 249., 234., 174., 81., 59., 57., 81., 83., 60., 42., 52.,
          150., 148., 195., 184., 213., 152., 236., 250., 250., 254.,
          242., 193., 81., 79., 86., 75., 36., 25., 58., 52., 152., 150.,
          176., 185., 129., 177., 220., 246., 249., 250., 249., 211.,
          108., 138., 70., 20., 20., 32., 90., 57., 155., 153., 161.,
          195., 112., 138., 135., 199., 244., 245., 245., 200., 117.,
          58., 22., 43., 38., 37., 91., 53., 157., 155., 158., 222.,
          104., 158., 51., 95., 110., 173., 176., 99., 98., 33., 21.,
          45., 64., 38., 35., 39., 160., 157., 162., 231., 65., 189.,
          185., 138., 114., 160., 123., 39., 36., 70., 32., 54., 62.,
          50., 32., 27., 161., 158., 165., 231., 141., 146., 86., 101.,
          130., 73., 17., 58., 65., 71., 40., 53., 59., 63., 41., 24.,
          158., 156., 179., 227., 173., 106., 98., 106., 110., 106.,
          122., 62., 71., 66., 27., 66., 79., 64., 31., 15., 8., 8., 4.,
          4., 32., 59., 74., 74., 60., 13., 31., 92., 90., 60., 38., 16.,
          10., 10., 9., 10., 66., 48., 9., 13., 5., 35., 60., 58., 18.,
          18., 75., 70., 58., 11., 10., 10., 9., 9., 9., 6., 88., 128.,
          119., 66., 16., 22., 48., 22., 19., 79., 102., 67., 59., 25.,
          30., 7., 21., 35., 22., 89., 81., 85., 86., 89., 47., 41., 19.,
          18., 96., 133., 157., 93., 60., 53., 51., 36., 118., 162., 85.,
          132., 28., 38., 45., 57., 61., 21., 15., 56., 125., 206., 170.,
          98., 113., 103., 125., 85., 69., 69., 92., 78., 65., 68., 84.,
          70., 21., 30., 68., 73., 129., 206., 168., 121., 130., 169.,
          143., 122., 101., 79., 56., 36., 100., 104., 60., 25., 32.,
          71., 74., 78., 134., 207., 156., 127., 128., 148., 169., 150.,
          130., 110., 107., 98., 75., 37., 22., 61., 84., 67., 72., 88.,
          127., 183., 152., 135., 137., 148., 157., 163., 156., 150.,
          151., 148., 32., 19., 69., 89., 69., 67., 65., 88., 127., 174.,
          152., 146., 147., 149., 158., 163., 165., 160., 156., 151.,
          36., 99., 77., 77., 73., 67., 65., 88., 124., 162., 153., 151.,
          155., 155., 160., 165., 166., 169., 161., 150., 86., 74., 76.,
          83., 72., 67., 68., 91., 125., 156., 154., 153., 155., 157.,
          164., 169., 168., 169., 167., 153., 64., 67., 80., 76., 66.,
          64., 72., 94., 126., 159., 150., 151., 156., 157., 163., 169.,
          169., 167., 165., 155., 55., 71., 77., 73., 68., 69., 78.,
          101., 120., 154., 151., 146., 142., 146., 160., 166., 167.,
          169., 164., 156., 60., 71., 72., 72., 66., 70., 85., 107.,
          137., 165., 154., 146., 139., 127., 161., 168., 165., 165.,
          157., 60., 72., 76., 72., 71., 65., 68., 100., 112., 160.,
          175., 156., 145., 142., 130., 163., 164., 163., 135., 71.,
          107., 91., 78., 77., 72., 66., 61., 101., 118., 177., 153.,
          152., 116., 121., 155., 166., 156., 128., 109., 132., 113.,
          103., 87., 87., 75., 67., 65., 62., 142., 160., 157., 121.,
          120., 147., 162., 168., 147., 146., 146., 125., 133., 155.,
          112., 91., 81., 70., 68., 64., 71., 92., 83., 117., 150., 150.,
          185., 161., 155., 149., 137., 138., 133., 190., 132., 108.,
          88., 63., 64., 66., 80., 92., 101., 89., 85., 86., 94., 106.,
          142., 151., 148., 139., 130., 172., 155., 119., 106., 36., 40.,
          37., 63., 75., 69., 72., 82., 77., 65., 58., 61., 87., 151.,
          136., 130., 77., 34., 42., 42., 55., 53., 40., 53., 31., 21.,
          10., 9., 10., 7., 23., 25., 18., 10., 15., 14., 48., 43., 43.,
          45., 52., 47., 23., 3., 0., 0., 6., 17., 46., 57., 57., 41.,
          8., 25., 34., 34., 43., 47., 47., 44., 25., 4., 0., 1., 8.,
          31., 41., 61., 62., 74., 45., 13., 39., 47., 46., 46., 41.,
          39., 33., 10., 0., 5., 27., 38., 57., 60., 60., 70., 63., 63.,
          25., 50., 50., 50., 55., 53., 37., 39., 1., 0., 16., 37., 35.,
          53., 64., 92., 118., 64., 44., 16., 61., 53., 50., 54., 54.,
          29., 35., 2., 15., 28., 48., 46., 46., 70., 99., 112., 34.,
          24., 21., 67., 71., 69., 47., 22., 34., 46., 10., 14., 42.,
          55., 53., 62., 67., 99., 145., 190., 179., 116., 114., 92.,
          83., 67., 18., 85., 109., 113., 21., 31., 31., 31., 26., 34.,
          108., 157., 183., 192., 189., 163., 120., 100., 100., 53., 66.,
          118., 118., 127., 15., 17., 24., 23., 24., 53., 152., 203.,
          224., 232., 218., 208., 173., 127., 124., 56., 103., 120.,
          127., 129., 27., 40., 50., 53., 81., 121., 183., 247., 249.,
          248., 245., 223., 223., 165., 142., 101., 128., 124., 131.,
          128., 38., 38., 54., 83., 117., 139., 238., 248., 249., 248.,
          249., 238., 228., 199., 162., 135., 120., 114., 115., 118.,
          38., 37., 43., 98., 124., 132., 246., 250., 251., 252., 252.,
          248., 217., 200., 202., 200., 175., 143., 144., 150., 46., 22.,
          52., 47., 98., 136., 245., 249., 250., 240., 240., 211., 188.,
          199., 204., 205., 210., 217., 221., 225., 36., 104., 146.,
          148., 141., 138., 245., 249., 250., 202., 124., 67., 188.,
          208., 204., 207., 208., 211., 210., 213., 78., 142., 159.,
          165., 156., 187., 250., 200., 138., 73., 57., 34., 170., 192.,
          197., 199., 201., 203., 206., 204., 105., 142., 157., 160.,
          162., 231., 252., 153., 49., 70., 11., 118., 171., 184., 187.,
          186., 135., 195., 205., 205., 126., 141., 156., 156., 197.,
          248., 254., 237., 198., 71., 147., 172., 172., 172., 183.,
          178., 119., 195., 201., 204., 129., 138., 164., 224., 248.,
          250., 249., 247., 239., 194., 183., 169., 156., 167., 149.,
          107., 193., 195., 191., 196., 162., 219., 232., 247., 247.,
          248., 247., 247., 228., 205., 183., 174., 172., 114., 172.,
          198., 191., 184., 177., 170., 213., 229., 237., 240., 245.,
          245., 242., 238., 225., 204., 145., 90., 170., 206., 193.,
          185., 176., 172., 161., 141., 77., 34., 42., 42., 55., 53.,
          40., 53., 31., 21., 10., 9., 10., 7., 23., 25., 18., 10., 15.,
          14., 48., 43., 43., 45., 52., 47., 23., 3., 0., 0., 6., 17.,
          46., 57., 57., 41., 8., 25., 34., 34., 43., 47., 47., 44., 25.,
          4., 0., 1., 8., 31., 41., 61., 62., 74., 45., 13., 39., 47.,
          46., 46., 41., 39., 33., 10., 0., 5., 27., 38., 57., 60., 60.,
          70., 63., 63., 25., 50., 50., 50., 55., 53., 37., 39., 1., 0.,
          16., 37., 35., 53., 64., 92., 118., 64., 44., 16., 61., 53.,
          50., 54., 54., 29., 35., 2., 15., 28., 48., 46., 46., 70., 99.,
          112., 34., 24., 21., 67., 71., 69., 47., 22., 34., 46., 10.,
          14., 42., 55., 53., 62., 67., 99., 145., 190., 179., 116.,
          114., 92., 83., 67., 18., 85., 109., 113., 21., 31., 31., 31.,
          26., 34., 108., 157., 183., 192., 189., 163., 120., 100., 100.,
          53., 66., 118., 118., 127., 15., 17., 24., 23., 24., 53., 152.,
          203., 224., 232., 218., 208., 173., 127., 124., 56., 103.,
          120., 127., 129., 27., 40., 50., 53., 81., 121., 183., 247.,
          249., 248., 245., 223., 223., 165., 142., 101., 128., 124.,
          131., 128., 38., 38., 54., 83., 117., 139., 238., 248., 249.,
          248., 249., 238., 228., 199., 162., 135., 120., 114., 115.,
          118., 38., 37., 43., 98., 124., 132., 246., 250., 251., 252.,
          252., 248., 217., 200., 202., 200., 175., 143., 144., 150.,
          46., 22., 52., 47., 98., 136., 245., 249., 250., 240., 240.,
          211., 188., 199., 204., 205., 210., 217., 221., 225., 36.,
          104., 146., 148., 141., 138., 245., 249., 250., 202., 124.,
          67., 188., 208., 204., 207., 208., 211., 210., 213., 78., 142.,
          159., 165., 156., 187., 250., 200., 138., 73., 57., 34., 170.,
          192., 197., 199., 201., 203., 206., 204., 105., 142., 157.,
          160., 162., 231., 252., 153., 49., 70., 11., 118., 171., 184.,
          187., 186., 135., 195., 205., 205., 126., 141., 156., 156.,
          197., 248., 254., 237., 198., 71., 147., 172., 172., 172.,
          183., 178., 119., 195., 201., 204., 129., 138., 164., 224.,
          248., 250., 249., 247., 239., 194., 183., 169., 156., 167.,
          149., 107., 193., 195., 191., 196., 162., 219., 232., 247.,
          247., 248., 247., 247., 228., 205., 183., 174., 172., 114.,
          172., 198., 191., 184., 177., 170., 213., 229., 237., 240.,
          245., 245., 242., 238., 225., 204., 145., 90., 170., 206.,
          193., 185., 176., 172., 161., 141., 77., 34., 42., 42., 55.,
          53., 40., 53., 31., 21., 10., 9., 10., 7., 23., 25., 18., 10.,
          15., 14., 48., 43., 43., 45., 52., 47., 23., 3., 0., 0., 6.,
          17., 46., 57., 57., 41., 8., 25., 34., 34., 43., 47., 47., 44.,
          25., 4., 0., 1., 8., 31., 41., 61., 62., 74., 45., 13., 39.,
          47., 46., 46., 41., 39., 33., 10., 0., 5., 27., 38., 57., 60.,
          60., 70., 63., 63., 25., 50., 50., 50., 55., 53., 37., 39., 1.,
          0., 16., 37., 35., 53., 64., 92., 118., 64., 44., 16., 61.,
          53., 50., 54., 54., 29., 35., 2., 15., 28., 48., 46., 46., 70.,
          99., 112., 34., 24., 21., 67., 71., 69., 47., 22., 34., 46.,
          10., 14., 42., 55., 53., 62., 67., 99., 145., 190., 179., 116.,
          114., 92., 83., 67., 18., 85., 109., 113., 21., 31., 31., 31.,
          26., 34., 108., 157., 183., 192., 189., 163., 120., 100., 100.,
          53., 66., 118., 118., 127., 15., 17., 24., 23., 24., 53., 152.,
          203., 224., 232., 218., 208., 173., 127., 124., 56., 103.,
          120., 127., 129., 27., 40., 50., 53., 81., 121., 183., 247.,
          249., 248., 245., 223., 223., 165., 142., 101., 128., 124.,
          131., 128., 38., 38., 54., 83., 117., 139., 238., 248., 249.,
          248., 249., 238., 228., 199., 162., 135., 120., 114., 115.,
          118., 38., 37., 43., 98., 124., 132., 246., 250., 251., 252.,
          252., 248., 217., 200., 202., 200., 175., 143., 144., 150.,
          46., 22., 52., 47., 98., 136., 245., 249., 250., 240., 240.,
          211., 188., 199., 204., 205., 210., 217., 221., 225., 36.,
          104., 146., 148., 141., 138., 245., 249., 250., 202., 124.,
          67., 188., 208., 204., 207., 208., 211., 210., 213., 78., 142.,
          159., 165., 156., 187., 250., 200., 138., 73., 57., 34., 170.,
          192., 197., 199., 201., 203., 206., 204., 105., 142., 157.,
          160., 162., 231., 252., 153., 49., 70., 11., 118., 171., 184.,
          187., 186., 135., 195., 205., 205., 126., 141., 156., 156.,
          197., 248., 254., 237., 198., 71., 147., 172., 172., 172.,
          183., 178., 119., 195., 201., 204., 129., 138., 164., 224.,
          248., 250., 249., 247., 239., 194., 183., 169., 156., 167.,
          149., 107., 193., 195., 191., 196., 162., 219., 232., 247.,
          247., 248., 247., 247., 228., 205., 183., 174., 172., 114.,
          172., 198., 191., 184., 177., 170., 213., 229., 237., 240.,
          245., 245., 242., 238., 225., 204., 145., 90., 170., 206.,
          193., 185., 176., 172., 161., 141., 77., 34., 42., 42., 55.,
          53., 40., 53., 31., 21., 10., 9., 10., 7., 23., 25., 18., 10.,
          15., 14., 48., 43., 43., 45., 52., 47., 23., 3., 0., 0., 6.,
          17., 46., 57., 57., 41., 8., 25., 34., 34., 43., 47., 47., 44.,
          25., 4., 0., 1., 8., 31., 41., 61., 62., 74., 45., 13., 39.,
          47., 46., 46., 41., 39., 33., 10., 0., 5., 27., 38., 57., 60.,
          60., 70., 63., 63., 25., 50., 50., 50., 55., 53., 37., 39., 1.,
          0., 16., 37., 35., 53., 64., 92., 118., 64., 44., 16., 61.,
          53., 50., 54., 54., 29., 35., 2., 15., 28., 48., 46., 46., 70.,
          99., 112., 34., 24., 21., 67., 71., 69., 47., 22., 34., 46.,
          10., 14., 42., 55., 53., 62., 67., 99., 145., 190., 179., 116.,
          114., 92., 83., 67., 18., 85., 109., 113., 21., 31., 31., 31.,
          26., 34., 108., 157., 183., 192., 189., 163., 120., 100., 100.,
          53., 66., 118., 118., 127., 15., 17., 24., 23., 24., 53., 152.,
          203., 224., 232., 218., 208., 173., 127., 124., 56., 103.,
          120., 127., 129., 27., 40., 50., 53., 81., 121., 183., 247.,
          249., 248., 245., 223., 223., 165., 142., 101., 128., 124.,
          131., 128., 38., 38., 54., 83., 117., 139., 238., 248., 249.,
          248., 249., 238., 228., 199., 162., 135., 120., 114., 115.,
          118., 38., 37., 43., 98., 124., 132., 246., 250., 251., 252.,
          252., 248., 217., 200., 202., 200., 175., 143., 144., 150.,
          46., 22., 52., 47., 98., 136., 245., 249., 250., 240., 240.,
          211., 188., 199., 204., 205., 210., 217., 221., 225., 36.,
          104., 146., 148., 141., 138., 245., 249., 250., 202., 124.,
          67., 188., 208., 204., 207., 208., 211., 210., 213., 78., 142.,
          159., 165., 156., 187., 250., 200., 138., 73., 57., 34., 170.,
          192., 197., 199., 201., 203., 206., 204., 105., 142., 157.,
          160., 162., 231., 252., 153., 49., 70., 11., 118., 171., 184.,
          187., 186., 135., 195., 205., 205., 126., 141., 156., 156.,
          197., 248., 254., 237., 198., 71., 147., 172., 172., 172.,
          183., 178., 119., 195., 201., 204., 129., 138., 164., 224.,
          248., 250., 249., 247., 239., 194., 183., 169., 156., 167.,
          149., 107., 193., 195., 191., 196., 162., 219., 232., 247.,
          247., 248., 247., 247., 228., 205., 183., 174., 172., 114.,
          172., 198., 191., 184., 177., 170., 213., 229., 237., 240.,
          245., 245., 242., 238., 225., 204., 145., 90., 170., 206.,
          193., 185., 176., 172., 161., 141., 76., 105., 120., 98., 178.,
          150., 114., 119., 146., 142., 107., 165., 148., 142., 119.,
          87., 58., 46., 25., 15., 90., 111., 133., 117., 73., 116.,
          129., 141., 141., 160., 158., 127., 141., 100., 59., 46., 21.,
          13., 7., 31., 98., 103., 83., 46., 103., 123., 137., 161.,
          182., 182., 140., 121., 100., 46., 43., 7., 17., 62., 115.,
          148., 94., 94., 68., 94., 106., 134., 170., 149., 201., 146.,
          114., 91., 36., 51., 10., 17., 97., 151., 178., 162., 91., 93.,
          39., 113., 119., 143., 148., 179., 172., 108., 107., 30., 38.,
          15., 11., 52., 105., 105., 31., 47., 85., 55., 63., 111., 128.,
          137., 130., 145., 104., 99., 47., 19., 55., 12., 13., 24., 28.,
          29., 33., 70., 64., 46., 76., 105., 120., 121., 108., 154.,
          100., 47., 36., 25., 48., 16., 10., 10., 14., 14., 83., 57.,
          65., 63., 84., 120., 125., 95., 143., 104., 52., 44., 21., 60.,
          56., 13., 6., 11., 5., 27., 61., 145., 72., 63., 113., 114.,
          100., 112., 130., 58., 49., 58., 70., 78., 80., 37., 9., 13.,
          28., 62., 144., 196., 77., 85., 119., 54., 123., 91., 53., 51.,
          59., 70., 74., 91., 84., 132., 41., 34., 52., 176., 197., 185.,
          81., 101., 74., 110., 105., 47., 46., 58., 71., 87., 94., 113.,
          114., 126., 150., 163., 190., 185., 185., 179., 96., 93., 72.,
          133., 32., 28., 61., 73., 89., 102., 112., 125., 134., 136.,
          161., 177., 186., 185., 177., 157., 91., 66., 91., 51., 28.,
          32., 47., 74., 103., 118., 124., 126., 137., 151., 162., 169.,
          176., 182., 170., 160., 66., 27., 73., 13., 10., 32., 48., 63.,
          97., 123., 141., 148., 149., 155., 159., 166., 176., 176.,
          172., 160., 18., 66., 43., 76., 95., 48., 34., 77., 92., 124.,
          149., 158., 155., 153., 150., 169., 173., 176., 176., 162., 7.,
          64., 62., 53., 77., 97., 59., 58., 83., 104., 136., 165., 158.,
          98., 108., 168., 170., 170., 164., 38., 29., 26., 28., 26.,
          46., 94., 48., 93., 88., 97., 132., 160., 91., 48., 117., 166.,
          171., 171., 32., 95., 34., 10., 5., 33., 23., 53., 83., 97.,
          98., 92., 107., 97., 85., 61., 115., 155., 131., 42., 115.,
          81., 24., 5., 5., 22., 50., 68., 91., 102., 106., 82., 79.,
          67., 64., 76., 139., 92., 43., 107., 114., 17., 7., 5., 10.,
          46., 62., 80., 92., 97., 100., 85., 76., 70., 76., 86., 82.,
          43., 104., 111., 14., 18., 68., 63., 8., 8., 32., 25., 25.,
          37., 62., 74., 107., 111., 149., 74., 64., 105., 119., 132.,
          113., 87., 26., 0., 0., 1., 16., 33., 26., 55., 92., 77., 122.,
          87., 73., 17., 33., 44., 44., 68., 94., 77., 5., 0., 0., 0.,
          24., 38., 65., 86., 104., 116., 20., 12., 12., 7., 5., 5., 2.,
          1., 5., 11., 20., 28., 56., 76., 60., 73., 83., 102., 111.,
          116., 122., 78., 13., 84., 91., 25., 8., 9., 11., 11., 100.,
          89., 81., 85., 91., 98., 105., 107., 128., 135., 201., 109.,
          77., 149., 184., 22., 112., 18., 10., 22., 131., 117., 94.,
          107., 113., 121., 125., 134., 154., 169., 190., 177., 176.,
          171., 118., 102., 109., 84., 84., 90., 173., 150., 143., 102.,
          104., 120., 136., 160., 163., 180., 178., 171., 162., 183.,
          177., 175., 150., 117., 117., 115., 95., 183., 171., 182.,
          145., 119., 156., 166., 165., 154., 161., 153., 141., 144.,
          139., 126., 124., 124., 115., 115., 133., 120., 186., 183.,
          162., 160., 167., 158., 159., 149., 147., 151., 148., 142.,
          141., 146., 148., 148., 137., 132., 212., 137., 118., 130.,
          152., 171., 170., 165., 168., 165., 166., 154., 165., 158.,
          154., 155., 158., 157., 145., 106., 186., 160., 162., 166.,
          166., 167., 174., 175., 175., 173., 173., 173., 175., 162.,
          174., 178., 160., 131., 107., 93., 165., 165., 166., 173.,
          172., 172., 174., 177., 180., 184., 184., 187., 187., 193.,
          189., 153., 135., 127., 98., 84., 173., 169., 170., 175., 173.,
          176., 179., 183., 184., 189., 190., 194., 192., 187., 159.,
          153., 135., 94., 92., 107., 178., 175., 171., 175., 178., 180.,
          185., 186., 189., 191., 190., 194., 182., 152., 164., 156.,
          111., 105., 136., 108., 180., 179., 180., 181., 183., 184.,
          181., 191., 193., 193., 193., 189., 154., 161., 164., 128.,
          134., 179., 123., 108., 172., 179., 181., 182., 185., 189.,
          190., 194., 198., 193., 193., 156., 139., 156., 148., 142.,
          175., 149., 141., 102., 178., 180., 183., 184., 187., 187.,
          195., 199., 197., 194., 179., 121., 136., 138., 153., 175.,
          169., 185., 125., 112., 180., 181., 185., 186., 194., 195.,
          197., 200., 202., 197., 131., 126., 128., 147., 146., 167.,
          175., 163., 116., 117., 184., 182., 187., 191., 198., 198.,
          202., 216., 203., 197., 122., 117., 141., 134., 157., 126.,
          182., 126., 128., 129., 184., 188., 197., 199., 201., 202.,
          205., 204., 200., 190., 119., 114., 138., 128., 135., 112.,
          162., 100., 130., 137., 68., 63., 8., 8., 32., 25., 25., 37.,
          62., 74., 107., 111., 149., 74., 64., 105., 119., 132., 113.,
          87., 26., 0., 0., 1., 16., 33., 26., 55., 92., 77., 122., 87.,
          73., 17., 33., 44., 44., 68., 94., 77., 5., 0., 0., 0., 24.,
          38., 65., 86., 104., 116., 20., 12., 12., 7., 5., 5., 2., 1.,
          5., 11., 20., 28., 56., 76., 60., 73., 83., 102., 111., 116.,
          122., 78., 13., 84., 91., 25., 8., 9., 11., 11., 100., 89.,
          81., 85., 91., 98., 105., 107., 128., 135., 201., 109., 77.,
          149., 184., 22., 112., 18., 10., 22., 131., 117., 94., 107.,
          113., 121., 125., 134., 154., 169., 190., 177., 176., 171.,
          118., 102., 109., 84., 84., 90., 173., 150., 143., 102., 104.,
          120., 136., 160., 163., 180., 178., 171., 162., 183., 177.,
          175., 150., 117., 117., 115., 95., 183., 171., 182., 145.,
          119., 156., 166., 165., 154., 161., 153., 141., 144., 139.,
          126., 124., 124., 115., 115., 133., 120., 186., 183., 162.,
          160., 167., 158., 159., 149., 147., 151., 148., 142., 141.,
          146., 148., 148., 137., 132., 212., 137., 118., 130., 152.,
          171., 170., 165., 168., 165., 166., 154., 165., 158., 154.,
          155., 158., 157., 145., 106., 186., 160., 162., 166., 166.,
          167., 174., 175., 175., 173., 173., 173., 175., 162., 174.,
          178., 160., 131., 107., 93., 165., 165., 166., 173., 172.,
          172., 174., 177., 180., 184., 184., 187., 187., 193., 189.,
          153., 135., 127., 98., 84., 173., 169., 170., 175., 173., 176.,
          179., 183., 184., 189., 190., 194., 192., 187., 159., 153.,
          135., 94., 92., 107., 178., 175., 171., 175., 178., 180., 185.,
          186., 189., 191., 190., 194., 182., 152., 164., 156., 111.,
          105., 136., 108., 180., 179., 180., 181., 183., 184., 181.,
          191., 193., 193., 193., 189., 154., 161., 164., 128., 134.,
          179., 123., 108., 172., 179., 181., 182., 185., 189., 190.,
          194., 198., 193., 193., 156., 139., 156., 148., 142., 175.,
          149., 141., 102., 178., 180., 183., 184., 187., 187., 195.,
          199., 197., 194., 179., 121., 136., 138., 153., 175., 169.,
          185., 125., 112., 180., 181., 185., 186., 194., 195., 197.,
          200., 202., 197., 131., 126., 128., 147., 146., 167., 175.,
          163., 116., 117., 184., 182., 187., 191., 198., 198., 202.,
          216., 203., 197., 122., 117., 141., 134., 157., 126., 182.,
          126., 128., 129., 184., 188., 197., 199., 201., 202., 205.,
          204., 200., 190., 119., 114., 138., 128., 135., 112., 162.,
          100., 130., 137., 68., 63., 8., 8., 32., 25., 25., 37., 62.,
          74., 107., 111., 149., 74., 64., 105., 119., 132., 113., 87.,
          26., 0., 0., 1., 16., 33., 26., 55., 92., 77., 122., 87., 73.,
          17., 33., 44., 44., 68., 94., 77., 5., 0., 0., 0., 24., 38.,
          65., 86., 104., 116., 20., 12., 12., 7., 5., 5., 2., 1., 5.,
          11., 20., 28., 56., 76., 60., 73., 83., 102., 111., 116., 122.,
          78., 13., 84., 91., 25., 8., 9., 11., 11., 100., 89., 81., 85.,
          91., 98., 105., 107., 128., 135., 201., 109., 77., 149., 184.,
          22., 112., 18., 10., 22., 131., 117., 94., 107., 113., 121.,
          125., 134., 154., 169., 190., 177., 176., 171., 118., 102.,
          109., 84., 84., 90., 173., 150., 143., 102., 104., 120., 136.,
          160., 163., 180., 178., 171., 162., 183., 177., 175., 150.,
          117., 117., 115., 95., 183., 171., 182., 145., 119., 156.,
          166., 165., 154., 161., 153., 141., 144., 139., 126., 124.,
          124., 115., 115., 133., 120., 186., 183., 162., 160., 167.,
          158., 159., 149., 147., 151., 148., 142., 141., 146., 148.,
          148., 137., 132., 212., 137., 118., 130., 152., 171., 170.,
          165., 168., 165., 166., 154., 165., 158., 154., 155., 158.,
          157., 145., 106., 186., 160., 162., 166., 166., 167., 174.,
          175., 175., 173., 173., 173., 175., 162., 174., 178., 160.,
          131., 107., 93., 165., 165., 166., 173., 172., 172., 174.,
          177., 180., 184., 184., 187., 187., 193., 189., 153., 135.,
          127., 98., 84., 173., 169., 170., 175., 173., 176., 179., 183.,
          184., 189., 190., 194., 192., 187., 159., 153., 135., 94., 92.,
          107., 178., 175., 171., 175., 178., 180., 185., 186., 189.,
          191., 190., 194., 182., 152., 164., 156., 111., 105., 136.,
          108., 180., 179., 180., 181., 183., 184., 181., 191., 193.,
          193., 193., 189., 154., 161., 164., 128., 134., 179., 123.,
          108., 172., 179., 181., 182., 185., 189., 190., 194., 198.,
          193., 193., 156., 139., 156., 148., 142., 175., 149., 141.,
          102., 178., 180., 183., 184., 187., 187., 195., 199., 197.,
          194., 179., 121., 136., 138., 153., 175., 169., 185., 125.,
          112., 180., 181., 185., 186., 194., 195., 197., 200., 202.,
          197., 131., 126., 128., 147., 146., 167., 175., 163., 116.,
          117., 184., 182., 187., 191., 198., 198., 202., 216., 203.,
          197., 122., 117., 141., 134., 157., 126., 182., 126., 128.,
          129., 184., 188., 197., 199., 201., 202., 205., 204., 200.,
          190., 119., 114., 138., 128., 135., 112., 162., 100., 130.,
          137., 68., 63., 8., 8., 32., 25., 25., 37., 62., 74., 107.,
          111., 149., 74., 64., 105., 119., 132., 113., 87., 26., 0., 0.,
          1., 16., 33., 26., 55., 92., 77., 122., 87., 73., 17., 33.,
          44., 44., 68., 94., 77., 5., 0., 0., 0., 24., 38., 65., 86.,
          104., 116., 20., 12., 12., 7., 5., 5., 2., 1., 5., 11., 20.,
          28., 56., 76., 60., 73., 83., 102., 111., 116., 122., 78., 13.,
          84., 91., 25., 8., 9., 11., 11., 100., 89., 81., 85., 91., 98.,
          105., 107., 128., 135., 201., 109., 77., 149., 184., 22., 112.,
          18., 10., 22., 131., 117., 94., 107., 113., 121., 125., 134.,
          154., 169., 190., 177., 176., 171., 118., 102., 109., 84., 84.,
          90., 173., 150., 143., 102., 104., 120., 136., 160., 163.,
          180., 178., 171., 162., 183., 177., 175., 150., 117., 117.,
          115., 95., 183., 171., 182., 145., 119., 156., 166., 165.,
          154., 161., 153., 141., 144., 139., 126., 124., 124., 115.,
          115., 133., 120., 186., 183., 162., 160., 167., 158., 159.,
          149., 147., 151., 148., 142., 141., 146., 148., 148., 137.,
          132., 212., 137., 118., 130., 152., 171., 170., 165., 168.,
          165., 166., 154., 165., 158., 154., 155., 158., 157., 145.,
          106., 186., 160., 162., 166., 166., 167., 174., 175., 175.,
          173., 173., 173., 175., 162., 174., 178., 160., 131., 107.,
          93., 165., 165., 166., 173., 172., 172., 174., 177., 180.,
          184., 184., 187., 187., 193., 189., 153., 135., 127., 98., 84.,
          173., 169., 170., 175., 173., 176., 179., 183., 184., 189.,
          190., 194., 192., 187., 159., 153., 135., 94., 92., 107., 178.,
          175., 171., 175., 178., 180., 185., 186., 189., 191., 190.,
          194., 182., 152., 164., 156., 111., 105., 136., 108., 180.,
          179., 180., 181., 183., 184., 181., 191., 193., 193., 193.,
          189., 154., 161., 164., 128., 134., 179., 123., 108., 172.,
          179., 181., 182., 185., 189., 190., 194., 198., 193., 193.,
          156., 139., 156., 148., 142., 175., 149., 141., 102., 178.,
          180., 183., 184., 187., 187., 195., 199., 197., 194., 179.,
          121., 136., 138., 153., 175., 169., 185., 125., 112., 180.,
          181., 185., 186., 194., 195., 197., 200., 202., 197., 131.,
          126., 128., 147., 146., 167., 175., 163., 116., 117., 184.,
          182., 187., 191., 198., 198., 202., 216., 203., 197., 122.,
          117., 141., 134., 157., 126., 182., 126., 128., 129., 184.,
          188., 197., 199., 201., 202., 205., 204., 200., 190., 119.,
          114., 138., 128., 135., 112., 162., 100., 130., 137., 68., 63.,
          8., 8., 32., 25., 25., 37., 62., 74., 107., 111., 149., 74.,
          64., 105., 119., 132., 113., 87., 26., 0., 0., 1., 16., 33.,
          26., 55., 92., 77., 122., 87., 73., 17., 33., 44., 44., 68.,
          94., 77., 5., 0., 0., 0., 24., 38., 65., 86., 104., 116., 20.,
          12., 12., 7., 5., 5., 2., 1., 5., 11., 20., 28., 56., 76., 60.,
          73., 83., 102., 111., 116., 122., 78., 13., 84., 91., 25., 8.,
          9., 11., 11., 100., 89., 81., 85., 91., 98., 105., 107., 128.,
          135., 201., 109., 77., 149., 184., 22., 112., 18., 10., 22.,
          131., 117., 94., 107., 113., 121., 125., 134., 154., 169.,
          190., 177., 176., 171., 118., 102., 109., 84., 84., 90., 173.,
          150., 143., 102., 104., 120., 136., 160., 163., 180., 178.,
          171., 162., 183., 177., 175., 150., 117., 117., 115., 95.,
          183., 171., 182., 145., 119., 156., 166., 165., 154., 161.,
          153., 141., 144., 139., 126., 124., 124., 115., 115., 133.,
          120., 186., 183., 162., 160., 167., 158., 159., 149., 147.,
          151., 148., 142., 141., 146., 148., 148., 137., 132., 212.,
          137., 118., 130., 152., 171., 170., 165., 168., 165., 166.,
          154., 165., 158., 154., 155., 158., 157., 145., 106., 186.,
          160., 162., 166., 166., 167., 174., 175., 175., 173., 173.,
          173., 175., 162., 174., 178., 160., 131., 107., 93., 165.,
          165., 166., 173., 172., 172., 174., 177., 180., 184., 184.,
          187., 187., 193., 189., 153., 135., 127., 98., 84., 173., 169.,
          170., 175., 173., 176., 179., 183., 184., 189., 190., 194.,
          192., 187., 159., 153., 135., 94., 92., 107., 178., 175., 171.,
          175., 178., 180., 185., 186., 189., 191., 190., 194., 182.,
          152., 164., 156., 111., 105., 136., 108., 180., 179., 180.,
          181., 183., 184., 181., 191., 193., 193., 193., 189., 154.,
          161., 164., 128., 134., 179., 123., 108., 172., 179., 181.,
          182., 185., 189., 190., 194., 198., 193., 193., 156., 139.,
          156., 148., 142., 175., 149., 141., 102., 178., 180., 183.,
          184., 187., 187., 195., 199., 197., 194., 179., 121., 136.,
          138., 153., 175., 169., 185., 125., 112., 180., 181., 185.,
          186., 194., 195., 197., 200., 202., 197., 131., 126., 128.,
          147., 146., 167., 175., 163., 116., 117., 184., 182., 187.,
          191., 198., 198., 202., 216., 203., 197., 122., 117., 141.,
          134., 157., 126., 182., 126., 128., 129., 184., 188., 197.,
          199., 201., 202., 205., 204., 200., 190., 119., 114., 138.,
          128., 135., 112., 162., 100., 130., 137., 68., 63., 8., 8.,
          32., 25., 25., 37., 62., 74., 107., 111., 149., 74., 64., 105.,
          119., 132., 113., 87., 26., 0., 0., 1., 16., 33., 26., 55.,
          92., 77., 122., 87., 73., 17., 33., 44., 44., 68., 94., 77.,
          5., 0., 0., 0., 24., 38., 65., 86., 104., 116., 20., 12., 12.,
          7., 5., 5., 2., 1., 5., 11., 20., 28., 56., 76., 60., 73., 83.,
          102., 111., 116., 122., 78., 13., 84., 91., 25., 8., 9., 11.,
          11., 100., 89., 81., 85., 91., 98., 105., 107., 128., 135.,
          201., 109., 77., 149., 184., 22., 112., 18., 10., 22., 131.,
          117., 94., 107., 113., 121., 125., 134., 154., 169., 190.,
          177., 176., 171., 118., 102., 109., 84., 84., 90., 173., 150.,
          143., 102., 104., 120., 136., 160., 163., 180., 178., 171.,
          162., 183., 177., 175., 150., 117., 117., 115., 95., 183.,
          171., 182., 145., 119., 156., 166., 165., 154., 161., 153.,
          141., 144., 139., 126., 124., 124., 115., 115., 133., 120.,
          186., 183., 162., 160., 167., 158., 159., 149., 147., 151.,
          148., 142., 141., 146., 148., 148., 137., 132., 212., 137.,
          118., 130., 152., 171., 170., 165., 168., 165., 166., 154.,
          165., 158., 154., 155., 158., 157., 145., 106., 186., 160.,
          162., 166., 166., 167., 174., 175., 175., 173., 173., 173.,
          175., 162., 174., 178., 160., 131., 107., 93., 165., 165.,
          166., 173., 172., 172., 174., 177., 180., 184., 184., 187.,
          187., 193., 189., 153., 135., 127., 98., 84., 173., 169., 170.,
          175., 173., 176., 179., 183., 184., 189., 190., 194., 192.,
          187., 159., 153., 135., 94., 92., 107., 178., 175., 171., 175.,
          178., 180., 185., 186., 189., 191., 190., 194., 182., 152.,
          164., 156., 111., 105., 136., 108., 180., 179., 180., 181.,
          183., 184., 181., 191., 193., 193., 193., 189., 154., 161.,
          164., 128., 134., 179., 123., 108., 172., 179., 181., 182.,
          185., 189., 190., 194., 198., 193., 193., 156., 139., 156.,
          148., 142., 175., 149., 141., 102., 178., 180., 183., 184.,
          187., 187., 195., 199., 197., 194., 179., 121., 136., 138.,
          153., 175., 169., 185., 125., 112., 180., 181., 185., 186.,
          194., 195., 197., 200., 202., 197., 131., 126., 128., 147.,
          146., 167., 175., 163., 116., 117., 184., 182., 187., 191.,
          198., 198., 202., 216., 203., 197., 122., 117., 141., 134.,
          157., 126., 182., 126., 128., 129., 184., 188., 197., 199.,
          201., 202., 205., 204., 200., 190., 119., 114., 138., 128.,
          135., 112., 162., 100., 130., 137., 68., 63., 8., 8., 32., 25.,
          25., 37., 62., 74., 107., 111., 149., 74., 64., 105., 119.,
          132., 113., 87., 26., 0., 0., 1., 16., 33., 26., 55., 92., 77.,
          122., 87., 73., 17., 33., 44., 44., 68., 94., 77., 5., 0., 0.,
          0., 24., 38., 65., 86., 104., 116., 20., 12., 12., 7., 5., 5.,
          2., 1., 5., 11., 20., 28., 56., 76., 60., 73., 83., 102., 111.,
          116., 122., 78., 13., 84., 91., 25., 8., 9., 11., 11., 100.,
          89., 81., 85., 91., 98., 105., 107., 128., 135., 201., 109.,
          77., 149., 184., 22., 112., 18., 10., 22., 131., 117., 94.,
          107., 113., 121., 125., 134., 154., 169., 190., 177., 176.,
          171., 118., 102., 109., 84., 84., 90., 173., 150., 143., 102.,
          104., 120., 136., 160., 163., 180., 178., 171., 162., 183.,
          177., 175., 150., 117., 117., 115., 95., 183., 171., 182.,
          145., 119., 156., 166., 165., 154., 161., 153., 141., 144.,
          139., 126., 124., 124., 115., 115., 133., 120., 186., 183.,
          162., 160., 167., 158., 159., 149., 147., 151., 148., 142.,
          141., 146., 148., 148., 137., 132., 212., 137., 118., 130.,
          152., 171., 170., 165., 168., 165., 166., 154., 165., 158.,
          154., 155., 158., 157., 145., 106., 186., 160., 162., 166.,
          166., 167., 174., 175., 175., 173., 173., 173., 175., 162.,
          174., 178., 160., 131., 107., 93., 165., 165., 166., 173.,
          172., 172., 174., 177., 180., 184., 184., 187., 187., 193.,
          189., 153., 135., 127., 98., 84., 173., 169., 170., 175., 173.,
          176., 179., 183., 184., 189., 190., 194., 192., 187., 159.,
          153., 135., 94., 92., 107., 178., 175., 171., 175., 178., 180.,
          185., 186., 189., 191., 190., 194., 182., 152., 164., 156.,
          111., 105., 136., 108., 180., 179., 180., 181., 183., 184.,
          181., 191., 193., 193., 193., 189., 154., 161., 164., 128.,
          134., 179., 123., 108., 172., 179., 181., 182., 185., 189.,
          190., 194., 198., 193., 193., 156., 139., 156., 148., 142.,
          175., 149., 141., 102., 178., 180., 183., 184., 187., 187.,
          195., 199., 197., 194., 179., 121., 136., 138., 153., 175.,
          169., 185., 125., 112., 180., 181., 185., 186., 194., 195.,
          197., 200., 202., 197., 131., 126., 128., 147., 146., 167.,
          175., 163., 116., 117., 184., 182., 187., 191., 198., 198.,
          202., 216., 203., 197., 122., 117., 141., 134., 157., 126.,
          182., 126., 128., 129., 184., 188., 197., 199., 201., 202.,
          205., 204., 200., 190., 119., 114., 138., 128., 135., 112.,
          162., 100., 130., 137., 68., 63., 8., 8., 32., 25., 25., 37.,
          62., 74., 107., 111., 149., 74., 64., 105., 119., 132., 113.,
          87., 26., 0., 0., 1., 16., 33., 26., 55., 92., 77., 122., 87.,
          73., 17., 33., 44., 44., 68., 94., 77., 5., 0., 0., 0., 24.,
          38., 65., 86., 104., 116., 20., 12., 12., 7., 5., 5., 2., 1.,
          5., 11., 20., 28., 56., 76., 60., 73., 83., 102., 111., 116.,
          122., 78., 13., 84., 91., 25., 8., 9., 11., 11., 100., 89.,
          81., 85., 91., 98., 105., 107., 128., 135., 201., 109., 77.,
          149., 184., 22., 112., 18., 10., 22., 131., 117., 94., 107.,
          113., 121., 125., 134., 154., 169., 190., 177., 176., 171.,
          118., 102., 109., 84., 84., 90., 173., 150., 143., 102., 104.,
          120., 136., 160., 163., 180., 178., 171., 162., 183., 177.,
          175., 150., 117., 117., 115., 95., 183., 171., 182., 145.,
          119., 156., 166., 165., 154., 161., 153., 141., 144., 139.,
          126., 124., 124., 115., 115., 133., 120., 186., 183., 162.,
          160., 167., 158., 159., 149., 147., 151., 148., 142., 141.,
          146., 148., 148., 137., 132., 212., 137., 118., 130., 152.,
          171., 170., 165., 168., 165., 166., 154., 165., 158., 154.,
          155., 158., 157., 145., 106., 186., 160., 162., 166., 166.,
          167., 174., 175., 175., 173., 173., 173., 175., 162., 174.,
          178., 160., 131., 107., 93., 165., 165., 166., 173., 172.,
          172., 174., 177., 180., 184., 184., 187., 187., 193., 189.,
          153., 135., 127., 98., 84., 173., 169., 170., 175., 173., 176.,
          179., 183., 184., 189., 190., 194., 192., 187., 159., 153.,
          135., 94., 92., 107., 178., 175., 171., 175., 178., 180., 185.,
          186., 189., 191., 190., 194., 182., 152., 164., 156., 111.,
          105., 136., 108., 180., 179., 180., 181., 183., 184., 181.,
          191., 193., 193., 193., 189., 154., 161., 164., 128., 134.,
          179., 123., 108., 172., 179., 181., 182., 185., 189., 190.,
          194., 198., 193., 193., 156., 139., 156., 148., 142., 175.,
          149., 141., 102., 178., 180., 183., 184., 187., 187., 195.,
          199., 197., 194., 179., 121., 136., 138., 153., 175., 169.,
          185., 125., 112., 180., 181., 185., 186., 194., 195., 197.,
          200., 202., 197., 131., 126., 128., 147., 146., 167., 175.,
          163., 116., 117., 184., 182., 187., 191., 198., 198., 202.,
          216., 203., 197., 122., 117., 141., 134., 157., 126., 182.,
          126., 128., 129., 184., 188., 197., 199., 201., 202., 205.,
          204., 200., 190., 119., 114., 138., 128., 135., 112., 162.,
          100., 130., 137., 32., 97., 179., 180., 183., 176., 171., 152.,
          150., 151., 125., 103., 132., 176., 202., 229., 250., 255.,
          255., 242., 47., 182., 179., 171., 152., 102., 94., 100., 123.,
          98., 100., 100., 89., 109., 118., 197., 212., 235., 245., 252.,
          85., 112., 138., 176., 186., 191., 157., 155., 126., 86., 130.,
          99., 52., 92., 97., 99., 141., 187., 208., 239., 124., 111.,
          97., 76., 33., 33., 21., 22., 40., 109., 210., 59., 73., 97.,
          115., 115., 121., 132., 184., 200., 114., 90., 40., 45., 39.,
          23., 21., 85., 23., 120., 106., 35., 85., 129., 192., 192.,
          159., 159., 147., 176., 113., 88., 41., 41., 53., 29., 46.,
          120., 171., 101., 35., 89., 138., 190., 226., 235., 235., 205.,
          175., 161., 95., 63., 41., 40., 59., 30., 44., 81., 78., 64.,
          88., 123., 192., 215., 227., 241., 238., 230., 203., 180., 79.,
          61., 60., 67., 50., 50., 47., 74., 90., 117., 137., 166., 194.,
          217., 233., 240., 240., 236., 217., 208., 93., 101., 102.,
          128., 126., 112., 110., 112., 123., 143., 160., 176., 194.,
          217., 232., 238., 242., 234., 223., 210., 109., 140., 193.,
          217., 216., 182., 173., 174., 178., 182., 182., 191., 216.,
          226., 229., 240., 243., 234., 230., 220., 91., 118., 179.,
          238., 246., 242., 229., 225., 213., 202., 198., 197., 217.,
          224., 229., 233., 237., 233., 230., 223., 33., 126., 168.,
          228., 248., 240., 236., 230., 218., 205., 200., 200., 216.,
          223., 228., 232., 235., 235., 232., 224., 36., 76., 159., 196.,
          241., 240., 236., 236., 224., 212., 204., 202., 215., 225.,
          228., 231., 234., 234., 235., 225., 62., 76., 136., 181., 241.,
          240., 237., 237., 227., 215., 209., 208., 215., 222., 226.,
          231., 234., 235., 235., 227., 58., 67., 108., 182., 230., 241.,
          238., 234., 230., 220., 210., 209., 213., 220., 223., 229.,
          232., 233., 232., 225., 39., 66., 101., 182., 224., 237., 232.,
          228., 217., 216., 214., 216., 217., 217., 223., 226., 229.,
          228., 228., 225., 55., 75., 89., 149., 215., 229., 228., 213.,
          217., 202., 202., 221., 221., 219., 224., 226., 227., 223.,
          224., 222., 60., 64., 65., 123., 216., 232., 227., 229., 218.,
          209., 190., 232., 221., 223., 225., 224., 222., 223., 218.,
          217., 62., 62., 62., 97., 192., 232., 204., 132., 97., 120.,
          218., 233., 226., 223., 225., 223., 217., 216., 214., 211.,
          66., 65., 60., 101., 148., 186., 143., 145., 199., 168., 203.,
          224., 225., 227., 224., 223., 219., 214., 201., 203., 32., 97.,
          179., 180., 183., 176., 171., 152., 150., 151., 125., 103.,
          132., 176., 202., 229., 250., 255., 255., 242., 47., 182.,
          179., 171., 152., 102., 94., 100., 123., 98., 100., 100., 89.,
          109., 118., 197., 212., 235., 245., 252., 85., 112., 138.,
          176., 186., 191., 157., 155., 126., 86., 130., 99., 52., 92.,
          97., 99., 141., 187., 208., 239., 124., 111., 97., 76., 33.,
          33., 21., 22., 40., 109., 210., 59., 73., 97., 115., 115.,
          121., 132., 184., 200., 114., 90., 40., 45., 39., 23., 21.,
          85., 23., 120., 106., 35., 85., 129., 192., 192., 159., 159.,
          147., 176., 113., 88., 41., 41., 53., 29., 46., 120., 171.,
          101., 35., 89., 138., 190., 226., 235., 235., 205., 175., 161.,
          95., 63., 41., 40., 59., 30., 44., 81., 78., 64., 88., 123.,
          192., 215., 227., 241., 238., 230., 203., 180., 79., 61., 60.,
          67., 50., 50., 47., 74., 90., 117., 137., 166., 194., 217.,
          233., 240., 240., 236., 217., 208., 93., 101., 102., 128.,
          126., 112., 110., 112., 123., 143., 160., 176., 194., 217.,
          232., 238., 242., 234., 223., 210., 109., 140., 193., 217.,
          216., 182., 173., 174., 178., 182., 182., 191., 216., 226.,
          229., 240., 243., 234., 230., 220., 91., 118., 179., 238.,
          246., 242., 229., 225., 213., 202., 198., 197., 217., 224.,
          229., 233., 237., 233., 230., 223., 33., 126., 168., 228.,
          248., 240., 236., 230., 218., 205., 200., 200., 216., 223.,
          228., 232., 235., 235., 232., 224., 36., 76., 159., 196., 241.,
          240., 236., 236., 224., 212., 204., 202., 215., 225., 228.,
          231., 234., 234., 235., 225., 62., 76., 136., 181., 241., 240.,
          237., 237., 227., 215., 209., 208., 215., 222., 226., 231.,
          234., 235., 235., 227., 58., 67., 108., 182., 230., 241., 238.,
          234., 230., 220., 210., 209., 213., 220., 223., 229., 232.,
          233., 232., 225., 39., 66., 101., 182., 224., 237., 232., 228.,
          217., 216., 214., 216., 217., 217., 223., 226., 229., 228.,
          228., 225., 55., 75., 89., 149., 215., 229., 228., 213., 217.,
          202., 202., 221., 221., 219., 224., 226., 227., 223., 224.,
          222., 60., 64., 65., 123., 216., 232., 227., 229., 218., 209.,
          190., 232., 221., 223., 225., 224., 222., 223., 218., 217.,
          62., 62., 62., 97., 192., 232., 204., 132., 97., 120., 218.,
          233., 226., 223., 225., 223., 217., 216., 214., 211., 66., 65.,
          60., 101., 148., 186., 143., 145., 199., 168., 203., 224.,
          225., 227., 224., 223., 219., 214., 201., 203., 32., 97., 179.,
          180., 183., 176., 171., 152., 150., 151., 125., 103., 132.,
          176., 202., 229., 250., 255., 255., 242., 47., 182., 179.,
          171., 152., 102., 94., 100., 123., 98., 100., 100., 89., 109.,
          118., 197., 212., 235., 245., 252., 85., 112., 138., 176.,
          186., 191., 157., 155., 126., 86., 130., 99., 52., 92., 97.,
          99., 141., 187., 208., 239., 124., 111., 97., 76., 33., 33.,
          21., 22., 40., 109., 210., 59., 73., 97., 115., 115., 121.,
          132., 184., 200., 114., 90., 40., 45., 39., 23., 21., 85., 23.,
          120., 106., 35., 85., 129., 192., 192., 159., 159., 147., 176.,
          113., 88., 41., 41., 53., 29., 46., 120., 171., 101., 35., 89.,
          138., 190., 226., 235., 235., 205., 175., 161., 95., 63., 41.,
          40., 59., 30., 44., 81., 78., 64., 88., 123., 192., 215., 227.,
          241., 238., 230., 203., 180., 79., 61., 60., 67., 50., 50.,
          47., 74., 90., 117., 137., 166., 194., 217., 233., 240., 240.,
          236., 217., 208., 93., 101., 102., 128., 126., 112., 110.,
          112., 123., 143., 160., 176., 194., 217., 232., 238., 242.,
          234., 223., 210., 109., 140., 193., 217., 216., 182., 173.,
          174., 178., 182., 182., 191., 216., 226., 229., 240., 243.,
          234., 230., 220., 91., 118., 179., 238., 246., 242., 229.,
          225., 213., 202., 198., 197., 217., 224., 229., 233., 237.,
          233., 230., 223., 33., 126., 168., 228., 248., 240., 236.,
          230., 218., 205., 200., 200., 216., 223., 228., 232., 235.,
          235., 232., 224., 36., 76., 159., 196., 241., 240., 236., 236.,
          224., 212., 204., 202., 215., 225., 228., 231., 234., 234.,
          235., 225., 62., 76., 136., 181., 241., 240., 237., 237., 227.,
          215., 209., 208., 215., 222., 226., 231., 234., 235., 235.,
          227., 58., 67., 108., 182., 230., 241., 238., 234., 230., 220.,
          210., 209., 213., 220., 223., 229., 232., 233., 232., 225.,
          39., 66., 101., 182., 224., 237., 232., 228., 217., 216., 214.,
          216., 217., 217., 223., 226., 229., 228., 228., 225., 55., 75.,
          89., 149., 215., 229., 228., 213., 217., 202., 202., 221.,
          221., 219., 224., 226., 227., 223., 224., 222., 60., 64., 65.,
          123., 216., 232., 227., 229., 218., 209., 190., 232., 221.,
          223., 225., 224., 222., 223., 218., 217., 62., 62., 62., 97.,
          192., 232., 204., 132., 97., 120., 218., 233., 226., 223.,
          225., 223., 217., 216., 214., 211., 66., 65., 60., 101., 148.,
          186., 143., 145., 199., 168., 203., 224., 225., 227., 224.,
          223., 219., 214., 201., 203., 32., 97., 179., 180., 183., 176.,
          171., 152., 150., 151., 125., 103., 132., 176., 202., 229.,
          250., 255., 255., 242., 47., 182., 179., 171., 152., 102., 94.,
          100., 123., 98., 100., 100., 89., 109., 118., 197., 212., 235.,
          245., 252., 85., 112., 138., 176., 186., 191., 157., 155.,
          126., 86., 130., 99., 52., 92., 97., 99., 141., 187., 208.,
          239., 124., 111., 97., 76., 33., 33., 21., 22., 40., 109.,
          210., 59., 73., 97., 115., 115., 121., 132., 184., 200., 114.,
          90., 40., 45., 39., 23., 21., 85., 23., 120., 106., 35., 85.,
          129., 192., 192., 159., 159., 147., 176., 113., 88., 41., 41.,
          53., 29., 46., 120., 171., 101., 35., 89., 138., 190., 226.,
          235., 235., 205., 175., 161., 95., 63., 41., 40., 59., 30.,
          44., 81., 78., 64., 88., 123., 192., 215., 227., 241., 238.,
          230., 203., 180., 79., 61., 60., 67., 50., 50., 47., 74., 90.,
          117., 137., 166., 194., 217., 233., 240., 240., 236., 217.,
          208., 93., 101., 102., 128., 126., 112., 110., 112., 123.,
          143., 160., 176., 194., 217., 232., 238., 242., 234., 223.,
          210., 109., 140., 193., 217., 216., 182., 173., 174., 178.,
          182., 182., 191., 216., 226., 229., 240., 243., 234., 230.,
          220., 91., 118., 179., 238., 246., 242., 229., 225., 213.,
          202., 198., 197., 217., 224., 229., 233., 237., 233., 230.,
          223., 33., 126., 168., 228., 248., 240., 236., 230., 218.,
          205., 200., 200., 216., 223., 228., 232., 235., 235., 232.,
          224., 36., 76., 159., 196., 241., 240., 236., 236., 224., 212.,
          204., 202., 215., 225., 228., 231., 234., 234., 235., 225.,
          62., 76., 136., 181., 241., 240., 237., 237., 227., 215., 209.,
          208., 215., 222., 226., 231., 234., 235., 235., 227., 58., 67.,
          108., 182., 230., 241., 238., 234., 230., 220., 210., 209.,
          213., 220., 223., 229., 232., 233., 232., 225., 39., 66., 101.,
          182., 224., 237., 232., 228., 217., 216., 214., 216., 217.,
          217., 223., 226., 229., 228., 228., 225., 55., 75., 89., 149.,
          215., 229., 228., 213., 217., 202., 202., 221., 221., 219.,
          224., 226., 227., 223., 224., 222., 60., 64., 65., 123., 216.,
          232., 227., 229., 218., 209., 190., 232., 221., 223., 225.,
          224., 222., 223., 218., 217., 62., 62., 62., 97., 192., 232.,
          204., 132., 97., 120., 218., 233., 226., 223., 225., 223.,
          217., 216., 214., 211., 66., 65., 60., 101., 148., 186., 143.,
          145., 199., 168., 203., 224., 225., 227., 224., 223., 219.,
          214., 201., 203., 32., 97., 179., 180., 183., 176., 171., 152.,
          150., 151., 125., 103., 132., 176., 202., 229., 250., 255.,
          255., 242., 47., 182., 179., 171., 152., 102., 94., 100., 123.,
          98., 100., 100., 89., 109., 118., 197., 212., 235., 245., 252.,
          85., 112., 138., 176., 186., 191., 157., 155., 126., 86., 130.,
          99., 52., 92., 97., 99., 141., 187., 208., 239., 124., 111.,
          97., 76., 33., 33., 21., 22., 40., 109., 210., 59., 73., 97.,
          115., 115., 121., 132., 184., 200., 114., 90., 40., 45., 39.,
          23., 21., 85., 23., 120., 106., 35., 85., 129., 192., 192.,
          159., 159., 147., 176., 113., 88., 41., 41., 53., 29., 46.,
          120., 171., 101., 35., 89., 138., 190., 226., 235., 235., 205.,
          175., 161., 95., 63., 41., 40., 59., 30., 44., 81., 78., 64.,
          88., 123., 192., 215., 227., 241., 238., 230., 203., 180., 79.,
          61., 60., 67., 50., 50., 47., 74., 90., 117., 137., 166., 194.,
          217., 233., 240., 240., 236., 217., 208., 93., 101., 102.,
          128., 126., 112., 110., 112., 123., 143., 160., 176., 194.,
          217., 232., 238., 242., 234., 223., 210., 109., 140., 193.,
          217., 216., 182., 173., 174., 178., 182., 182., 191., 216.,
          226., 229., 240., 243., 234., 230., 220., 91., 118., 179.,
          238., 246., 242., 229., 225., 213., 202., 198., 197., 217.,
          224., 229., 233., 237., 233., 230., 223., 33., 126., 168.,
          228., 248., 240., 236., 230., 218., 205., 200., 200., 216.,
          223., 228., 232., 235., 235., 232., 224., 36., 76., 159., 196.,
          241., 240., 236., 236., 224., 212., 204., 202., 215., 225.,
          228., 231., 234., 234., 235., 225., 62., 76., 136., 181., 241.,
          240., 237., 237., 227., 215., 209., 208., 215., 222., 226.,
          231., 234., 235., 235., 227., 58., 67., 108., 182., 230., 241.,
          238., 234., 230., 220., 210., 209., 213., 220., 223., 229.,
          232., 233., 232., 225., 39., 66., 101., 182., 224., 237., 232.,
          228., 217., 216., 214., 216., 217., 217., 223., 226., 229.,
          228., 228., 225., 55., 75., 89., 149., 215., 229., 228., 213.,
          217., 202., 202., 221., 221., 219., 224., 226., 227., 223.,
          224., 222., 60., 64., 65., 123., 216., 232., 227., 229., 218.,
          209., 190., 232., 221., 223., 225., 224., 222., 223., 218.,
          217., 62., 62., 62., 97., 192., 232., 204., 132., 97., 120.,
          218., 233., 226., 223., 225., 223., 217., 216., 214., 211.,
          66., 65., 60., 101., 148., 186., 143., 145., 199., 168., 203.,
          224., 225., 227., 224., 223., 219., 214., 201., 203., 32., 97.,
          179., 180., 183., 176., 171., 152., 150., 151., 125., 103.,
          132., 176., 202., 229., 250., 255., 255., 242., 47., 182.,
          179., 171., 152., 102., 94., 100., 123., 98., 100., 100., 89.,
          109., 118., 197., 212., 235., 245., 252., 85., 112., 138.,
          176., 186., 191., 157., 155., 126., 86., 130., 99., 52., 92.,
          97., 99., 141., 187., 208., 239., 124., 111., 97., 76., 33.,
          33., 21., 22., 40., 109., 210., 59., 73., 97., 115., 115.,
          121., 132., 184., 200., 114., 90., 40., 45., 39., 23., 21.,
          85., 23., 120., 106., 35., 85., 129., 192., 192., 159., 159.,
          147., 176., 113., 88., 41., 41., 53., 29., 46., 120., 171.,
          101., 35., 89., 138., 190., 226., 235., 235., 205., 175., 161.,
          95., 63., 41., 40., 59., 30., 44., 81., 78., 64., 88., 123.,
          192., 215., 227., 241., 238., 230., 203., 180., 79., 61., 60.,
          67., 50., 50., 47., 74., 90., 117., 137., 166., 194., 217.,
          233., 240., 240., 236., 217., 208., 93., 101., 102., 128.,
          126., 112., 110., 112., 123., 143., 160., 176., 194., 217.,
          232., 238., 242., 234., 223., 210., 109., 140., 193., 217.,
          216., 182., 173., 174., 178., 182., 182., 191., 216., 226.,
          229., 240., 243., 234., 230., 220., 91., 118., 179., 238.,
          246., 242., 229., 225., 213., 202., 198., 197., 217., 224.,
          229., 233., 237., 233., 230., 223., 33., 126., 168., 228.,
          248., 240., 236., 230., 218., 205., 200., 200., 216., 223.,
          228., 232., 235., 235., 232., 224., 36., 76., 159., 196., 241.,
          240., 236., 236., 224., 212., 204., 202., 215., 225., 228.,
          231., 234., 234., 235., 225., 62., 76., 136., 181., 241., 240.,
          237., 237., 227., 215., 209., 208., 215., 222., 226., 231.,
          234., 235., 235., 227., 58., 67., 108., 182., 230., 241., 238.,
          234., 230., 220., 210., 209., 213., 220., 223., 229., 232.,
          233., 232., 225., 39., 66., 101., 182., 224., 237., 232., 228.,
          217., 216., 214., 216., 217., 217., 223., 226., 229., 228.,
          228., 225., 55., 75., 89., 149., 215., 229., 228., 213., 217.,
          202., 202., 221., 221., 219., 224., 226., 227., 223., 224.,
          222., 60., 64., 65., 123., 216., 232., 227., 229., 218., 209.,
          190., 232., 221., 223., 225., 224., 222., 223., 218., 217.,
          62., 62., 62., 97., 192., 232., 204., 132., 97., 120., 218.,
          233., 226., 223., 225., 223., 217., 216., 214., 211., 66., 65.,
          60., 101., 148., 186., 143., 145., 199., 168., 203., 224.,
          225., 227., 224., 223., 219., 214., 201., 203., 32., 97., 179.,
          180., 183., 176., 171., 152., 150., 151., 125., 103., 132.,
          176., 202., 229., 250., 255., 255., 242., 47., 182., 179.,
          171., 152., 102., 94., 100., 123., 98., 100., 100., 89., 109.,
          118., 197., 212., 235., 245., 252., 85., 112., 138., 176.,
          186., 191., 157., 155., 126., 86., 130., 99., 52., 92., 97.,
          99., 141., 187., 208., 239., 124., 111., 97., 76., 33., 33.,
          21., 22., 40., 109., 210., 59., 73., 97., 115., 115., 121.,
          132., 184., 200., 114., 90., 40., 45., 39., 23., 21., 85., 23.,
          120., 106., 35., 85., 129., 192., 192., 159., 159., 147., 176.,
          113., 88., 41., 41., 53., 29., 46., 120., 171., 101., 35., 89.,
          138., 190., 226., 235., 235., 205., 175., 161., 95., 63., 41.,
          40., 59., 30., 44., 81., 78., 64., 88., 123., 192., 215., 227.,
          241., 238., 230., 203., 180., 79., 61., 60., 67., 50., 50.,
          47., 74., 90., 117., 137., 166., 194., 217., 233., 240., 240.,
          236., 217., 208., 93., 101., 102., 128., 126., 112., 110.,
          112., 123., 143., 160., 176., 194., 217., 232., 238., 242.,
          234., 223., 210., 109., 140., 193., 217., 216., 182., 173.,
          174., 178., 182., 182., 191., 216., 226., 229., 240., 243.,
          234., 230., 220., 91., 118., 179., 238., 246., 242., 229.,
          225., 213., 202., 198., 197., 217., 224., 229., 233., 237.,
          233., 230., 223., 33., 126., 168., 228., 248., 240., 236.,
          230., 218., 205., 200., 200., 216., 223., 228., 232., 235.,
          235., 232., 224., 36., 76., 159., 196., 241., 240., 236., 236.,
          224., 212., 204., 202., 215., 225., 228., 231., 234., 234.,
          235., 225., 62., 76., 136., 181., 241., 240., 237., 237., 227.,
          215., 209., 208., 215., 222., 226., 231., 234., 235., 235.,
          227., 58., 67., 108., 182., 230., 241., 238., 234., 230., 220.,
          210., 209., 213., 220., 223., 229., 232., 233., 232., 225.,
          39., 66., 101., 182., 224., 237., 232., 228., 217., 216., 214.,
          216., 217., 217., 223., 226., 229., 228., 228., 225., 55., 75.,
          89., 149., 215., 229., 228., 213., 217., 202., 202., 221.,
          221., 219., 224., 226., 227., 223., 224., 222., 60., 64., 65.,
          123., 216., 232., 227., 229., 218., 209., 190., 232., 221.,
          223., 225., 224., 222., 223., 218., 217., 62., 62., 62., 97.,
          192., 232., 204., 132., 97., 120., 218., 233., 226., 223.,
          225., 223., 217., 216., 214., 211., 66., 65., 60., 101., 148.,
          186., 143., 145., 199., 168., 203., 224., 225., 227., 224.,
          223., 219., 214., 201., 203., 32., 97., 179., 180., 183., 176.,
          171., 152., 150., 151., 125., 103., 132., 176., 202., 229.,
          250., 255., 255., 242., 47., 182., 179., 171., 152., 102., 94.,
          100., 123., 98., 100., 100., 89., 109., 118., 197., 212., 235.,
          245., 252., 85., 112., 138., 176., 186., 191., 157., 155.,
          126., 86., 130., 99., 52., 92., 97., 99., 141., 187., 208.,
          239., 124., 111., 97., 76., 33., 33., 21., 22., 40., 109.,
          210., 59., 73., 97., 115., 115., 121., 132., 184., 200., 114.,
          90., 40., 45., 39., 23., 21., 85., 23., 120., 106., 35., 85.,
          129., 192., 192., 159., 159., 147., 176., 113., 88., 41., 41.,
          53., 29., 46., 120., 171., 101., 35., 89., 138., 190., 226.,
          235., 235., 205., 175., 161., 95., 63., 41., 40., 59., 30.,
          44., 81., 78., 64., 88., 123., 192., 215., 227., 241., 238.,
          230., 203., 180., 79., 61., 60., 67., 50., 50., 47., 74., 90.,
          117., 137., 166., 194., 217., 233., 240., 240., 236., 217.,
          208., 93., 101., 102., 128., 126., 112., 110., 112., 123.,
          143., 160., 176., 194., 217., 232., 238., 242., 234., 223.,
          210., 109., 140., 193., 217., 216., 182., 173., 174., 178.,
          182., 182., 191., 216., 226., 229., 240., 243., 234., 230.,
          220., 91., 118., 179., 238., 246., 242., 229., 225., 213.,
          202., 198., 197., 217., 224., 229., 233., 237., 233., 230.,
          223., 33., 126., 168., 228., 248., 240., 236., 230., 218.,
          205., 200., 200., 216., 223., 228., 232., 235., 235., 232.,
          224., 36., 76., 159., 196., 241., 240., 236., 236., 224., 212.,
          204., 202., 215., 225., 228., 231., 234., 234., 235., 225.,
          62., 76., 136., 181., 241., 240., 237., 237., 227., 215., 209.,
          208., 215., 222., 226., 231., 234., 235., 235., 227., 58., 67.,
          108., 182., 230., 241., 238., 234., 230., 220., 210., 209.,
          213., 220., 223., 229., 232., 233., 232., 225., 39., 66., 101.,
          182., 224., 237., 232., 228., 217., 216., 214., 216., 217.,
          217., 223., 226., 229., 228., 228., 225., 55., 75., 89., 149.,
          215., 229., 228., 213., 217., 202., 202., 221., 221., 219.,
          224., 226., 227., 223., 224., 222., 60., 64., 65., 123., 216.,
          232., 227., 229., 218., 209., 190., 232., 221., 223., 225.,
          224., 222., 223., 218., 217., 62., 62., 62., 97., 192., 232.,
          204., 132., 97., 120., 218., 233., 226., 223., 225., 223.,
          217., 216., 214., 211., 66., 65., 60., 101., 148., 186., 143.,
          145., 199., 168., 203., 224., 225., 227., 224., 223., 219.,
          214., 201., 203., 32., 97., 179., 180., 183., 176., 171., 152.,
          150., 151., 125., 103., 132., 176., 202., 229., 250., 255.,
          255., 242., 47., 182., 179., 171., 152., 102., 94., 100., 123.,
          98., 100., 100., 89., 109., 118., 197., 212., 235., 245., 252.,
          85., 112., 138., 176., 186., 191., 157., 155., 126., 86., 130.,
          99., 52., 92., 97., 99., 141., 187., 208., 239., 124., 111.,
          97., 76., 33., 33., 21., 22., 40., 109., 210., 59., 73., 97.,
          115., 115., 121., 132., 184., 200., 114., 90., 40., 45., 39.,
          23., 21., 85., 23., 120., 106., 35., 85., 129., 192., 192.,
          159., 159., 147., 176., 113., 88., 41., 41., 53., 29., 46.,
          120., 171., 101., 35., 89., 138., 190., 226., 235., 235., 205.,
          175., 161., 95., 63., 41., 40., 59., 30., 44., 81., 78., 64.,
          88., 123., 192., 215., 227., 241., 238., 230., 203., 180., 79.,
          61., 60., 67., 50., 50., 47., 74., 90., 117., 137., 166., 194.,
          217., 233., 240., 240., 236., 217., 208., 93., 101., 102.,
          128., 126., 112., 110., 112., 123., 143., 160., 176., 194.,
          217., 232., 238., 242., 234., 223., 210., 109., 140., 193.,
          217., 216., 182., 173., 174., 178., 182., 182., 191., 216.,
          226., 229., 240., 243., 234., 230., 220., 91., 118., 179.,
          238., 246., 242., 229., 225., 213., 202., 198., 197., 217.,
          224., 229., 233., 237., 233., 230., 223., 33., 126., 168.,
          228., 248., 240., 236., 230., 218., 205., 200., 200., 216.,
          223., 228., 232., 235., 235., 232., 224., 36., 76., 159., 196.,
          241., 240., 236., 236., 224., 212., 204., 202., 215., 225.,
          228., 231., 234., 234., 235., 225., 62., 76., 136., 181., 241.,
          240., 237., 237., 227., 215., 209., 208., 215., 222., 226.,
          231., 234., 235., 235., 227., 58., 67., 108., 182., 230., 241.,
          238., 234., 230., 220., 210., 209., 213., 220., 223., 229.,
          232., 233., 232., 225., 39., 66., 101., 182., 224., 237., 232.,
          228., 217., 216., 214., 216., 217., 217., 223., 226., 229.,
          228., 228., 225., 55., 75., 89., 149., 215., 229., 228., 213.,
          217., 202., 202., 221., 221., 219., 224., 226., 227., 223.,
          224., 222., 60., 64., 65., 123., 216., 232., 227., 229., 218.,
          209., 190., 232., 221., 223., 225., 224., 222., 223., 218.,
          217., 62., 62., 62., 97., 192., 232., 204., 132., 97., 120.,
          218., 233., 226., 223., 225., 223., 217., 216., 214., 211.,
          66., 65., 60., 101., 148., 186., 143., 145., 199., 168., 203.,
          224., 225., 227., 224., 223., 219., 214., 201., 203., 32., 97.,
          179., 180., 183., 176., 171., 152., 150., 151., 125., 103.,
          132., 176., 202., 229., 250., 255., 255., 242., 47., 182.,
          179., 171., 152., 102., 94., 100., 123., 98., 100., 100., 89.,
          109., 118., 197., 212., 235., 245., 252., 85., 112., 138.,
          176., 186., 191., 157., 155., 126., 86., 130., 99., 52., 92.,
          97., 99., 141., 187., 208., 239., 124., 111., 97., 76., 33.,
          33., 21., 22., 40., 109., 210., 59., 73., 97., 115., 115.,
          121., 132., 184., 200., 114., 90., 40., 45., 39., 23., 21.,
          85., 23., 120., 106., 35., 85., 129., 192., 192., 159., 159.,
          147., 176., 113., 88., 41., 41., 53., 29., 46., 120., 171.,
          101., 35., 89., 138., 190., 226., 235., 235., 205., 175., 161.,
          95., 63., 41., 40., 59., 30., 44., 81., 78., 64., 88., 123.,
          192., 215., 227., 241., 238., 230., 203., 180., 79., 61., 60.,
          67., 50., 50., 47., 74., 90., 117., 137., 166., 194., 217.,
          233., 240., 240., 236., 217., 208., 93., 101., 102., 128.,
          126., 112., 110., 112., 123., 143., 160., 176., 194., 217.,
          232., 238., 242., 234., 223., 210., 109., 140., 193., 217.,
          216., 182., 173., 174., 178., 182., 182., 191., 216., 226.,
          229., 240., 243., 234., 230., 220., 91., 118., 179., 238.,
          246., 242., 229., 225., 213., 202., 198., 197., 217., 224.,
          229., 233., 237., 233., 230., 223., 33., 126., 168., 228.,
          248., 240., 236., 230., 218., 205., 200., 200., 216., 223.,
          228., 232., 235., 235., 232., 224., 36., 76., 159., 196., 241.,
          240., 236., 236., 224., 212., 204., 202., 215., 225., 228.,
          231., 234., 234., 235., 225., 62., 76., 136., 181., 241., 240.,
          237., 237., 227., 215., 209., 208., 215., 222., 226., 231.,
          234., 235., 235., 227., 58., 67., 108., 182., 230., 241., 238.,
          234., 230., 220., 210., 209., 213., 220., 223., 229., 232.,
          233., 232., 225., 39., 66., 101., 182., 224., 237., 232., 228.,
          217., 216., 214., 216., 217., 217., 223., 226., 229., 228.,
          228., 225., 55., 75., 89., 149., 215., 229., 228., 213., 217.,
          202., 202., 221., 221., 219., 224., 226., 227., 223., 224.,
          222., 60., 64., 65., 123., 216., 232., 227., 229., 218., 209.,
          190., 232., 221., 223., 225., 224., 222., 223., 218., 217.,
          62., 62., 62., 97., 192., 232., 204., 132., 97., 120., 218.,
          233., 226., 223., 225., 223., 217., 216., 214., 211., 66., 65.,
          60., 101., 148., 186., 143., 145., 199., 168., 203., 224.,
          225., 227., 224., 223., 219., 214., 201., 203., 4., 4., 13.,
          11., 18., 22., 26., 25., 26., 26., 23., 20., 18., 15., 10., 9.,
          7., 27., 11., 5., 6., 7., 10., 13., 15., 18., 24., 24., 23.,
          23., 23., 19., 17., 11., 7., 8., 24., 9., 15., 0., 9., 9., 12.,
          14., 16., 16., 18., 20., 19., 22., 19., 15., 11., 12., 14.,
          27., 11., 29., 6., 9., 7., 9., 11., 12., 14., 14., 16., 18.,
          18., 19., 12., 11., 11., 8., 12., 8., 41., 11., 6., 24., 8.,
          9., 10., 13., 13., 13., 12., 12., 11., 10., 10., 11., 11., 7.,
          29., 45., 14., 2., 18., 11., 8., 8., 8., 9., 12., 12., 10.,
          11., 11., 13., 13., 7., 15., 45., 49., 25., 14., 26., 22., 47.,
          8., 8., 7., 7., 9., 9., 9., 9., 13., 6., 8., 37., 53., 50.,
          26., 34., 41., 42., 95., 142., 8., 8., 7., 7., 7., 7., 11.,
          10., 8., 18., 57., 57., 56., 54., 53., 60., 60., 56., 59., 60.,
          7., 7., 8., 8., 9., 11., 10., 21., 29., 36., 51., 68., 72.,
          68., 67., 73., 86., 102., 84., 71., 7., 8., 11., 10., 21., 26.,
          27., 14., 18., 42., 57., 84., 87., 79., 73., 82., 103., 109.,
          120., 119., 24., 33., 36., 62., 25., 18., 32., 58., 67., 84.,
          80., 94., 107., 87., 89., 89., 108., 110., 119., 122., 114.,
          73., 36., 69., 79., 79., 86., 86., 87., 100., 82., 103., 112.,
          108., 106., 106., 110., 117., 126., 134., 14., 37., 31., 64.,
          78., 80., 86., 87., 94., 93., 88., 117., 118., 130., 126.,
          125., 126., 143., 149., 165., 14., 36., 34., 59., 93., 89.,
          89., 90., 95., 99., 93., 170., 165., 158., 154., 152., 162.,
          174., 178., 178., 60., 26., 43., 51., 205., 108., 105., 104.,
          111., 109., 108., 238., 161., 159., 163., 155., 165., 188.,
          187., 193., 139., 25., 41., 59., 193., 198., 132., 134., 145.,
          152., 150., 248., 194., 170., 149., 145., 116., 187., 195.,
          192., 79., 110., 39., 49., 118., 247., 172., 171., 187., 190.,
          184., 248., 157., 157., 112., 65., 87., 188., 192., 184., 21.,
          113., 55., 47., 29., 229., 232., 188., 203., 203., 192., 203.,
          118., 98., 66., 123., 157., 195., 183., 183., 21., 58., 79.,
          40., 22., 171., 255., 222., 203., 203., 210., 214., 206., 165.,
          195., 208., 182., 180., 180., 182., 28., 25., 56., 21., 50.,
          29., 220., 241., 200., 199., 207., 207., 195., 153., 103., 79.,
          67., 65., 84., 120. ]
   responses: !!opencv-matrix
      rows: 26
      cols: 1
      dt: f
      data: [ 11., 15., 17., 17., 17., 17., 18., 21., 21., 21., 21., 21.,
          21., 21., 21., 22., 22., 22., 22., 22., 22., 22., 22., 22.,
          22., 51. ]
