%YAML:1.0
---
opencv_ml_knn:
   format: 3
   is_classifier: 1
   default_k: 10
   samples: !!opencv-matrix
      rows: 100
      cols: 63
      dt: f
      data: [ 23., 23., 83., 235., 127., 23., 23., 27., 70., 229., 239.,
          116., 16., 29., 29., 167., 162., 239., 115., 16., 32., 33.,
          41., 47., 239., 115., 17., 32., 36., 36., 65., 239., 115., 17.,
          32., 36., 39., 68., 239., 115., 18., 34., 40., 40., 70., 239.,
          115., 19., 37., 41., 42., 78., 239., 123., 20., 37., 43., 43.,
          136., 239., 188., 23., 38., 23., 47., 181., 225., 175., 44.,
          25., 31., 202., 179., 89., 228., 183., 25., 82., 239., 60., 8.,
          145., 239., 45., 125., 239., 25., 24., 104., 239., 77., 146.,
          239., 25., 26., 86., 239., 94., 136., 239., 41., 26., 87.,
          239., 71., 107., 239., 90., 24., 114., 237., 28., 44., 222.,
          202., 81., 201., 172., 0., 37., 75., 190., 224., 169., 19., 9.,
          25., 182., 239., 239., 239., 208., 24., 27., 203., 157., 67.,
          67., 50., 4., 27., 224., 104., 10., 20., 20., 22., 28., 239.,
          233., 208., 151., 49., 29., 24., 84., 79., 143., 238., 193.,
          28., 17., 28., 21., 19., 155., 239., 38., 33., 143., 28., 29.,
          140., 239., 33., 153., 239., 133., 100., 216., 202., 1., 48.,
          160., 222., 226., 174., 37., 6., 26., 52., 183., 225., 178.,
          52., 36., 29., 203., 180., 90., 228., 184., 35., 80., 239.,
          60., 10., 148., 239., 48., 124., 239., 25., 29., 110., 239.,
          77., 144., 239., 25., 35., 96., 239., 94., 134., 239., 41.,
          36., 100., 239., 71., 103., 239., 90., 35., 125., 237., 28.,
          39., 222., 202., 88., 205., 175., 1., 37., 78., 190., 224.,
          173., 23., 17., 36., 61., 185., 225., 178., 51., 34., 41.,
          204., 181., 90., 228., 184., 32., 88., 239., 62., 10., 147.,
          239., 47., 126., 239., 25., 29., 109., 239., 77., 144., 239.,
          25., 36., 96., 239., 94., 132., 239., 41., 37., 98., 239., 71.,
          107., 239., 90., 38., 122., 237., 28., 54., 223., 202., 90.,
          205., 176., 0., 55., 90., 191., 224., 174., 23., 16., 114.,
          239., 239., 239., 239., 239., 140., 115., 102., 59., 59., 153.,
          237., 30., 31., 17., 19., 27., 212., 167., 0., 33., 33., 34.,
          97., 239., 63., 10., 36., 36., 36., 182., 210., 1., 24., 36.,
          39., 62., 238., 124., 5., 34., 40., 40., 141., 239., 47., 19.,
          37., 41., 43., 214., 238., 10., 30., 37., 43., 88., 239., 210.,
          0., 37., 38., 23., 23., 83., 235., 128., 25., 25., 14., 70.,
          229., 239., 116., 14., 27., 28., 168., 162., 239., 115., 14.,
          27., 33., 40., 46., 239., 115., 14., 27., 34., 32., 62., 239.,
          115., 14., 27., 34., 32., 63., 239., 115., 14., 27., 36., 33.,
          63., 239., 115., 14., 29., 36., 33., 72., 239., 123., 16., 30.,
          37., 35., 131., 239., 188., 19., 31., 25., 50., 181., 225.,
          176., 44., 26., 27., 202., 180., 89., 228., 183., 26., 78.,
          239., 60., 8., 145., 239., 45., 122., 239., 25., 21., 102.,
          239., 77., 143., 239., 25., 25., 88., 239., 94., 133., 239.,
          41., 25., 89., 239., 71., 103., 239., 90., 24., 114., 237.,
          28., 38., 222., 202., 81., 202., 173., 0., 32., 72., 190.,
          224., 170., 20., 11., 26., 52., 183., 225., 178., 52., 36.,
          29., 203., 180., 90., 228., 184., 35., 80., 239., 60., 10.,
          148., 239., 48., 121., 239., 25., 29., 110., 239., 77., 140.,
          239., 25., 35., 96., 239., 94., 128., 239., 41., 36., 100.,
          239., 71., 100., 239., 90., 35., 125., 237., 28., 40., 222.,
          202., 88., 205., 175., 1., 37., 78., 190., 224., 173., 23.,
          17., 114., 239., 239., 239., 239., 239., 140., 115., 102., 59.,
          59., 153., 237., 30., 31., 17., 19., 27., 212., 167., 0., 33.,
          33., 34., 97., 239., 63., 10., 36., 36., 36., 182., 210., 1.,
          24., 36., 39., 62., 238., 124., 5., 34., 40., 40., 141., 239.,
          47., 19., 37., 41., 43., 214., 238., 10., 30., 37., 43., 88.,
          239., 210., 0., 37., 38., 23., 23., 83., 235., 128., 25., 25.,
          14., 70., 229., 239., 116., 14., 27., 28., 168., 162., 239.,
          115., 14., 27., 33., 40., 46., 239., 115., 14., 27., 34., 32.,
          62., 239., 115., 14., 27., 34., 32., 63., 239., 115., 14., 27.,
          36., 33., 63., 239., 115., 14., 29., 36., 33., 72., 239., 123.,
          16., 30., 37., 35., 131., 239., 188., 19., 31., 54., 239.,
          239., 239., 239., 225., 49., 74., 120., 71., 105., 239., 76.,
          2., 27., 22., 17., 187., 147., 0., 19., 27., 28., 121., 230.,
          43., 12., 29., 28., 36., 198., 239., 238., 127., 31., 28., 28.,
          27., 28., 192., 237., 40., 34., 114., 28., 29., 133., 239.,
          44., 136., 239., 133., 96., 211., 212., 5., 38., 149., 206.,
          226., 178., 43., 4., 26., 183., 239., 239., 239., 209., 33.,
          26., 204., 158., 67., 67., 50., 6., 29., 224., 104., 13., 27.,
          29., 32., 36., 239., 233., 209., 156., 62., 43., 36., 88., 79.,
          143., 238., 194., 42., 32., 33., 26., 27., 157., 239., 40.,
          42., 146., 37., 42., 148., 239., 33., 155., 239., 135., 108.,
          218., 204., 1., 52., 161., 222., 226., 178., 39., 9., 114.,
          239., 239., 239., 239., 239., 140., 115., 102., 59., 59., 153.,
          237., 30., 31., 17., 19., 27., 212., 167., 0., 33., 33., 34.,
          97., 239., 63., 10., 36., 36., 36., 182., 210., 1., 24., 36.,
          39., 62., 238., 124., 5., 34., 40., 40., 141., 239., 47., 19.,
          37., 41., 43., 214., 238., 10., 30., 37., 43., 88., 239., 210.,
          0., 37., 38., 23., 23., 83., 235., 128., 25., 25., 14., 70.,
          229., 239., 116., 14., 27., 28., 168., 162., 239., 115., 14.,
          27., 33., 40., 46., 239., 115., 14., 27., 34., 32., 62., 239.,
          115., 14., 27., 34., 32., 63., 239., 115., 14., 27., 36., 33.,
          63., 239., 115., 14., 29., 36., 33., 72., 239., 123., 16., 30.,
          37., 35., 131., 239., 188., 19., 31., 115., 239., 239., 239.,
          239., 239., 142., 115., 101., 59., 59., 153., 237., 30., 29.,
          16., 18., 23., 212., 166., 0., 27., 28., 28., 93., 239., 62.,
          9., 28., 28., 28., 180., 209., 1., 23., 28., 28., 55., 238.,
          123., 4., 31., 29., 28., 135., 239., 47., 16., 32., 30., 31.,
          213., 238., 10., 27., 34., 32., 80., 239., 210., 0., 33., 36.,
          26., 183., 239., 239., 239., 209., 33., 13., 204., 158., 67.,
          67., 50., 6., 25., 224., 104., 13., 27., 29., 32., 36., 239.,
          233., 209., 156., 62., 43., 36., 88., 79., 143., 238., 194.,
          42., 32., 33., 26., 27., 157., 239., 40., 45., 146., 37., 42.,
          148., 239., 33., 158., 239., 135., 108., 218., 204., 1., 53.,
          161., 222., 226., 178., 39., 9., 114., 239., 239., 239., 239.,
          239., 140., 115., 102., 59., 59., 153., 237., 30., 31., 17.,
          19., 27., 212., 167., 0., 33., 33., 34., 97., 239., 63., 10.,
          36., 36., 36., 182., 210., 1., 24., 36., 39., 62., 238., 124.,
          5., 34., 40., 40., 141., 239., 47., 19., 37., 41., 43., 214.,
          238., 10., 30., 37., 43., 88., 239., 210., 0., 37., 38., 23.,
          23., 83., 235., 128., 25., 25., 14., 70., 229., 239., 116.,
          14., 27., 28., 168., 162., 239., 115., 14., 27., 33., 40., 46.,
          239., 115., 14., 27., 34., 32., 62., 239., 115., 14., 27., 34.,
          32., 63., 239., 115., 14., 27., 36., 33., 63., 239., 115., 14.,
          29., 36., 33., 72., 239., 123., 16., 30., 37., 35., 131., 239.,
          188., 19., 31., 25., 82., 197., 231., 200., 85., 26., 45.,
          231., 159., 63., 197., 227., 24., 73., 239., 83., 10., 127.,
          232., 11., 31., 208., 199., 108., 204., 126., 1., 28., 70.,
          234., 239., 227., 97., 16., 68., 231., 118., 31., 163., 239.,
          58., 138., 239., 31., 16., 81., 239., 96., 114., 239., 164.,
          84., 169., 235., 42., 34., 134., 214., 232., 197., 80., 1.,
          26., 106., 203., 231., 199., 85., 36., 85., 239., 124., 87.,
          226., 224., 35., 138., 238., 29., 20., 161., 239., 41., 89.,
          238., 77., 33., 176., 229., 9., 32., 59., 0., 59., 235., 131.,
          2., 32., 34., 35., 197., 198., 6., 22., 27., 36., 158., 226.,
          39., 10., 48., 22., 129., 239., 143., 69., 115., 116., 100.,
          238., 239., 239., 239., 239., 110., 114., 239., 239., 239.,
          239., 239., 140., 115., 102., 59., 59., 153., 237., 30., 31.,
          17., 19., 27., 212., 167., 0., 33., 33., 34., 97., 239., 63.,
          10., 36., 36., 36., 182., 210., 1., 24., 36., 39., 62., 238.,
          124., 5., 34., 40., 40., 141., 239., 47., 19., 37., 41., 43.,
          214., 238., 10., 30., 37., 43., 88., 239., 210., 0., 37., 38.,
          23., 23., 83., 235., 128., 25., 25., 14., 70., 229., 239.,
          116., 14., 27., 28., 168., 162., 239., 115., 14., 27., 33.,
          40., 46., 239., 115., 14., 27., 34., 32., 62., 239., 115., 14.,
          27., 34., 32., 63., 239., 115., 14., 27., 36., 33., 63., 239.,
          115., 14., 29., 36., 33., 72., 239., 123., 16., 30., 37., 35.,
          131., 239., 188., 19., 31., 25., 82., 197., 231., 200., 85.,
          26., 45., 231., 159., 63., 197., 227., 24., 73., 239., 83.,
          10., 127., 232., 11., 31., 208., 199., 108., 204., 126., 1.,
          28., 70., 234., 239., 227., 97., 16., 68., 231., 118., 31.,
          163., 239., 58., 138., 239., 31., 16., 81., 239., 96., 114.,
          239., 164., 84., 169., 235., 42., 34., 134., 214., 232., 197.,
          80., 1., 116., 239., 239., 239., 239., 239., 147., 117., 102.,
          59., 59., 153., 237., 30., 30., 18., 20., 30., 213., 168., 0.,
          30., 31., 34., 100., 239., 64., 13., 32., 34., 35., 183., 211.,
          1., 33., 32., 34., 60., 238., 125., 6., 46., 27., 36., 140.,
          239., 47., 24., 49., 22., 38., 214., 238., 10., 41., 53., 31.,
          86., 239., 210., 0., 50., 55., 114., 239., 239., 239., 239.,
          239., 140., 115., 102., 59., 59., 153., 237., 30., 31., 17.,
          19., 27., 212., 167., 0., 33., 33., 34., 97., 239., 63., 10.,
          36., 36., 36., 182., 210., 1., 24., 36., 39., 62., 238., 124.,
          5., 34., 40., 40., 141., 239., 47., 19., 37., 41., 43., 214.,
          238., 10., 30., 37., 43., 88., 239., 210., 0., 37., 38., 23.,
          23., 83., 235., 128., 25., 25., 14., 70., 229., 239., 116.,
          14., 27., 28., 168., 162., 239., 115., 14., 27., 33., 40., 46.,
          239., 115., 14., 27., 34., 32., 62., 239., 115., 14., 27., 34.,
          32., 63., 239., 115., 14., 27., 36., 33., 63., 239., 115., 14.,
          29., 36., 33., 72., 239., 123., 16., 30., 37., 35., 131., 239.,
          188., 19., 31., 25., 84., 197., 228., 190., 68., 26., 57.,
          235., 152., 73., 210., 216., 31., 130., 236., 14., 11., 119.,
          239., 66., 142., 239., 31., 26., 103., 239., 84., 91., 239.,
          157., 86., 199., 239., 57., 28., 132., 219., 208., 186., 228.,
          11., 29., 28., 14., 37., 227., 140., 2., 30., 30., 78., 214.,
          210., 14., 14., 35., 133., 224., 192., 31., 5., 34., 26., 183.,
          239., 239., 239., 209., 33., 29., 204., 158., 67., 67., 50.,
          6., 28., 224., 104., 13., 27., 29., 32., 28., 239., 233., 209.,
          156., 62., 43., 25., 88., 79., 143., 238., 194., 42., 24., 33.,
          26., 27., 157., 239., 40., 44., 146., 37., 42., 148., 239.,
          33., 158., 239., 135., 108., 218., 204., 1., 53., 161., 222.,
          226., 178., 39., 9., 114., 239., 239., 239., 239., 239., 140.,
          115., 102., 59., 59., 153., 237., 30., 31., 17., 19., 27.,
          212., 167., 0., 33., 33., 34., 97., 239., 63., 10., 36., 36.,
          36., 182., 210., 1., 24., 36., 39., 62., 238., 124., 5., 34.,
          40., 40., 141., 239., 47., 19., 37., 41., 43., 214., 238., 10.,
          30., 37., 43., 88., 239., 210., 0., 37., 38., 23., 103., 201.,
          230., 197., 77., 25., 74., 239., 122., 86., 225., 224., 27.,
          138., 238., 29., 15., 158., 239., 41., 91., 238., 77., 27.,
          173., 229., 9., 34., 58., 0., 54., 235., 129., 1., 34., 32.,
          32., 195., 194., 6., 13., 36., 33., 156., 226., 36., 6., 28.,
          36., 127., 239., 141., 68., 103., 101., 104., 238., 239., 239.,
          239., 239., 101., 25., 50., 181., 225., 176., 44., 26., 27.,
          202., 180., 89., 228., 183., 26., 77., 239., 60., 8., 145.,
          239., 45., 119., 239., 25., 21., 102., 239., 77., 143., 239.,
          25., 25., 88., 239., 94., 133., 239., 41., 25., 89., 239., 71.,
          103., 239., 90., 24., 114., 237., 28., 38., 222., 202., 81.,
          202., 173., 0., 21., 72., 190., 224., 170., 20., 11., 55.,
          239., 239., 239., 239., 225., 58., 75., 122., 71., 105., 239.,
          76., 2., 29., 24., 20., 189., 149., 0., 28., 26., 31., 124.,
          230., 45., 18., 43., 21., 42., 199., 239., 238., 133., 45.,
          20., 34., 34., 29., 192., 237., 47., 29., 119., 37., 42., 141.,
          239., 44., 137., 239., 136., 104., 213., 213., 5., 43., 151.,
          206., 226., 181., 45., 7., 114., 239., 239., 239., 239., 239.,
          140., 115., 102., 59., 59., 153., 237., 30., 31., 17., 19.,
          27., 212., 167., 0., 33., 33., 34., 97., 239., 63., 10., 36.,
          36., 36., 182., 210., 1., 24., 36., 39., 62., 238., 124., 5.,
          34., 40., 40., 141., 239., 47., 19., 37., 41., 43., 214., 238.,
          10., 30., 37., 43., 88., 239., 210., 0., 37., 38., 23., 103.,
          201., 230., 197., 77., 25., 74., 239., 122., 86., 225., 224.,
          27., 138., 238., 29., 15., 158., 239., 41., 91., 238., 77.,
          27., 173., 229., 9., 34., 58., 0., 54., 235., 129., 1., 34.,
          32., 32., 195., 194., 6., 13., 36., 33., 156., 226., 36., 6.,
          28., 36., 127., 239., 141., 68., 103., 101., 104., 238., 239.,
          239., 239., 239., 101., 25., 50., 181., 225., 176., 44., 26.,
          27., 202., 180., 89., 228., 183., 26., 77., 239., 60., 8.,
          145., 239., 45., 119., 239., 25., 21., 102., 239., 77., 143.,
          239., 25., 25., 88., 239., 94., 133., 239., 41., 25., 89.,
          239., 71., 103., 239., 90., 24., 114., 237., 28., 38., 222.,
          202., 81., 202., 173., 0., 21., 72., 190., 224., 170., 20.,
          11., 26., 84., 199., 231., 202., 90., 36., 47., 231., 160.,
          64., 197., 227., 32., 75., 239., 83., 14., 130., 232., 12.,
          30., 208., 199., 112., 206., 131., 1., 21., 75., 234., 239.,
          228., 97., 23., 61., 231., 122., 31., 163., 239., 66., 136.,
          239., 32., 24., 92., 239., 96., 115., 239., 164., 92., 175.,
          235., 42., 39., 137., 214., 232., 199., 84., 1., 114., 239.,
          239., 239., 239., 239., 140., 115., 102., 59., 59., 153., 237.,
          30., 31., 17., 19., 27., 212., 167., 0., 33., 33., 34., 97.,
          239., 63., 10., 36., 36., 36., 182., 210., 1., 24., 36., 39.,
          62., 238., 124., 5., 34., 40., 40., 141., 239., 47., 19., 37.,
          41., 43., 214., 238., 10., 30., 37., 43., 88., 239., 210., 0.,
          37., 38., 23., 103., 201., 230., 197., 77., 25., 74., 239.,
          122., 86., 225., 224., 27., 138., 238., 29., 15., 158., 239.,
          41., 91., 238., 77., 27., 173., 229., 9., 34., 58., 0., 54.,
          235., 129., 1., 34., 32., 32., 195., 194., 6., 13., 36., 33.,
          156., 226., 36., 6., 28., 36., 127., 239., 141., 68., 103.,
          101., 104., 238., 239., 239., 239., 239., 101., 25., 25., 84.,
          235., 129., 26., 26., 27., 70., 229., 239., 116., 15., 29.,
          26., 167., 162., 239., 115., 15., 28., 22., 36., 45., 239.,
          115., 15., 29., 28., 28., 60., 239., 115., 14., 31., 28., 28.,
          60., 239., 115., 14., 31., 29., 28., 60., 239., 115., 16., 32.,
          30., 30., 69., 239., 123., 17., 34., 21., 32., 131., 239.,
          188., 21., 36., 55., 239., 239., 239., 239., 225., 58., 75.,
          122., 71., 105., 239., 76., 2., 29., 24., 20., 189., 149., 0.,
          28., 31., 31., 124., 230., 45., 18., 43., 32., 42., 199., 239.,
          238., 133., 45., 32., 34., 34., 29., 192., 237., 47., 39.,
          119., 37., 42., 141., 239., 44., 139., 239., 136., 104., 213.,
          213., 5., 43., 151., 206., 226., 181., 45., 7., 114., 239.,
          239., 239., 239., 239., 140., 115., 102., 59., 59., 153., 237.,
          30., 31., 17., 19., 27., 212., 167., 0., 33., 33., 34., 97.,
          239., 63., 10., 36., 36., 36., 182., 210., 1., 24., 36., 39.,
          62., 238., 124., 5., 34., 40., 40., 141., 239., 47., 19., 37.,
          41., 43., 214., 238., 10., 30., 37., 43., 88., 239., 210., 0.,
          37., 38., 23., 103., 201., 230., 197., 77., 25., 74., 239.,
          122., 86., 225., 224., 27., 138., 238., 29., 15., 158., 239.,
          41., 91., 238., 77., 27., 173., 229., 9., 34., 58., 0., 54.,
          235., 129., 1., 34., 32., 32., 195., 194., 6., 13., 36., 33.,
          156., 226., 36., 6., 28., 36., 127., 239., 141., 68., 103.,
          101., 104., 238., 239., 239., 239., 239., 101., 25., 25., 84.,
          235., 129., 26., 26., 27., 70., 229., 239., 116., 15., 29.,
          26., 167., 162., 239., 115., 15., 28., 22., 36., 45., 239.,
          115., 15., 29., 28., 28., 60., 239., 115., 14., 31., 28., 28.,
          60., 239., 115., 14., 31., 29., 28., 60., 239., 115., 16., 32.,
          30., 30., 69., 239., 123., 17., 34., 21., 32., 131., 239.,
          188., 21., 36., 26., 84., 199., 231., 202., 90., 36., 47.,
          231., 160., 64., 197., 227., 32., 75., 239., 83., 14., 130.,
          232., 12., 35., 208., 199., 112., 206., 131., 1., 32., 75.,
          234., 239., 228., 97., 23., 71., 231., 122., 31., 163., 239.,
          66., 140., 239., 32., 24., 92., 239., 96., 117., 239., 164.,
          92., 175., 235., 42., 39., 137., 214., 232., 199., 84., 1.,
          114., 239., 239., 239., 239., 239., 140., 115., 102., 59., 59.,
          153., 237., 30., 31., 17., 19., 27., 212., 167., 0., 33., 33.,
          34., 97., 239., 63., 10., 36., 36., 36., 182., 210., 1., 24.,
          36., 39., 62., 238., 124., 5., 34., 40., 40., 141., 239., 47.,
          19., 37., 41., 43., 214., 238., 10., 30., 37., 43., 88., 239.,
          210., 0., 37., 38., 23., 103., 201., 230., 197., 77., 25., 74.,
          239., 122., 86., 225., 224., 27., 138., 238., 29., 15., 158.,
          239., 41., 91., 238., 77., 27., 173., 229., 9., 34., 58., 0.,
          54., 235., 129., 1., 34., 32., 32., 195., 194., 6., 13., 36.,
          33., 156., 226., 36., 6., 28., 36., 127., 239., 141., 68.,
          103., 101., 104., 238., 239., 239., 239., 239., 101., 25.,
          104., 202., 230., 198., 79., 26., 84., 239., 123., 86., 225.,
          224., 27., 137., 238., 29., 14., 158., 239., 41., 83., 238.,
          77., 24., 173., 229., 9., 28., 56., 0., 54., 235., 128., 2.,
          28., 28., 29., 195., 195., 6., 15., 29., 28., 154., 226., 36.,
          6., 31., 30., 125., 239., 141., 68., 106., 103., 93., 238.,
          239., 239., 239., 239., 102., 55., 239., 239., 239., 239.,
          225., 58., 75., 122., 71., 105., 239., 76., 2., 28., 24., 20.,
          189., 149., 0., 28., 26., 31., 124., 230., 45., 18., 43., 31.,
          42., 199., 239., 238., 133., 45., 32., 34., 34., 29., 192.,
          237., 47., 39., 119., 37., 42., 141., 239., 44., 139., 239.,
          136., 104., 213., 213., 5., 32., 151., 206., 226., 181., 45.,
          7., 114., 239., 239., 239., 239., 239., 140., 115., 102., 59.,
          59., 153., 237., 30., 31., 17., 19., 27., 212., 167., 0., 33.,
          33., 34., 97., 239., 63., 10., 36., 36., 36., 182., 210., 1.,
          24., 36., 39., 62., 238., 124., 5., 34., 40., 40., 141., 239.,
          47., 19., 37., 41., 43., 214., 238., 10., 30., 37., 43., 88.,
          239., 210., 0., 37., 38., 23., 103., 201., 230., 197., 77.,
          25., 74., 239., 122., 86., 225., 224., 27., 138., 238., 29.,
          15., 158., 239., 41., 91., 238., 77., 27., 173., 229., 9., 34.,
          58., 0., 54., 235., 129., 1., 34., 32., 32., 195., 194., 6.,
          13., 36., 33., 156., 226., 36., 6., 28., 36., 127., 239., 141.,
          68., 103., 101., 104., 238., 239., 239., 239., 239., 101., 25.,
          104., 202., 230., 198., 79., 26., 84., 239., 123., 86., 225.,
          224., 27., 137., 238., 29., 14., 158., 239., 41., 83., 238.,
          77., 24., 173., 229., 9., 28., 56., 0., 54., 235., 128., 2.,
          28., 28., 29., 195., 195., 6., 15., 29., 28., 154., 226., 36.,
          6., 31., 30., 125., 239., 141., 68., 106., 103., 93., 238.,
          239., 239., 239., 239., 102., 26., 84., 199., 231., 202., 90.,
          36., 47., 231., 160., 64., 197., 227., 32., 75., 239., 83.,
          14., 130., 232., 12., 30., 208., 199., 112., 206., 131., 1.,
          31., 75., 234., 239., 228., 97., 23., 71., 231., 122., 31.,
          163., 239., 66., 140., 239., 32., 24., 92., 239., 96., 117.,
          239., 164., 92., 175., 235., 42., 26., 137., 214., 232., 199.,
          84., 1., 114., 239., 239., 239., 239., 239., 140., 115., 102.,
          59., 59., 153., 237., 30., 31., 17., 19., 27., 212., 167., 0.,
          33., 33., 34., 97., 239., 63., 10., 36., 36., 36., 182., 210.,
          1., 24., 36., 39., 62., 238., 124., 5., 34., 40., 40., 141.,
          239., 47., 19., 37., 41., 43., 214., 238., 10., 30., 37., 43.,
          88., 239., 210., 0., 37., 38., 23., 103., 201., 230., 197.,
          77., 25., 74., 239., 122., 86., 225., 224., 27., 138., 238.,
          29., 15., 158., 239., 41., 91., 238., 77., 27., 173., 229., 9.,
          34., 58., 0., 54., 235., 129., 1., 34., 32., 32., 195., 194.,
          6., 13., 36., 33., 156., 226., 36., 6., 28., 36., 127., 239.,
          141., 68., 103., 101., 104., 238., 239., 239., 239., 239.,
          101., 54., 239., 239., 239., 239., 225., 49., 74., 120., 71.,
          105., 239., 76., 2., 26., 22., 17., 187., 147., 0., 19., 22.,
          28., 121., 230., 43., 12., 29., 28., 36., 198., 239., 238.,
          127., 31., 28., 28., 27., 28., 192., 237., 40., 34., 114., 28.,
          29., 133., 239., 44., 136., 239., 133., 96., 211., 212., 5.,
          28., 149., 206., 226., 178., 43., 4., 55., 239., 239., 239.,
          239., 225., 58., 73., 122., 71., 105., 239., 76., 2., 29., 24.,
          20., 189., 149., 0., 28., 31., 31., 124., 230., 45., 18., 43.,
          32., 42., 199., 239., 238., 133., 45., 32., 34., 34., 29.,
          192., 237., 47., 35., 119., 37., 42., 141., 239., 44., 137.,
          239., 136., 104., 213., 213., 5., 42., 151., 206., 226., 181.,
          45., 7., 114., 239., 239., 239., 239., 239., 140., 115., 102.,
          59., 59., 153., 237., 30., 31., 17., 19., 27., 212., 167., 0.,
          33., 33., 34., 97., 239., 63., 10., 36., 36., 36., 182., 210.,
          1., 24., 36., 39., 62., 238., 124., 5., 34., 40., 40., 141.,
          239., 47., 19., 37., 41., 43., 214., 238., 10., 30., 37., 43.,
          88., 239., 210., 0., 37., 38., 23., 103., 201., 230., 197.,
          77., 25., 74., 239., 122., 86., 225., 224., 27., 138., 238.,
          29., 15., 158., 239., 41., 91., 238., 77., 27., 173., 229., 9.,
          34., 58., 0., 54., 235., 129., 1., 34., 32., 32., 195., 194.,
          6., 13., 36., 33., 156., 226., 36., 6., 28., 36., 127., 239.,
          141., 68., 103., 101., 104., 238., 239., 239., 239., 239.,
          101., 54., 239., 239., 239., 239., 225., 49., 74., 120., 71.,
          105., 239., 76., 2., 26., 22., 17., 187., 147., 0., 19., 22.,
          28., 121., 230., 43., 12., 29., 28., 36., 198., 239., 238.,
          127., 31., 28., 28., 27., 28., 192., 237., 40., 34., 114., 28.,
          29., 133., 239., 44., 136., 239., 133., 96., 211., 212., 5.,
          28., 149., 206., 226., 178., 43., 4., 26., 84., 199., 231.,
          202., 90., 36., 45., 231., 160., 64., 197., 227., 32., 75.,
          239., 83., 14., 130., 232., 12., 35., 208., 199., 112., 206.,
          131., 1., 32., 75., 234., 239., 228., 97., 23., 71., 231.,
          122., 31., 163., 239., 66., 139., 239., 32., 24., 92., 239.,
          96., 114., 239., 164., 92., 175., 235., 42., 38., 137., 214.,
          232., 199., 84., 1., 114., 239., 239., 239., 239., 239., 140.,
          115., 102., 59., 59., 153., 237., 30., 31., 17., 19., 27.,
          212., 167., 0., 33., 33., 34., 97., 239., 63., 10., 36., 36.,
          36., 182., 210., 1., 24., 36., 39., 62., 238., 124., 5., 34.,
          40., 40., 141., 239., 47., 19., 37., 41., 43., 214., 238., 10.,
          30., 37., 43., 88., 239., 210., 0., 37., 38., 23., 103., 201.,
          230., 197., 77., 25., 74., 239., 122., 86., 225., 224., 27.,
          138., 238., 29., 15., 158., 239., 41., 91., 238., 77., 27.,
          173., 229., 9., 34., 58., 0., 54., 235., 129., 1., 34., 32.,
          32., 195., 194., 6., 13., 36., 33., 156., 226., 36., 6., 28.,
          36., 127., 239., 141., 68., 103., 101., 104., 238., 239., 239.,
          239., 239., 101., 25., 25., 33., 220., 239., 102., 26., 27.,
          27., 119., 232., 239., 85., 19., 26., 32., 215., 147., 239.,
          85., 19., 22., 110., 217., 57., 239., 85., 19., 30., 209.,
          118., 51., 239., 85., 19., 102., 234., 60., 94., 239., 114.,
          36., 195., 239., 239., 239., 239., 239., 113., 30., 6., 0.,
          49., 239., 87., 0., 21., 32., 33., 111., 239., 125., 23., 26.,
          28., 37., 220., 239., 107., 36., 29., 30., 121., 232., 239.,
          85., 25., 29., 35., 216., 149., 239., 85., 26., 31., 112.,
          218., 57., 239., 85., 27., 34., 210., 120., 51., 239., 85.,
          28., 104., 234., 61., 98., 239., 114., 46., 196., 239., 239.,
          239., 239., 239., 119., 20., 8., 0., 49., 239., 87., 0., 37.,
          40., 44., 119., 239., 125., 35., 114., 239., 239., 239., 239.,
          239., 140., 115., 102., 59., 59., 153., 237., 30., 31., 17.,
          19., 27., 212., 167., 0., 33., 33., 34., 97., 239., 63., 10.,
          36., 36., 36., 182., 210., 1., 24., 36., 39., 62., 238., 124.,
          5., 34., 40., 40., 141., 239., 47., 19., 37., 41., 43., 214.,
          238., 10., 30., 37., 43., 88., 239., 210., 0., 37., 38., 23.,
          103., 201., 230., 197., 77., 25., 74., 239., 122., 86., 225.,
          224., 27., 138., 238., 29., 15., 158., 239., 41., 91., 238.,
          77., 27., 173., 229., 9., 34., 58., 0., 54., 235., 129., 1.,
          34., 32., 32., 195., 194., 6., 13., 36., 33., 156., 226., 36.,
          6., 28., 36., 127., 239., 141., 68., 103., 101., 104., 238.,
          239., 239., 239., 239., 101., 25., 182., 239., 239., 239.,
          208., 24., 27., 203., 157., 67., 67., 50., 4., 26., 224., 104.,
          10., 20., 20., 22., 28., 239., 233., 208., 151., 49., 29., 32.,
          84., 79., 143., 238., 193., 28., 28., 28., 21., 19., 155.,
          239., 38., 41., 143., 28., 29., 140., 239., 33., 155., 239.,
          133., 100., 216., 202., 1., 38., 160., 222., 226., 174., 37.,
          6., 26., 52., 183., 225., 178., 52., 36., 29., 203., 180., 90.,
          228., 184., 35., 80., 239., 60., 10., 148., 239., 48., 124.,
          239., 25., 29., 110., 239., 77., 144., 239., 25., 35., 96.,
          239., 94., 134., 239., 41., 36., 100., 239., 71., 103., 239.,
          90., 35., 125., 237., 28., 39., 222., 202., 88., 205., 175.,
          1., 37., 78., 190., 224., 173., 23., 17., 114., 239., 239.,
          239., 239., 239., 140., 115., 102., 59., 59., 153., 237., 30.,
          31., 17., 19., 27., 212., 167., 0., 33., 33., 34., 97., 239.,
          63., 10., 36., 36., 36., 182., 210., 1., 24., 36., 39., 62.,
          238., 124., 5., 34., 40., 40., 141., 239., 47., 19., 37., 41.,
          43., 214., 238., 10., 30., 37., 43., 88., 239., 210., 0., 37.,
          38., 23., 103., 201., 230., 197., 77., 25., 74., 239., 122.,
          86., 225., 224., 27., 138., 238., 29., 15., 158., 239., 41.,
          91., 238., 77., 27., 173., 229., 9., 34., 58., 0., 54., 235.,
          129., 1., 34., 32., 32., 195., 194., 6., 13., 36., 33., 156.,
          226., 36., 6., 28., 36., 127., 239., 141., 68., 103., 101.,
          104., 238., 239., 239., 239., 239., 101., 25., 182., 239.,
          239., 239., 208., 24., 27., 203., 157., 67., 67., 50., 4., 26.,
          224., 104., 10., 20., 20., 22., 28., 239., 233., 208., 151.,
          49., 29., 32., 84., 79., 143., 238., 193., 28., 28., 28., 21.,
          19., 155., 239., 38., 41., 143., 28., 29., 140., 239., 33.,
          155., 239., 133., 100., 216., 202., 1., 38., 160., 222., 226.,
          174., 37., 6., 26., 28., 65., 206., 218., 116., 36., 29., 52.,
          224., 200., 48., 4., 23., 29., 178., 215., 23., 7., 33., 41.,
          58., 238., 172., 213., 214., 121., 43., 111., 239., 181., 81.,
          184., 237., 60., 135., 239., 56., 10., 87., 239., 96., 116.,
          239., 74., 32., 78., 239., 82., 57., 234., 186., 80., 178.,
          225., 15., 37., 96., 198., 228., 193., 62., 4., 114., 239.,
          239., 239., 239., 239., 140., 115., 102., 59., 59., 153., 237.,
          30., 31., 17., 19., 27., 212., 167., 0., 33., 33., 34., 97.,
          239., 63., 10., 36., 36., 36., 182., 210., 1., 24., 36., 39.,
          62., 238., 124., 5., 34., 40., 40., 141., 239., 47., 19., 37.,
          41., 43., 214., 238., 10., 30., 37., 43., 88., 239., 210., 0.,
          37., 38., 23., 103., 201., 230., 197., 77., 25., 74., 239.,
          122., 86., 225., 224., 27., 138., 238., 29., 15., 158., 239.,
          41., 91., 238., 77., 27., 173., 229., 9., 34., 58., 0., 54.,
          235., 129., 1., 34., 32., 32., 195., 194., 6., 13., 36., 33.,
          156., 226., 36., 6., 28., 36., 127., 239., 141., 68., 103.,
          101., 104., 238., 239., 239., 239., 239., 101., 25., 25., 60.,
          204., 217., 111., 26., 27., 50., 223., 199., 47., 3., 17., 26.,
          177., 214., 22., 5., 23., 28., 50., 238., 172., 213., 213.,
          111., 29., 108., 239., 181., 79., 184., 237., 53., 134., 239.,
          56., 7., 79., 239., 96., 116., 239., 74., 22., 64., 239., 82.,
          56., 234., 186., 74., 173., 224., 15., 21., 91., 198., 228.,
          190., 57., 2., 26., 106., 203., 231., 199., 85., 36., 85.,
          239., 124., 87., 226., 224., 35., 138., 238., 29., 20., 161.,
          239., 41., 90., 238., 77., 33., 176., 229., 9., 32., 59., 0.,
          59., 235., 131., 2., 27., 34., 35., 197., 198., 6., 22., 20.,
          36., 158., 226., 39., 10., 48., 24., 129., 239., 143., 69.,
          115., 116., 102., 238., 239., 239., 239., 239., 110., 114.,
          239., 239., 239., 239., 239., 140., 115., 102., 59., 59., 153.,
          237., 30., 31., 17., 19., 27., 212., 167., 0., 33., 33., 34.,
          97., 239., 63., 10., 36., 36., 36., 182., 210., 1., 24., 36.,
          39., 62., 238., 124., 5., 34., 40., 40., 141., 239., 47., 19.,
          37., 41., 43., 214., 238., 10., 30., 37., 43., 88., 239., 210.,
          0., 37., 38., 23., 103., 201., 230., 197., 77., 25., 74., 239.,
          122., 86., 225., 224., 27., 138., 238., 29., 15., 158., 239.,
          41., 91., 238., 77., 27., 173., 229., 9., 34., 58., 0., 54.,
          235., 129., 1., 34., 32., 32., 195., 194., 6., 13., 36., 33.,
          156., 226., 36., 6., 28., 36., 127., 239., 141., 68., 103.,
          101., 104., 238., 239., 239., 239., 239., 101., 25., 25., 60.,
          204., 217., 111., 26., 27., 50., 223., 199., 47., 3., 17., 26.,
          177., 214., 22., 5., 23., 28., 50., 238., 172., 213., 213.,
          111., 29., 108., 239., 181., 79., 184., 237., 53., 134., 239.,
          56., 7., 79., 239., 96., 116., 239., 74., 22., 64., 239., 82.,
          56., 234., 186., 74., 173., 224., 15., 21., 91., 198., 228.,
          190., 57., 2., 26., 87., 199., 228., 192., 74., 36., 59., 235.,
          154., 73., 210., 216., 38., 131., 236., 14., 15., 123., 239.,
          67., 144., 239., 31., 35., 111., 239., 84., 93., 239., 157.,
          92., 201., 239., 57., 27., 134., 219., 208., 189., 228., 11.,
          20., 36., 18., 38., 227., 143., 2., 24., 37., 86., 215., 211.,
          14., 23., 38., 138., 225., 194., 32., 7., 52., 114., 239.,
          239., 239., 239., 239., 140., 115., 102., 59., 59., 153., 237.,
          30., 31., 17., 19., 27., 212., 167., 0., 33., 33., 34., 97.,
          239., 63., 10., 36., 36., 36., 182., 210., 1., 24., 36., 39.,
          62., 238., 124., 5., 34., 40., 40., 141., 239., 47., 19., 37.,
          41., 43., 214., 238., 10., 30., 37., 43., 88., 239., 210., 0.,
          37., 38., 23., 103., 201., 230., 197., 77., 25., 74., 239.,
          122., 86., 225., 224., 27., 138., 238., 29., 15., 158., 239.,
          41., 91., 238., 77., 27., 173., 229., 9., 34., 58., 0., 54.,
          235., 129., 1., 34., 32., 32., 195., 194., 6., 13., 36., 33.,
          156., 226., 36., 6., 28., 36., 127., 239., 141., 68., 103.,
          101., 104., 238., 239., 239., 239., 239., 101., 115., 239.,
          239., 239., 239., 239., 142., 115., 101., 59., 59., 153., 237.,
          30., 28., 16., 18., 23., 212., 166., 0., 22., 28., 28., 93.,
          239., 62., 9., 28., 28., 28., 180., 209., 1., 23., 28., 28.,
          55., 238., 123., 4., 31., 29., 28., 135., 239., 47., 16., 32.,
          30., 31., 213., 238., 10., 27., 34., 21., 80., 239., 210., 0.,
          33., 36., 26., 183., 239., 239., 239., 209., 33., 13., 204.,
          158., 67., 67., 50., 6., 25., 224., 104., 13., 27., 29., 32.,
          36., 239., 233., 209., 156., 62., 43., 36., 88., 79., 143.,
          238., 194., 42., 32., 33., 26., 27., 157., 239., 40., 45.,
          146., 37., 42., 148., 239., 33., 158., 239., 135., 108., 218.,
          204., 1., 53., 161., 222., 226., 178., 39., 9., 114., 239.,
          239., 239., 239., 239., 140., 115., 102., 59., 59., 153., 237.,
          30., 31., 17., 19., 27., 212., 167., 0., 33., 33., 34., 97.,
          239., 63., 10., 36., 36., 36., 182., 210., 1., 24., 36., 39.,
          62., 238., 124., 5., 34., 40., 40., 141., 239., 47., 19., 37.,
          41., 43., 214., 238., 10., 30., 37., 43., 88., 239., 210., 0.,
          37., 38., 23., 103., 201., 230., 197., 77., 25., 74., 239.,
          122., 86., 225., 224., 27., 138., 238., 29., 15., 158., 239.,
          41., 91., 238., 77., 27., 173., 229., 9., 34., 58., 0., 54.,
          235., 129., 1., 34., 32., 32., 195., 194., 6., 13., 36., 33.,
          156., 226., 36., 6., 28., 36., 127., 239., 141., 68., 103.,
          101., 104., 238., 239., 239., 239., 239., 101., 25., 82., 197.,
          231., 200., 85., 26., 45., 231., 159., 63., 197., 227., 24.,
          73., 239., 83., 10., 127., 232., 11., 27., 208., 199., 108.,
          204., 126., 1., 28., 70., 234., 239., 227., 97., 16., 68.,
          231., 118., 31., 163., 239., 58., 138., 239., 31., 16., 81.,
          239., 96., 114., 239., 164., 84., 169., 235., 42., 23., 134.,
          214., 232., 197., 80., 1., 26., 106., 203., 231., 199., 85.,
          36., 85., 239., 124., 87., 226., 224., 35., 138., 238., 29.,
          20., 161., 239., 41., 89., 238., 77., 33., 176., 229., 9., 32.,
          59., 0., 59., 235., 131., 2., 32., 34., 35., 197., 198., 6.,
          22., 27., 36., 158., 226., 39., 10., 48., 22., 129., 239.,
          143., 69., 115., 116., 100., 238., 239., 239., 239., 239.,
          110., 114., 239., 239., 239., 239., 239., 140., 115., 102.,
          59., 59., 153., 237., 30., 31., 17., 19., 27., 212., 167., 0.,
          33., 33., 34., 97., 239., 63., 10., 36., 36., 36., 182., 210.,
          1., 24., 36., 39., 62., 238., 124., 5., 34., 40., 40., 141.,
          239., 47., 19., 37., 41., 43., 214., 238., 10., 30., 37., 43.,
          88., 239., 210., 0., 37., 38., 23., 103., 201., 230., 197.,
          77., 25., 74., 239., 122., 86., 225., 224., 27., 138., 238.,
          29., 15., 158., 239., 41., 91., 238., 77., 27., 173., 229., 9.,
          34., 58., 0., 54., 235., 129., 1., 34., 32., 32., 195., 194.,
          6., 13., 36., 33., 156., 226., 36., 6., 28., 36., 127., 239.,
          141., 68., 103., 101., 104., 238., 239., 239., 239., 239.,
          101., 25., 82., 197., 231., 200., 85., 26., 45., 231., 159.,
          63., 197., 227., 24., 73., 239., 83., 10., 127., 232., 11.,
          27., 208., 199., 108., 204., 126., 1., 28., 70., 234., 239.,
          227., 97., 16., 68., 231., 118., 31., 163., 239., 58., 138.,
          239., 31., 16., 81., 239., 96., 114., 239., 164., 84., 169.,
          235., 42., 23., 134., 214., 232., 197., 80., 1., 116., 239.,
          239., 239., 239., 239., 147., 117., 102., 59., 59., 153., 237.,
          30., 30., 18., 20., 30., 213., 168., 0., 30., 31., 34., 100.,
          239., 64., 13., 32., 34., 35., 183., 211., 1., 33., 32., 34.,
          60., 238., 125., 6., 46., 27., 36., 140., 239., 47., 24., 49.,
          22., 38., 214., 238., 10., 41., 53., 31., 86., 239., 210., 0.,
          50., 55., 114., 239., 239., 239., 239., 239., 140., 115., 102.,
          59., 59., 153., 237., 30., 31., 17., 19., 27., 212., 167., 0.,
          33., 33., 34., 97., 239., 63., 10., 36., 36., 36., 182., 210.,
          1., 24., 36., 39., 62., 238., 124., 5., 34., 40., 40., 141.,
          239., 47., 19., 37., 41., 43., 214., 238., 10., 30., 37., 43.,
          88., 239., 210., 0., 37., 38., 23., 103., 201., 230., 197.,
          77., 25., 74., 239., 122., 86., 225., 224., 27., 138., 238.,
          29., 15., 158., 239., 41., 91., 238., 77., 27., 173., 229., 9.,
          34., 58., 0., 54., 235., 129., 1., 34., 32., 32., 195., 194.,
          6., 13., 36., 33., 156., 226., 36., 6., 28., 36., 127., 239.,
          141., 68., 103., 101., 104., 238., 239., 239., 239., 239.,
          101., 25., 84., 197., 228., 190., 68., 26., 57., 235., 152.,
          73., 210., 216., 31., 130., 236., 14., 11., 119., 239., 66.,
          140., 239., 31., 26., 103., 239., 84., 90., 239., 157., 86.,
          199., 239., 57., 28., 132., 219., 208., 186., 228., 11., 29.,
          28., 14., 37., 227., 140., 2., 30., 30., 78., 214., 210., 14.,
          14., 25., 133., 224., 192., 31., 5., 34., 55., 239., 239.,
          239., 239., 225., 58., 75., 122., 71., 105., 239., 76., 2.,
          28., 24., 20., 189., 149., 0., 28., 23., 31., 124., 230., 45.,
          18., 43., 21., 42., 199., 239., 238., 133., 45., 24., 34., 34.,
          29., 192., 237., 47., 37., 119., 37., 42., 141., 239., 44.,
          139., 239., 136., 104., 213., 213., 5., 43., 151., 206., 226.,
          181., 45., 7., 23., 182., 239., 239., 239., 207., 21., 27.,
          203., 157., 67., 67., 50., 4., 29., 224., 104., 11., 23., 23.,
          25., 38., 239., 233., 208., 153., 51., 32., 40., 89., 79.,
          143., 238., 193., 30., 36., 38., 27., 24., 156., 239., 38.,
          52., 148., 40., 38., 144., 239., 33., 159., 239., 135., 105.,
          216., 202., 1., 58., 161., 222., 226., 176., 37., 6., 23., 47.,
          181., 225., 175., 44., 25., 31., 202., 179., 89., 228., 183.,
          25., 82., 239., 60., 8., 145., 239., 45., 125., 239., 25., 24.,
          104., 239., 77., 146., 239., 25., 26., 86., 239., 94., 136.,
          239., 41., 26., 87., 239., 71., 104., 239., 90., 24., 114.,
          237., 28., 39., 222., 202., 81., 201., 172., 0., 37., 75.,
          190., 224., 169., 19., 9., 25., 50., 181., 225., 176., 44.,
          26., 27., 202., 180., 89., 228., 183., 26., 78., 239., 60., 8.,
          145., 239., 45., 119., 239., 25., 21., 102., 239., 77., 139.,
          239., 25., 25., 88., 239., 94., 127., 239., 41., 25., 89.,
          239., 71., 97., 239., 90., 24., 114., 237., 28., 35., 222.,
          202., 81., 202., 173., 0., 32., 72., 190., 224., 170., 20.,
          11. ]
   responses: !!opencv-matrix
      rows: 100
      cols: 1
      dt: f
      data: [ 1., 0., 5., 0., 0., 7., 1., 0., 0., 7., 1., 3., 5., 7., 1.,
          7., 5., 7., 1., 8., 2., 7., 1., 8., 7., 7., 1., 9., 5., 7., 2.,
          0., 3., 7., 2., 0., 8., 7., 2., 1., 3., 7., 2., 1., 8., 7., 2.,
          2., 3., 7., 2., 2., 8., 7., 2., 3., 3., 7., 2., 3., 8., 7., 2.,
          4., 4., 7., 2., 5., 0., 7., 2., 5., 6., 7., 2., 6., 2., 7., 2.,
          6., 9., 7., 2., 7., 5., 7., 2., 8., 2., 7., 2., 8., 7., 7., 2.,
          9., 3., 5., 0., 0. ]
