%YAML:1.0
---
opencv_ml_knn:
   format: 3
   is_classifier: 1
   default_k: 10
   samples: !!opencv-matrix
      rows: 26
      cols: 144
      dt: f
      data: [ 10., 10., 10., 10., 10., 10., 10., 10., 10., 10., 10., 10.,
          10., 10., 10., 10., 10., 10., 10., 10., 10., 10., 10., 10.,
          10., 10., 10., 10., 10., 10., 10., 10., 10., 10., 10., 10.,
          10., 10., 10., 10., 10., 10., 10., 10., 10., 10., 10., 10.,
          10., 10., 10., 10., 10., 10., 10., 10., 10., 10., 10., 10.,
          10., 10., 10., 10., 10., 10., 10., 10., 10., 10., 10., 10.,
          10., 10., 10., 10., 10., 10., 10., 10., 10., 10., 10., 10.,
          10., 10., 10., 10., 10., 10., 10., 10., 10., 10., 10., 10.,
          10., 10., 10., 10., 10., 10., 10., 10., 10., 10., 10., 10.,
          10., 10., 10., 10., 10., 10., 10., 10., 10., 10., 10., 10.,
          10., 10., 10., 10., 10., 10., 10., 10., 10., 10., 10., 10.,
          10., 10., 10., 10., 10., 10., 10., 10., 10., 10., 10., 10.,
          10., 10., 10., 10., 10., 10., 10., 10., 10., 10., 10., 10.,
          10., 10., 10., 10., 10., 10., 10., 10., 10., 10., 10., 10.,
          10., 10., 10., 10., 10., 10., 10., 10., 10., 10., 10., 10.,
          10., 10., 10., 10., 10., 10., 10., 10., 10., 10., 10., 10.,
          10., 10., 10., 10., 10., 10., 10., 10., 10., 10., 10., 10.,
          10., 10., 10., 10., 10., 10., 10., 10., 10., 10., 10., 10.,
          10., 10., 10., 10., 10., 10., 10., 10., 10., 10., 10., 10.,
          10., 10., 10., 10., 10., 10., 10., 10., 10., 10., 10., 10.,
          10., 10., 10., 10., 10., 10., 10., 10., 10., 10., 10., 10.,
          10., 10., 10., 10., 10., 10., 10., 10., 10., 10., 10., 10.,
          10., 10., 10., 10., 10., 10., 10., 10., 10., 10., 10., 10.,
          10., 10., 10., 10., 10., 10., 10., 10., 10., 10., 10., 10.,
          10., 10., 10., 10., 10., 10., 10., 10., 10., 10., 10., 10.,
          10., 10., 10., 10., 10., 10., 10., 10., 10., 10., 10., 10.,
          10., 10., 10., 10., 10., 10., 10., 10., 10., 10., 10., 10.,
          10., 10., 10., 10., 10., 10., 10., 10., 10., 10., 10., 10.,
          10., 10., 10., 10., 10., 10., 10., 10., 10., 10., 10., 10.,
          10., 10., 10., 10., 10., 10., 10., 10., 10., 10., 10., 10.,
          10., 10., 10., 10., 10., 10., 10., 10., 10., 10., 10., 10.,
          10., 10., 10., 10., 10., 10., 10., 10., 10., 10., 10., 10.,
          10., 10., 10., 10., 10., 10., 10., 10., 10., 10., 10., 10.,
          10., 10., 10., 10., 10., 10., 10., 10., 10., 10., 10., 10.,
          10., 10., 10., 10., 10., 10., 10., 10., 10., 10., 10., 10.,
          10., 10., 10., 10., 10., 10., 10., 10., 10., 10., 10., 10.,
          10., 10., 10., 10., 10., 10., 10., 10., 10., 10., 10., 10.,
          10., 10., 10., 10., 10., 10., 10., 10., 10., 10., 10., 10.,
          10., 10., 10., 10., 10., 10., 10., 10., 10., 10., 10., 10.,
          10., 10., 10., 10., 10., 10., 10., 10., 10., 10., 10., 10.,
          10., 10., 10., 10., 10., 10., 10., 10., 10., 10., 10., 10.,
          10., 10., 10., 10., 10., 10., 10., 10., 10., 10., 10., 10.,
          10., 10., 10., 10., 10., 10., 10., 10., 10., 10., 10., 10.,
          10., 10., 10., 10., 10., 10., 10., 10., 10., 10., 10., 10.,
          10., 10., 10., 10., 10., 10., 10., 10., 10., 10., 10., 10.,
          10., 10., 10., 10., 10., 10., 10., 10., 10., 10., 10., 10.,
          10., 10., 10., 10., 10., 10., 10., 10., 10., 10., 10., 10.,
          10., 10., 10., 10., 10., 10., 10., 10., 10., 10., 10., 10.,
          10., 10., 10., 10., 10., 10., 10., 10., 10., 10., 10., 10.,
          10., 10., 10., 10., 10., 10., 10., 10., 10., 10., 10., 10.,
          10., 10., 10., 10., 10., 10., 10., 10., 10., 10., 10., 10.,
          10., 10., 10., 10., 10., 10., 10., 10., 10., 10., 10., 10.,
          10., 10., 10., 10., 10., 10., 10., 10., 10., 10., 10., 10.,
          10., 10., 10., 10., 10., 10., 10., 10., 10., 10., 10., 10.,
          10., 10., 10., 10., 10., 10., 10., 10., 10., 10., 10., 10.,
          10., 10., 10., 10., 10., 10., 10., 10., 10., 10., 10., 10.,
          10., 10., 10., 10., 10., 10., 10., 10., 10., 10., 10., 10.,
          10., 10., 10., 10., 10., 10., 10., 10., 10., 10., 10., 10.,
          10., 10., 10., 10., 10., 10., 10., 10., 10., 10., 10., 10.,
          10., 10., 10., 10., 10., 10., 10., 10., 10., 10., 10., 10.,
          10., 10., 10., 10., 10., 10., 10., 10., 10., 10., 10., 10.,
          10., 10., 10., 10., 10., 10., 10., 10., 10., 10., 10., 10.,
          10., 10., 10., 10., 10., 10., 10., 10., 10., 10., 10., 10.,
          10., 10., 10., 10., 10., 10., 10., 10., 10., 10., 10., 10.,
          10., 10., 10., 10., 10., 10., 10., 10., 10., 10., 10., 10.,
          10., 10., 10., 10., 10., 10., 10., 10., 10., 10., 10., 10.,
          10., 10., 10., 10., 10., 10., 10., 10., 10., 10., 10., 10.,
          10., 10., 10., 10., 10., 10., 10., 10., 10., 10., 10., 10.,
          10., 10., 10., 10., 10., 10., 10., 10., 10., 10., 10., 10.,
          10., 10., 10., 10., 10., 10., 10., 10., 10., 10., 10., 10.,
          10., 10., 10., 10., 10., 10., 10., 10., 10., 10., 10., 10.,
          10., 10., 10., 10., 10., 10., 10., 10., 10., 10., 10., 10.,
          10., 10., 10., 10., 10., 10., 10., 10., 10., 10., 10., 10.,
          10., 10., 10., 10., 10., 10., 10., 10., 10., 10., 10., 10.,
          10., 10., 10., 10., 10., 10., 10., 10., 10., 10., 10., 10.,
          10., 10., 10., 10., 10., 10., 10., 10., 10., 10., 10., 10.,
          10., 10., 10., 10., 10., 10., 10., 10., 10., 10., 10., 10.,
          10., 10., 10., 10., 10., 10., 10., 10., 10., 10., 10., 10.,
          10., 10., 10., 10., 10., 10., 10., 10., 10., 10., 10., 10.,
          10., 10., 10., 10., 10., 10., 10., 10., 10., 10., 10., 10.,
          10., 10., 10., 10., 10., 10., 10., 10., 10., 10., 10., 10.,
          10., 10., 10., 10., 10., 10., 10., 10., 10., 10., 10., 10.,
          10., 10., 10., 10., 10., 10., 10., 10., 10., 10., 10., 10.,
          10., 10., 10., 10., 10., 10., 10., 10., 10., 10., 10., 10.,
          10., 10., 10., 10., 10., 10., 10., 10., 10., 10., 10., 10.,
          10., 10., 10., 10., 10., 10., 10., 10., 10., 10., 10., 10.,
          10., 10., 10., 10., 10., 10., 10., 10., 10., 10., 10., 10.,
          10., 10., 10., 10., 10., 10., 10., 10., 10., 10., 10., 10.,
          10., 10., 10., 10., 10., 10., 10., 10., 10., 10., 10., 10.,
          10., 10., 10., 10., 10., 10., 10., 10., 10., 10., 10., 10.,
          10., 10., 10., 10., 10., 10., 10., 10., 10., 10., 10., 10.,
          10., 10., 10., 10., 10., 10., 10., 10., 10., 10., 10., 10.,
          10., 10., 10., 10., 10., 10., 10., 10., 10., 10., 10., 10.,
          10., 10., 10., 10., 10., 10., 10., 10., 10., 10., 10., 10.,
          10., 10., 10., 10., 10., 10., 10., 10., 10., 10., 10., 10.,
          10., 10., 10., 10., 10., 10., 10., 10., 10., 10., 10., 10.,
          10., 10., 10., 10., 10., 10., 10., 10., 10., 10., 10., 10.,
          10., 10., 10., 10., 10., 10., 10., 10., 10., 10., 10., 10.,
          10., 10., 10., 10., 10., 10., 10., 10., 10., 10., 10., 10.,
          10., 10., 10., 10., 10., 10., 10., 10., 10., 10., 10., 10.,
          10., 10., 10., 10., 10., 10., 10., 10., 10., 10., 10., 10.,
          10., 10., 10., 10., 10., 10., 10., 10., 10., 10., 10., 10.,
          10., 10., 10., 10., 10., 10., 10., 10., 10., 10., 10., 10.,
          10., 10., 10., 10., 10., 10., 10., 10., 10., 10., 10., 10.,
          10., 10., 10., 10., 10., 10., 10., 10., 10., 10., 10., 10.,
          10., 10., 10., 10., 10., 10., 10., 10., 10., 10., 10., 10.,
          10., 10., 10., 10., 10., 10., 10., 10., 10., 10., 10., 10.,
          10., 10., 10., 10., 10., 10., 10., 10., 10., 10., 10., 10.,
          10., 10., 10., 10., 10., 10., 10., 10., 10., 10., 10., 10.,
          10., 10., 10., 10., 10., 10., 10., 10., 10., 10., 10., 10.,
          10., 10., 10., 10., 10., 10., 10., 10., 10., 10., 10., 10.,
          10., 10., 10., 10., 10., 10., 10., 10., 10., 10., 10., 10.,
          10., 10., 10., 10., 10., 10., 10., 10., 10., 10., 10., 10.,
          10., 10., 10., 10., 10., 10., 10., 10., 10., 10., 10., 10.,
          10., 10., 10., 10., 10., 10., 10., 10., 10., 10., 10., 10.,
          10., 10., 10., 10., 10., 10., 10., 10., 10., 10., 10., 10.,
          10., 10., 10., 10., 10., 10., 10., 10., 10., 10., 10., 10.,
          10., 10., 10., 10., 10., 10., 10., 10., 10., 10., 10., 10.,
          10., 10., 10., 10., 10., 10., 10., 10., 10., 10., 10., 10.,
          10., 10., 10., 10., 10., 10., 10., 10., 10., 10., 10., 10.,
          10., 10., 10., 10., 10., 10., 10., 10., 10., 10., 10., 10.,
          10., 10., 10., 10., 10., 10., 10., 10., 10., 10., 10., 10.,
          10., 10., 10., 10., 10., 10., 10., 10., 10., 10., 10., 10.,
          10., 10., 10., 10., 10., 10., 10., 10., 10., 10., 10., 10.,
          10., 10., 10., 10., 10., 10., 10., 10., 10., 10., 10., 10.,
          10., 10., 10., 10., 10., 10., 10., 10., 10., 10., 10., 10.,
          10., 10., 10., 10., 10., 10., 10., 10., 10., 10., 10., 10.,
          10., 10., 10., 10., 10., 10., 10., 10., 10., 10., 10., 10.,
          10., 10., 10., 10., 10., 10., 10., 10., 10., 10., 10., 10.,
          10., 10., 10., 10., 10., 10., 10., 10., 10., 10., 10., 10.,
          10., 10., 10., 10., 10., 10., 10., 10., 10., 10., 10., 10.,
          10., 10., 10., 10., 10., 10., 10., 10., 10., 10., 10., 10.,
          10., 10., 10., 10., 10., 10., 10., 10., 10., 10., 10., 10.,
          10., 10., 10., 10., 10., 10., 10., 10., 10., 10., 10., 10.,
          10., 10., 10., 10., 10., 10., 10., 10., 10., 10., 10., 10.,
          10., 10., 10., 10., 10., 10., 10., 10., 10., 10., 10., 10.,
          10., 10., 10., 10., 10., 10., 10., 10., 10., 10., 10., 10.,
          10., 10., 10., 10., 10., 10., 10., 10., 10., 10., 10., 10.,
          10., 10., 10., 10., 10., 10., 10., 10., 10., 10., 10., 10.,
          10., 10., 10., 10., 10., 10., 10., 10., 10., 10., 10., 10.,
          10., 10., 10., 10., 10., 10., 10., 10., 10., 10., 10., 10.,
          10., 10., 10., 10., 10., 10., 10., 10., 10., 10., 10., 10.,
          10., 10., 10., 10., 10., 10., 10., 10., 10., 10., 10., 10.,
          10., 10., 10., 10., 10., 10., 10., 10., 10., 10., 10., 10.,
          10., 10., 10., 10., 10., 10., 10., 10., 10., 10., 10., 10.,
          10., 10., 10., 10., 10., 10., 10., 10., 10., 10., 10., 10.,
          10., 10., 10., 10., 10., 10., 10., 10., 10., 10., 10., 10.,
          10., 10., 10., 10., 10., 10., 10., 10., 10., 10., 10., 10.,
          10., 10., 10., 10., 10., 10., 10., 10., 10., 10., 10., 10.,
          10., 10., 10., 10., 10., 10., 10., 10., 10., 10., 10., 10.,
          10., 10., 10., 10., 10., 10., 10., 10., 10., 10., 10., 10.,
          10., 10., 10., 10., 10., 10., 10., 10., 10., 10., 10., 10.,
          10., 10., 10., 10., 10., 10., 10., 10., 10., 10., 10., 10.,
          10., 10., 10., 10., 10., 10., 10., 10., 10., 10., 10., 10.,
          10., 10., 10., 10., 10., 10., 10., 10., 10., 10., 10., 10.,
          10., 10., 10., 10., 10., 10., 10., 10., 10., 10., 10., 10.,
          10., 10., 10., 10., 10., 10., 10., 10., 10., 10., 10., 10.,
          10., 10., 10., 10., 10., 10., 10., 10., 10., 10., 10., 10.,
          10., 10., 10., 10., 10., 10., 10., 10., 10., 10., 10., 10.,
          10., 10., 10., 10., 10., 10., 10., 10., 10., 10., 10., 10.,
          10., 10., 10., 10., 10., 10., 10., 10., 10., 10., 10., 10.,
          10., 10., 10., 10., 10., 10., 10., 10., 10., 10., 10., 10.,
          10., 10., 10., 10., 10., 10., 10., 10., 10., 10., 10., 10.,
          10., 10., 10., 10., 10., 10., 10., 10., 10., 10., 10., 10.,
          10., 10., 10., 10., 10., 10., 10., 10., 10., 10., 10., 10.,
          10., 10., 10., 10., 10., 10., 10., 10., 10., 10., 10., 10.,
          10., 10., 10., 10., 10., 10., 10., 10., 10., 10., 10., 10.,
          10., 10., 10., 10., 10., 10., 10., 10., 10., 10., 10., 10.,
          10., 10., 10., 10., 10., 10., 10., 10., 10., 10., 10., 10.,
          10., 10., 10., 10., 10., 10., 10., 10., 10., 10., 10., 10.,
          10., 10., 10., 10., 10., 10., 10., 10., 10., 10., 10., 10.,
          10., 10., 10., 10., 10., 10., 10., 10., 10., 10., 10., 10.,
          10., 10., 10., 10., 10., 10., 10., 10., 10., 10., 10., 10.,
          10., 10., 10., 10., 10., 10., 10., 10., 10., 10., 10., 10.,
          10., 10., 10., 10., 10., 10., 10., 10., 10., 10., 10., 10.,
          10., 10., 10., 10., 10., 10., 10., 10., 10., 10., 10., 10.,
          10., 10., 10., 10., 10., 10., 10., 10., 10., 10., 10., 10.,
          10., 10., 10., 10., 10., 10., 10., 10., 10., 10., 10., 10.,
          10., 10., 10., 10., 10., 10., 10., 10., 10., 10., 10., 10.,
          10., 10., 10., 10., 10., 10., 10., 10., 10., 10., 10., 10.,
          10., 10., 10., 10., 10., 10., 10., 10., 10., 10., 10., 10.,
          10., 10., 10., 10., 10., 10., 10., 10., 10., 10., 10., 10.,
          10., 10., 10., 10., 10., 10., 10., 10., 10., 10., 10., 10.,
          10., 10., 10., 10., 10., 10., 10., 10., 10., 10., 10., 10.,
          10., 10., 10., 10., 10., 10., 10., 10., 10., 10., 10., 10.,
          10., 10., 10., 10., 10., 10., 10., 10., 10., 10., 10., 10.,
          10., 10., 10., 10., 10., 10., 10., 10., 10., 10., 10., 10.,
          10., 10., 10., 10., 10., 10., 10., 10., 10., 10., 10., 10.,
          10., 10., 10., 10., 10., 10., 10., 10., 10., 10., 10., 10.,
          10., 10., 10., 10., 10., 10., 10., 10., 10., 10., 10., 10.,
          10., 10., 10., 10., 10., 10., 10., 10., 10., 10., 10., 10.,
          10., 10., 10., 10., 10., 10., 10., 10., 10., 10., 10., 10.,
          10., 10., 10., 10., 10., 10., 10., 10., 10., 10., 10., 10.,
          10., 10., 10., 10., 10., 10., 10., 10., 10., 10., 10., 10.,
          10., 10., 10., 10., 10., 10., 10., 10., 10., 10., 10., 10.,
          10., 10., 10., 10., 10., 10., 10., 10., 10., 10., 10., 10.,
          10., 10., 10., 10., 10., 10., 10., 10., 10., 10., 10., 10.,
          10., 10., 10., 10., 10., 10., 10., 10., 10., 10., 10., 10.,
          10., 10., 10., 10., 10., 10., 10., 10., 10., 10., 10., 10.,
          10., 10., 10., 10., 10., 10., 10., 10., 10., 10., 10., 10.,
          10., 10., 10., 10., 10., 10., 10., 10., 10., 10., 10., 10.,
          10., 10., 10., 10., 10., 10., 10., 10., 10., 10., 10., 10.,
          10., 10., 10., 10., 10., 10., 10., 10., 10., 10., 10., 10.,
          10., 10., 10., 10., 10., 10., 10., 10., 10., 10., 10., 10.,
          10., 10., 10., 10., 10., 10., 10., 10., 10., 10., 10., 10.,
          10., 10., 10., 10., 10., 10., 10., 10., 10., 10., 10., 10.,
          10., 10., 10., 10., 10., 10., 10., 10., 10., 10., 10., 10.,
          10., 10., 10., 10., 10., 10., 10., 10., 10., 10., 10., 10.,
          10., 10., 10., 10., 10., 10., 10., 10., 10., 10., 10., 10.,
          10., 10., 10., 10., 10., 10., 10., 10., 10., 10., 10., 10.,
          10., 10., 10., 10., 10., 10., 10., 10., 10., 10., 10., 10.,
          10., 10., 10., 10., 10., 10., 10., 10., 10., 10., 10., 10.,
          10., 10., 10., 10., 10., 10., 10., 10., 10., 10., 10., 10.,
          10., 10., 10., 10., 10., 10., 10., 10., 10., 10., 10., 10.,
          10., 10., 10., 10., 10., 10., 10., 10., 10., 10., 10., 10.,
          10., 10., 10., 10., 10., 10., 10., 10., 10., 10., 10., 10.,
          10., 10., 10., 10., 10., 10., 10., 10., 10., 10., 10., 10.,
          10., 10., 10., 10., 10., 10., 10., 10., 10., 10., 10., 10.,
          10., 10., 10., 10., 10., 10., 10., 10., 10., 10., 10., 10.,
          10., 10., 10., 10., 10., 10., 10., 10., 10., 10., 10., 10.,
          10., 10., 10., 10., 10., 10., 10., 10., 10., 10., 10., 10.,
          10., 10., 10., 10., 10., 10., 10., 10., 10., 10., 10., 10.,
          10., 10., 10., 10., 10., 10., 10., 10., 10., 10., 10., 10.,
          10., 10., 10., 10., 10., 10., 10., 10., 10., 10., 10., 10.,
          10., 10., 10., 10., 10., 10., 10., 10., 10., 10., 10., 10.,
          10., 10., 10., 10., 10., 10., 10., 10., 10., 10., 10., 10.,
          10., 10., 10., 10., 10., 10., 10., 10., 10., 10., 10., 10.,
          10., 10., 10., 10., 10., 10., 10., 10., 10., 10., 10., 10., 8.,
          8., 8., 7., 8., 13., 17., 24., 35., 36., 225., 250., 7., 9.,
          9., 11., 14., 19., 24., 35., 37., 250., 241., 45., 10., 11.,
          13., 16., 20., 27., 36., 37., 235., 247., 52., 103., 16., 17.,
          19., 22., 29., 41., 43., 239., 232., 78., 106., 90., 27., 29.,
          30., 34., 41., 45., 255., 229., 105., 118., 92., 31., 118.,
          43., 48., 52., 46., 253., 243., 71., 151., 96., 39., 44., 73.,
          69., 38., 53., 255., 244., 81., 170., 75., 45., 41., 28., 41.,
          218., 68., 254., 177., 71., 166., 88., 47., 43., 30., 23., 41.,
          101., 197., 48., 69., 205., 60., 46., 45., 33., 24., 17., 54.,
          34., 92., 193., 77., 75., 34., 45., 41., 27., 18., 15., 50.,
          176., 67., 31., 92., 37., 45., 46., 35., 23., 16., 11., 30.,
          130., 84., 38., 73., 173., 48., 41., 30., 23., 13., 10., 8.,
          8., 8., 7., 8., 13., 17., 24., 35., 36., 225., 250., 7., 9.,
          9., 11., 14., 19., 24., 35., 37., 250., 241., 45., 10., 11.,
          13., 16., 20., 27., 36., 37., 235., 247., 52., 103., 16., 17.,
          19., 22., 29., 41., 43., 239., 232., 78., 106., 90., 27., 29.,
          30., 34., 41., 45., 255., 229., 105., 118., 92., 31., 118.,
          43., 48., 52., 46., 253., 243., 71., 151., 96., 39., 44., 73.,
          69., 38., 53., 255., 244., 81., 170., 75., 45., 41., 28., 41.,
          218., 68., 254., 177., 71., 166., 88., 47., 43., 30., 23., 41.,
          101., 197., 48., 69., 205., 60., 46., 45., 33., 24., 17., 54.,
          34., 92., 193., 77., 75., 34., 45., 41., 27., 18., 15., 50.,
          176., 67., 31., 92., 37., 45., 46., 35., 23., 16., 11., 30.,
          130., 84., 38., 73., 173., 48., 41., 30., 23., 13., 10., 26.,
          15., 18., 120., 7., 57., 10., 110., 65., 51., 20., 16., 5.,
          48., 43., 8., 103., 15., 16., 31., 62., 17., 83., 49., 23.,
          67., 23., 74., 9., 25., 62., 36., 30., 23., 26., 61., 22., 14.,
          54., 60., 39., 78., 44., 30., 77., 23., 13., 16., 70., 12.,
          74., 7., 93., 107., 49., 70., 24., 25., 10., 46., 20., 22.,
          12., 49., 65., 60., 125., 63., 59., 15., 24., 6., 15., 13.,
          22., 47., 103., 90., 66., 77., 20., 38., 37., 39., 7., 12.,
          16., 9., 15., 47., 58., 12., 113., 119., 41., 3., 34., 0., 8.,
          16., 19., 9., 35., 99., 121., 95., 6., 100., 16., 12., 7., 19.,
          29., 37., 37., 44., 63., 42., 31., 211., 15., 36., 12., 12.,
          19., 25., 30., 32., 30., 24., 3., 51., 16., 10., 6., 7., 13.,
          15., 18., 19., 19., 15., 12., 44., 26., 15., 18., 120., 7.,
          57., 10., 110., 65., 51., 20., 16., 5., 48., 43., 8., 103.,
          15., 16., 31., 62., 17., 83., 49., 23., 67., 23., 74., 9., 25.,
          62., 36., 30., 23., 26., 61., 22., 14., 54., 60., 39., 78.,
          44., 30., 77., 23., 13., 16., 70., 12., 74., 7., 93., 107.,
          49., 70., 24., 25., 10., 46., 20., 22., 12., 49., 65., 60.,
          125., 63., 59., 15., 24., 6., 15., 13., 22., 47., 103., 90.,
          66., 77., 20., 38., 37., 39., 7., 12., 16., 9., 15., 47., 58.,
          12., 113., 97., 15., 4., 34., 0., 8., 16., 19., 9., 35., 99.,
          121., 40., 52., 197., 16., 12., 7., 19., 29., 37., 37., 44.,
          63., 18., 161., 108., 15., 36., 12., 12., 19., 25., 30., 32.,
          30., 10., 106., 91., 16., 10., 6., 7., 13., 15., 18., 19., 19.,
          9., 6., 10., 26., 15., 18., 120., 7., 57., 10., 110., 65., 51.,
          20., 16., 5., 48., 43., 8., 103., 15., 16., 31., 62., 17., 83.,
          49., 23., 67., 23., 74., 9., 25., 62., 36., 30., 23., 26., 61.,
          22., 14., 54., 60., 39., 78., 44., 30., 77., 23., 13., 16.,
          70., 12., 74., 7., 93., 107., 49., 70., 24., 25., 10., 46.,
          20., 22., 12., 49., 65., 60., 125., 63., 59., 15., 24., 6.,
          15., 13., 22., 47., 103., 90., 66., 77., 20., 38., 37., 39.,
          7., 12., 16., 9., 15., 47., 58., 12., 113., 64., 10., 3., 34.,
          0., 8., 16., 19., 9., 35., 99., 121., 57., 121., 216., 16.,
          12., 7., 19., 29., 37., 37., 44., 63., 25., 14., 6., 15., 36.,
          12., 12., 19., 25., 30., 32., 30., 25., 10., 123., 16., 10.,
          6., 7., 13., 15., 18., 19., 19., 10., 8., 50., 26., 15., 18.,
          120., 7., 57., 10., 110., 65., 51., 20., 16., 5., 48., 43., 8.,
          103., 15., 16., 31., 62., 17., 83., 49., 23., 67., 23., 74.,
          9., 25., 62., 36., 30., 23., 26., 61., 22., 14., 54., 60., 39.,
          78., 44., 30., 77., 23., 13., 16., 70., 12., 74., 7., 93.,
          107., 49., 70., 24., 25., 10., 46., 20., 22., 12., 49., 65.,
          60., 125., 63., 59., 15., 24., 6., 15., 13., 22., 47., 103.,
          90., 66., 77., 20., 38., 37., 39., 7., 12., 16., 9., 15., 47.,
          58., 12., 113., 119., 57., 0., 34., 0., 8., 16., 19., 9., 35.,
          99., 121., 107., 14., 33., 16., 12., 7., 19., 29., 37., 37.,
          44., 63., 44., 6., 145., 15., 36., 12., 12., 19., 25., 30.,
          32., 30., 14., 20., 201., 16., 10., 6., 7., 13., 15., 18., 19.,
          19., 5., 121., 104., 26., 15., 18., 120., 7., 57., 10., 110.,
          65., 51., 20., 16., 5., 48., 43., 8., 103., 15., 16., 31., 62.,
          17., 83., 49., 23., 67., 23., 74., 9., 25., 62., 36., 30., 23.,
          26., 61., 22., 14., 54., 60., 39., 78., 44., 30., 77., 23.,
          13., 16., 70., 12., 74., 7., 93., 107., 49., 70., 24., 25.,
          10., 46., 20., 22., 12., 49., 65., 60., 125., 63., 59., 15.,
          24., 6., 15., 13., 22., 47., 103., 90., 66., 77., 20., 38.,
          37., 39., 7., 12., 16., 9., 15., 47., 58., 12., 113., 95., 4.,
          2., 34., 0., 8., 16., 19., 9., 35., 99., 121., 76., 53., 239.,
          16., 12., 7., 19., 29., 37., 37., 44., 63., 30., 76., 147.,
          15., 36., 12., 12., 19., 25., 30., 32., 30., 17., 97., 227.,
          16., 10., 6., 7., 13., 15., 18., 19., 19., 9., 2., 11. ]
   responses: !!opencv-matrix
      rows: 26
      cols: 1
      dt: f
      data: [ -1., -1., -1., -1., -1., -1., -1., -1., -1., -1., -1., -1.,
          -1., -1., -1., -1., -1., -1., -1., 0., 0., 1., 1., 1., 1., 1. ]
